34 128
34 -0.060945 -0.195821 0.047807 0.062046 0.038855 -0.119732 0.136879 0.009608 -0.031670 0.023147 -0.066975 0.171278 0.124118 -0.199881 -0.057013 -0.185813 -0.046242 -0.064259 -0.038937 0.086174 0.178616 -0.014071 0.273119 -0.019338 0.005338 -0.069853 -0.086196 -0.040724 0.028020 0.144258 0.071263 0.161373 -0.111276 0.028566 -0.080470 -0.062830 0.201298 0.091544 0.002946 -0.011575 -0.244363 0.082788 0.126800 0.132949 -0.175117 0.088997 0.006706 -0.178858 -0.037895 0.018059 -0.086289 0.168310 0.054935 0.071537 -0.158180 -0.120697 -0.082017 -0.043853 -0.077105 0.054021 0.148679 -0.089015 -0.086965 0.162344 0.021925 -0.101771 -0.045694 -0.051412 0.046063 -0.072682 -0.016999 0.070860 -0.040109 -0.041136 0.116708 -0.011855 0.053235 0.172088 -0.022701 0.060036 -0.120337 -0.091099 -0.051632 -0.208942 -0.059684 0.199943 -0.039156 -0.004292 -0.115279 0.049241 0.071698 0.078377 0.187257 -0.044835 -0.119116 0.164179 -0.077540 0.031650 0.053970 -0.018805 -0.203223 0.088083 -0.222902 -0.067814 -0.030647 0.027801 0.179167 0.096707 -0.003091 -0.089955 0.016127 -0.005011 -0.022642 -0.036601 -0.045021 -0.021850 -0.065621 0.195979 -0.157776 0.073964 -0.092424 -0.166700 0.074057 -0.155489 -0.170467 0.108251 0.012952 0.099137
1 -0.103722 -0.297447 0.042193 0.041069 -0.072404 -0.196781 0.083312 0.169693 0.154334 0.010902 0.003680 0.276450 0.145695 -0.106792 0.065578 -0.228342 -0.141247 -0.191869 0.054675 -0.059224 0.178570 -0.124949 0.225681 -0.027959 0.153855 -0.033821 -0.043142 -0.030752 0.086140 -0.000275 0.062121 0.121751 -0.072657 -0.028018 0.022917 -0.058618 0.151293 0.069414 0.013074 -0.031791 -0.148809 -0.027365 0.166912 0.156599 -0.263828 0.036783 0.069368 -0.064075 0.088874 0.062707 -0.266401 0.135735 0.084112 0.031451 -0.106820 -0.141393 -0.009458 0.007965 -0.069991 -0.017270 0.214344 -0.121575 0.070383 0.143995 -0.154348 0.097486 -0.089543 0.074952 -0.007163 -0.143587 -0.134594 0.047567 -0.105375 -0.115724 0.229886 0.098635 0.105869 0.050147 -0.030562 -0.105782 -0.116069 -0.006363 -0.038310 -0.057439 -0.162871 -0.033226 0.154862 -0.007763 0.063398 0.074234 0.106393 -0.022700 0.116950 -0.003602 -0.128696 -0.023330 0.108438 -0.228506 0.052159 0.192517 -0.126798 0.088397 -0.211406 -0.046562 -0.104200 -0.017401 0.102938 0.053727 0.061330 -0.103030 -0.055893 0.196858 -0.027351 0.028586 -0.178881 -0.012813 -0.006389 0.193830 -0.222311 -0.089600 -0.029251 0.025944 0.204194 -0.175423 -0.363687 -0.091376 0.043954 0.192444
33 -0.059376 -0.192700 0.049191 0.062223 0.050623 -0.123157 0.141750 0.000546 -0.045281 0.024390 -0.068674 0.156099 0.123010 -0.214052 -0.064934 -0.179929 -0.039993 -0.050700 -0.052542 0.098009 0.184691 -0.001316 0.275613 -0.016179 -0.012671 -0.069915 -0.096250 -0.037189 0.028552 0.159475 0.067353 0.171114 -0.114957 0.038696 -0.101126 -0.073372 0.205736 0.093455 0.000961 -0.008799 -0.258625 0.091707 0.122804 0.130368 -0.170562 0.101995 -0.005652 -0.192208 -0.056419 0.011059 -0.076320 0.178496 0.054679 0.075460 -0.174023 -0.113824 -0.092380 -0.048649 -0.080744 0.069089 0.153663 -0.098582 -0.104091 0.171471 0.040415 -0.123956 -0.036007 -0.062927 0.049494 -0.066288 -0.003475 0.073702 -0.028512 -0.036538 0.106275 -0.019904 0.055717 0.182724 -0.020337 0.072386 -0.117884 -0.104755 -0.057472 -0.232803 -0.055205 0.229123 -0.060275 -0.006981 -0.130984 0.046188 0.078250 0.092333 0.199467 -0.054586 -0.118585 0.188898 -0.101502 0.050175 0.061333 -0.038724 -0.221657 0.085912 -0.233091 -0.063287 -0.016722 0.030944 0.192212 0.105211 -0.005932 -0.095999 0.019160 -0.024746 -0.021478 -0.048556 -0.036067 -0.022886 -0.073974 0.195814 -0.157886 0.082414 -0.099358 -0.189381 0.062414 -0.160339 -0.152566 0.125969 0.004452 0.090897
3 -0.078066 -0.222470 0.052992 0.049076 0.004516 -0.146907 0.116817 0.061750 0.014450 0.018818 -0.042281 0.199309 0.125278 -0.177625 -0.019242 -0.202272 -0.073764 -0.102701 -0.006518 0.036945 0.177707 -0.042374 0.256216 -0.017920 0.048553 -0.051078 -0.070293 -0.025605 0.056536 0.104669 0.063668 0.143491 -0.105390 0.023519 -0.053378 -0.067299 0.189831 0.085489 0.011676 -0.012730 -0.210511 0.038684 0.139717 0.148286 -0.202349 0.078249 0.023251 -0.146173 -0.008017 0.031241 -0.142193 0.148581 0.061752 0.064907 -0.154106 -0.126688 -0.061204 -0.025436 -0.089299 0.039378 0.168309 -0.102198 -0.040028 0.162304 -0.032100 -0.040184 -0.055847 -0.011637 0.027925 -0.102033 -0.052253 0.065594 -0.058220 -0.063144 0.160950 0.025564 0.081281 0.133715 -0.020031 0.008214 -0.120975 -0.068817 -0.054570 -0.168198 -0.093106 0.139997 0.022903 -0.010146 -0.059333 0.050822 0.086202 0.048269 0.162282 -0.038827 -0.128262 0.106161 -0.031207 -0.049673 0.056274 0.047683 -0.186759 0.084213 -0.226630 -0.056638 -0.048026 0.019501 0.160300 0.087837 0.018464 -0.105249 -0.006712 0.055812 -0.022437 -0.013415 -0.089296 -0.017526 -0.055791 0.200780 -0.178785 0.016547 -0.078353 -0.121878 0.111215 -0.169873 -0.228457 0.044101 0.023912 0.128402
2 -0.083730 -0.256180 0.051338 0.041995 -0.032597 -0.170584 0.099407 0.115347 0.063131 0.020482 -0.031034 0.246432 0.148228 -0.162299 0.015586 -0.228949 -0.109823 -0.133729 0.027078 -0.004184 0.190835 -0.076746 0.258265 -0.028753 0.084739 -0.035003 -0.049505 -0.017063 0.076867 0.063250 0.064089 0.133688 -0.101815 0.017229 -0.024943 -0.057300 0.176151 0.070800 0.018448 -0.023355 -0.180872 0.013275 0.157429 0.157427 -0.227882 0.059902 0.037588 -0.112627 0.038481 0.038298 -0.199470 0.131336 0.082392 0.061664 -0.149359 -0.132827 -0.035697 -0.006133 -0.093218 0.017479 0.186616 -0.107836 0.004080 0.144999 -0.084456 0.026382 -0.073783 0.019952 0.004472 -0.121560 -0.091242 0.055080 -0.067322 -0.085517 0.189523 0.065839 0.099437 0.095969 -0.019286 -0.036125 -0.122490 -0.059443 -0.057494 -0.120759 -0.120576 0.079917 0.077869 -0.013567 0.001255 0.054809 0.101696 0.021380 0.135238 -0.040165 -0.134669 0.046918 0.021190 -0.138193 0.045129 0.114694 -0.158335 0.074982 -0.213634 -0.054530 -0.074988 -0.001172 0.147500 0.082188 0.026715 -0.107914 -0.037049 0.113820 -0.020186 0.010668 -0.134450 -0.016623 -0.037574 0.204186 -0.210242 -0.033655 -0.061803 -0.065372 0.153784 -0.179536 -0.275344 -0.015537 0.040027 0.155431
32 -0.067214 -0.215490 0.042778 0.059838 0.029971 -0.129515 0.141466 0.013461 -0.025233 0.025736 -0.067767 0.179159 0.129461 -0.201798 -0.054525 -0.192020 -0.049378 -0.076014 -0.042163 0.085596 0.188010 -0.015800 0.276004 -0.018064 0.004554 -0.069469 -0.090662 -0.035793 0.033769 0.143952 0.074387 0.168172 -0.101206 0.026972 -0.090405 -0.066580 0.204322 0.096089 0.002004 -0.021431 -0.247049 0.079842 0.121196 0.131522 -0.184808 0.094917 0.007801 -0.166836 -0.034485 0.014348 -0.099892 0.173499 0.055257 0.072116 -0.165602 -0.121281 -0.079761 -0.042785 -0.085097 0.057177 0.153184 -0.096077 -0.079496 0.169796 0.005005 -0.096875 -0.049855 -0.042263 0.039668 -0.081203 -0.028829 0.075487 -0.042024 -0.044688 0.117393 -0.003838 0.051642 0.166351 -0.022709 0.049493 -0.123314 -0.088920 -0.045649 -0.200455 -0.065560 0.199134 -0.034403 -0.004037 -0.105432 0.040617 0.078320 0.075702 0.190756 -0.047578 -0.109703 0.156464 -0.070736 0.023534 0.050094 -0.018118 -0.197511 0.085955 -0.231674 -0.065474 -0.023388 0.033697 0.184453 0.093946 -0.002765 -0.086524 0.008498 -0.003670 -0.019215 -0.031753 -0.049297 -0.023827 -0.064401 0.192332 -0.150026 0.059350 -0.092734 -0.165769 0.074687 -0.156006 -0.165417 0.095545 0.002569 0.103408
4 -0.084194 -0.242638 0.049524 0.047015 -0.019864 -0.164636 0.096755 0.106072 0.060476 0.015024 -0.023072 0.231419 0.138497 -0.156341 0.010744 -0.213269 -0.099373 -0.131190 0.019773 0.005577 0.181378 -0.070091 0.245108 -0.027530 0.081431 -0.037772 -0.060512 -0.022747 0.071868 0.066420 0.061549 0.132736 -0.096173 0.009557 -0.025970 -0.062727 0.178880 0.078486 0.013651 -0.015404 -0.183693 0.011728 0.153651 0.156063 -0.217765 0.060073 0.035957 -0.120087 0.023849 0.033718 -0.181154 0.133591 0.072616 0.056407 -0.139460 -0.127134 -0.039208 -0.012341 -0.082208 0.015509 0.186728 -0.108760 0.000286 0.152176 -0.069642 0.014927 -0.072507 0.018482 0.013673 -0.116191 -0.080075 0.061984 -0.068106 -0.084797 0.185261 0.053185 0.092997 0.105912 -0.026831 -0.023228 -0.114976 -0.055765 -0.052030 -0.123534 -0.113807 0.080303 0.073534 -0.012904 -0.010006 0.059225 0.091991 0.021427 0.136699 -0.032547 -0.126724 0.058247 0.013137 -0.117736 0.050241 0.096180 -0.165075 0.080017 -0.209749 -0.045535 -0.071923 0.007306 0.137003 0.079358 0.026859 -0.106629 -0.020344 0.101959 -0.022068 0.004975 -0.119593 -0.012611 -0.041146 0.196711 -0.196891 -0.021146 -0.058180 -0.071074 0.139765 -0.173795 -0.270963 -0.004689 0.037254 0.150127
14 -0.080352 -0.240198 0.050676 0.043945 -0.013240 -0.154844 0.104738 0.082284 0.043441 0.022529 -0.038570 0.221129 0.134501 -0.163015 -0.000125 -0.208197 -0.088168 -0.118845 0.010236 0.016737 0.184863 -0.057659 0.251263 -0.021364 0.065705 -0.042002 -0.057277 -0.022950 0.057135 0.085294 0.066789 0.142534 -0.096762 0.015233 -0.034818 -0.062556 0.175474 0.076906 0.010267 -0.021165 -0.195014 0.027042 0.142217 0.148351 -0.208641 0.070693 0.030173 -0.119159 0.017935 0.037847 -0.170920 0.142831 0.069759 0.058550 -0.141438 -0.126090 -0.049117 -0.015081 -0.087056 0.021517 0.176570 -0.108448 -0.012048 0.148701 -0.061447 -0.005262 -0.063711 0.002683 0.017505 -0.108444 -0.074678 0.062362 -0.067965 -0.070416 0.173907 0.045218 0.082186 0.112390 -0.022799 -0.016737 -0.120440 -0.058720 -0.047289 -0.133381 -0.110048 0.104117 0.047774 -0.011885 -0.026211 0.052467 0.090450 0.028490 0.148613 -0.035212 -0.123815 0.077376 -0.001649 -0.087952 0.052872 0.076685 -0.169542 0.080763 -0.214013 -0.049791 -0.063221 0.010917 0.150104 0.082729 0.020151 -0.100722 -0.024088 0.079514 -0.024707 -0.000122 -0.105046 -0.018989 -0.047204 0.190548 -0.187775 -0.006970 -0.065498 -0.087055 0.129141 -0.168836 -0.242575 0.010898 0.025731 0.137645
24 -0.053556 -0.179425 0.050295 0.061596 0.053289 -0.113926 0.140468 -0.014191 -0.055773 0.029662 -0.073559 0.150507 0.128119 -0.219784 -0.076987 -0.183756 -0.032973 -0.049477 -0.054204 0.106681 0.188158 0.005459 0.283625 -0.010679 -0.019182 -0.068223 -0.095042 -0.038816 0.021280 0.169571 0.066205 0.170473 -0.115003 0.034806 -0.104155 -0.070284 0.209713 0.092914 0.002984 -0.016099 -0.259570 0.099658 0.113037 0.128924 -0.162847 0.106643 -0.011858 -0.186011 -0.057086 0.006344 -0.061156 0.177992 0.046143 0.083465 -0.170179 -0.107337 -0.088578 -0.050808 -0.087245 0.071671 0.142186 -0.092550 -0.107177 0.168189 0.040079 -0.133459 -0.038540 -0.065917 0.047262 -0.058920 -0.000449 0.077069 -0.029708 -0.030936 0.098018 -0.028753 0.042207 0.183396 -0.020708 0.084111 -0.117958 -0.102139 -0.052615 -0.229179 -0.049917 0.233970 -0.073985 -0.002456 -0.136742 0.042375 0.069134 0.092264 0.204532 -0.056556 -0.110218 0.196393 -0.104158 0.071816 0.055855 -0.054620 -0.219432 0.091650 -0.224844 -0.060918 -0.011744 0.042231 0.195428 0.104828 -0.011499 -0.086330 0.025627 -0.042465 -0.020183 -0.044675 -0.031820 -0.029084 -0.075558 0.188304 -0.140988 0.092389 -0.101556 -0.200125 0.049658 -0.155553 -0.129861 0.137977 0.000241 0.086004
6 -0.099239 -0.309176 0.030325 0.058421 -0.071969 -0.196074 0.100399 0.165762 0.164108 0.008604 0.007899 0.288221 0.148281 -0.111403 0.068574 -0.228512 -0.150216 -0.201012 0.039849 -0.050924 0.184921 -0.132397 0.237835 -0.030295 0.161464 -0.054547 -0.061393 -0.060431 0.075474 0.012822 0.077798 0.131116 -0.068496 -0.044476 0.022399 -0.059396 0.164336 0.084102 -0.007195 -0.036792 -0.166605 -0.009079 0.172070 0.148058 -0.280765 0.047711 0.080431 -0.073736 0.091925 0.062132 -0.267856 0.159675 0.082231 0.019130 -0.093972 -0.154044 -0.012529 -0.006255 -0.054038 -0.022978 0.227065 -0.117932 0.075954 0.157119 -0.152711 0.084274 -0.096814 0.073413 -0.000374 -0.146162 -0.130944 0.057927 -0.120266 -0.114162 0.237189 0.095767 0.094109 0.067465 -0.041872 -0.100030 -0.122735 0.009901 -0.029902 -0.059030 -0.161157 -0.038011 0.154377 -0.003662 0.048707 0.080575 0.112003 -0.017276 0.138767 0.008643 -0.126703 -0.008594 0.118410 -0.223457 0.058491 0.188957 -0.129813 0.094058 -0.227826 -0.050093 -0.113720 -0.019971 0.101901 0.057629 0.070553 -0.101923 -0.046685 0.203721 -0.033068 0.014833 -0.174305 -0.008838 -0.004767 0.191463 -0.219293 -0.078941 -0.026265 0.023465 0.218342 -0.184484 -0.381243 -0.080314 0.043376 0.193953
7 -0.095764 -0.301370 0.021505 0.051457 -0.080632 -0.188985 0.090375 0.166624 0.178338 0.005297 0.011562 0.283376 0.143301 -0.096946 0.075531 -0.216838 -0.149076 -0.200589 0.037712 -0.055708 0.176817 -0.135242 0.223405 -0.023211 0.165144 -0.052246 -0.064919 -0.060339 0.071196 -0.004117 0.077501 0.128084 -0.062996 -0.053816 0.024574 -0.057416 0.153559 0.074866 -0.007351 -0.035101 -0.157192 -0.014775 0.164442 0.145917 -0.274000 0.044262 0.081738 -0.056998 0.096251 0.059212 -0.272827 0.154786 0.082925 0.016048 -0.087880 -0.144371 -0.006061 -0.004616 -0.048374 -0.020244 0.220450 -0.117654 0.086704 0.152919 -0.161663 0.097879 -0.093372 0.084169 -0.000255 -0.144475 -0.138445 0.058905 -0.123516 -0.117360 0.233987 0.102107 0.086833 0.055466 -0.042033 -0.112268 -0.112128 0.019567 -0.026585 -0.042809 -0.167679 -0.054070 0.157125 -0.000656 0.057445 0.081850 0.110189 -0.025576 0.131903 0.010073 -0.119782 -0.018478 0.132127 -0.229032 0.050093 0.196883 -0.122137 0.095846 -0.223418 -0.046666 -0.111908 -0.028430 0.088012 0.046980 0.075360 -0.094848 -0.048290 0.213445 -0.033706 0.011078 -0.179270 -0.013755 -0.002560 0.181003 -0.215079 -0.083142 -0.020717 0.042935 0.220016 -0.171564 -0.379194 -0.094717 0.040752 0.199703
30 -0.057861 -0.198656 0.043063 0.061600 0.031779 -0.118691 0.138970 0.005069 -0.032630 0.026346 -0.069631 0.167080 0.122777 -0.202138 -0.059999 -0.187921 -0.044850 -0.066032 -0.045379 0.090330 0.181651 -0.014273 0.276340 -0.020037 0.004874 -0.069412 -0.085533 -0.038091 0.025654 0.147243 0.068011 0.160216 -0.107062 0.027259 -0.089327 -0.063954 0.200677 0.093315 0.004751 -0.018784 -0.246614 0.081322 0.122479 0.135628 -0.174530 0.095219 0.002645 -0.178860 -0.041923 0.017938 -0.090964 0.173652 0.056678 0.066998 -0.159939 -0.116234 -0.087149 -0.044083 -0.080526 0.059722 0.151908 -0.097478 -0.083384 0.166022 0.023685 -0.105657 -0.045411 -0.050950 0.044413 -0.075542 -0.016274 0.072271 -0.037912 -0.042042 0.116129 -0.013753 0.054231 0.174213 -0.021592 0.061679 -0.124180 -0.094398 -0.055246 -0.210792 -0.061070 0.207613 -0.046289 -0.003921 -0.117420 0.045945 0.077745 0.075190 0.191311 -0.044250 -0.112819 0.166430 -0.081817 0.036679 0.056294 -0.023793 -0.201935 0.087814 -0.229440 -0.069082 -0.024780 0.029165 0.183705 0.099140 -0.005632 -0.090705 0.010040 -0.012674 -0.024488 -0.040678 -0.042197 -0.025134 -0.070229 0.192243 -0.156469 0.073624 -0.097645 -0.168102 0.070075 -0.154086 -0.161721 0.109834 0.011285 0.098822
8 -0.075840 -0.230494 0.052984 0.046941 -0.006834 -0.149685 0.111737 0.072495 0.024849 0.024772 -0.043148 0.208178 0.130383 -0.170740 -0.008899 -0.205334 -0.079341 -0.103705 0.006867 0.031286 0.179194 -0.049144 0.252473 -0.026725 0.053407 -0.039622 -0.061119 -0.020109 0.056456 0.094609 0.060392 0.142988 -0.101133 0.024497 -0.046259 -0.063532 0.182481 0.075209 0.016916 -0.014011 -0.199758 0.033406 0.135534 0.148785 -0.197738 0.074057 0.018567 -0.133488 0.003314 0.032129 -0.154752 0.139428 0.072069 0.064129 -0.151813 -0.122393 -0.056983 -0.022085 -0.088905 0.028091 0.168399 -0.105634 -0.030027 0.151950 -0.039220 -0.026144 -0.056107 -0.007578 0.022118 -0.100883 -0.062866 0.059007 -0.057843 -0.067578 0.158883 0.035254 0.078816 0.121742 -0.019589 0.001558 -0.115368 -0.073689 -0.055705 -0.151229 -0.100524 0.127385 0.033541 -0.010103 -0.041900 0.049107 0.090403 0.037481 0.149561 -0.041145 -0.124169 0.085773 -0.019433 -0.072664 0.048029 0.055839 -0.172558 0.075234 -0.215924 -0.054675 -0.049924 0.010051 0.155816 0.080748 0.015319 -0.102998 -0.019560 0.065090 -0.019787 -0.005427 -0.100431 -0.015233 -0.052300 0.193136 -0.185953 0.005783 -0.074069 -0.106265 0.119574 -0.162997 -0.224817 0.025893 0.028927 0.127127
9 -0.068540 -0.212346 0.041951 0.055401 0.023324 -0.133521 0.129689 0.031093 -0.002081 0.021385 -0.056243 0.190298 0.130150 -0.195881 -0.041942 -0.194610 -0.063195 -0.079777 -0.032326 0.070910 0.182697 -0.023519 0.275903 -0.021663 0.018441 -0.061380 -0.087361 -0.043116 0.036306 0.131100 0.072983 0.164977 -0.106031 0.019035 -0.071106 -0.068825 0.199855 0.089221 -0.000183 -0.012694 -0.238847 0.064661 0.129812 0.138307 -0.191537 0.088314 0.010663 -0.164701 -0.026388 0.016200 -0.117061 0.169275 0.056911 0.066855 -0.153513 -0.121388 -0.074360 -0.038705 -0.082253 0.048772 0.161706 -0.099825 -0.067990 0.167090 -0.001072 -0.078649 -0.047952 -0.035318 0.036303 -0.082407 -0.031668 0.073753 -0.044160 -0.053894 0.136032 0.002299 0.056981 0.160658 -0.027911 0.038747 -0.117986 -0.081899 -0.054474 -0.196586 -0.078153 0.174484 -0.016530 -0.006317 -0.093940 0.051036 0.084316 0.064724 0.188129 -0.038396 -0.118485 0.138970 -0.053656 -0.001708 0.055837 0.009541 -0.202186 0.085012 -0.233234 -0.059983 -0.034453 0.022755 0.172845 0.097690 0.002617 -0.097873 0.006915 0.020555 -0.019333 -0.033115 -0.065773 -0.025169 -0.063551 0.198246 -0.168565 0.051887 -0.087519 -0.149438 0.089301 -0.162172 -0.196533 0.086037 0.012131 0.113760
28 -0.059379 -0.183285 0.048470 0.054493 0.040354 -0.108858 0.130193 -0.001150 -0.038647 0.022999 -0.063753 0.157021 0.115700 -0.192833 -0.062368 -0.174630 -0.040590 -0.060736 -0.040289 0.091293 0.170467 -0.006807 0.262026 -0.015330 -0.006305 -0.063472 -0.091752 -0.036639 0.027896 0.144648 0.066193 0.157271 -0.102417 0.031378 -0.088483 -0.069665 0.197266 0.091835 0.004343 -0.011350 -0.241273 0.077913 0.116882 0.128256 -0.169170 0.092856 -0.004394 -0.174378 -0.047922 0.011357 -0.083500 0.166475 0.050945 0.068224 -0.153970 -0.109960 -0.084299 -0.046634 -0.083132 0.061524 0.141174 -0.092734 -0.084578 0.163288 0.025983 -0.108414 -0.040481 -0.050213 0.039667 -0.072168 -0.014411 0.074085 -0.038435 -0.039905 0.107150 -0.015265 0.047106 0.171866 -0.025981 0.063261 -0.116414 -0.093481 -0.048734 -0.207416 -0.057192 0.206839 -0.046016 -0.002953 -0.116426 0.043690 0.073081 0.077806 0.184641 -0.048265 -0.106570 0.164717 -0.084568 0.044666 0.054977 -0.031879 -0.204043 0.088872 -0.224067 -0.062107 -0.017248 0.035352 0.181383 0.100106 -0.003728 -0.091597 0.018206 -0.013620 -0.023009 -0.040534 -0.039675 -0.027089 -0.069504 0.182522 -0.146800 0.070941 -0.092076 -0.172853 0.062619 -0.149044 -0.156245 0.109002 0.007125 0.091985
20 -0.072993 -0.220076 0.048757 0.051051 0.000827 -0.146503 0.117738 0.059549 0.013958 0.020068 -0.044857 0.191774 0.130221 -0.170332 -0.021567 -0.193288 -0.077095 -0.093950 -0.008404 0.036850 0.176841 -0.043964 0.251890 -0.020133 0.045752 -0.046033 -0.063534 -0.029457 0.050856 0.096157 0.058066 0.141335 -0.099248 0.019012 -0.048643 -0.060430 0.183201 0.076878 0.007870 -0.020192 -0.209397 0.042423 0.130257 0.138534 -0.190176 0.073885 0.021761 -0.139724 -0.002821 0.024194 -0.140391 0.148058 0.065469 0.056450 -0.145128 -0.118474 -0.058521 -0.030142 -0.084036 0.036603 0.168974 -0.097746 -0.038821 0.153263 -0.028243 -0.041221 -0.055531 -0.011728 0.023174 -0.088475 -0.050889 0.062700 -0.053434 -0.062847 0.148191 0.025049 0.076108 0.129396 -0.019259 0.015979 -0.114252 -0.074181 -0.052050 -0.167195 -0.087214 0.137544 0.014043 -0.007456 -0.059452 0.052597 0.085587 0.048642 0.158815 -0.039186 -0.119899 0.104079 -0.025973 -0.047732 0.049894 0.046399 -0.181556 0.077854 -0.216138 -0.052570 -0.047739 0.018218 0.154361 0.085545 0.016879 -0.094246 -0.010058 0.052344 -0.021770 -0.013139 -0.087197 -0.019228 -0.049039 0.194050 -0.175402 0.021879 -0.074754 -0.109444 0.106514 -0.164336 -0.214002 0.048352 0.019360 0.123050
25 -0.065543 -0.204671 0.041152 0.055516 0.030983 -0.126286 0.138257 -0.001452 -0.024676 0.026990 -0.072891 0.171037 0.131105 -0.205869 -0.061492 -0.197737 -0.044637 -0.072900 -0.042904 0.096508 0.195003 -0.014644 0.286869 -0.012316 0.001376 -0.076200 -0.089686 -0.042477 0.023806 0.156726 0.078321 0.173802 -0.104708 0.022173 -0.098948 -0.068046 0.202498 0.099666 -0.000526 -0.021009 -0.257144 0.087388 0.115989 0.127208 -0.179629 0.106770 0.002726 -0.171187 -0.037863 0.018731 -0.102478 0.185540 0.059000 0.072930 -0.171919 -0.120034 -0.081321 -0.051000 -0.087855 0.067610 0.153309 -0.098233 -0.084338 0.170736 0.011481 -0.110689 -0.044934 -0.050753 0.040917 -0.074269 -0.023635 0.071572 -0.040576 -0.038259 0.116401 -0.015888 0.044038 0.177053 -0.019631 0.052308 -0.126698 -0.093932 -0.049750 -0.218777 -0.066054 0.209407 -0.046264 -0.008848 -0.122784 0.040263 0.077613 0.076807 0.201748 -0.049912 -0.113078 0.169514 -0.080176 0.036091 0.058489 -0.021715 -0.212937 0.094036 -0.242152 -0.064339 -0.019028 0.028964 0.190957 0.100091 0.002895 -0.092173 0.006919 -0.009290 -0.020699 -0.041157 -0.053938 -0.030980 -0.064812 0.192744 -0.154151 0.065700 -0.095411 -0.168086 0.070541 -0.161511 -0.167751 0.115082 -0.002206 0.098939
26 -0.064295 -0.214907 0.045023 0.056639 0.026960 -0.136768 0.139168 0.019343 -0.014427 0.023121 -0.064134 0.182487 0.138133 -0.202775 -0.049585 -0.197140 -0.055673 -0.085284 -0.037126 0.080492 0.196742 -0.024573 0.286524 -0.014425 0.015822 -0.071974 -0.095515 -0.045080 0.031954 0.143478 0.078371 0.170734 -0.103703 0.015176 -0.086726 -0.073214 0.205727 0.094016 0.000892 -0.021320 -0.249590 0.071823 0.123924 0.135902 -0.195200 0.101598 0.005269 -0.167912 -0.029103 0.024358 -0.111903 0.182024 0.057191 0.066578 -0.162950 -0.124390 -0.075599 -0.041634 -0.087045 0.056720 0.166743 -0.104326 -0.070090 0.176677 -0.001049 -0.087683 -0.050249 -0.041580 0.041291 -0.081908 -0.034150 0.075839 -0.052488 -0.052084 0.133635 -0.004079 0.050976 0.166704 -0.026356 0.039252 -0.129966 -0.080997 -0.047392 -0.199739 -0.074335 0.188539 -0.028020 -0.005232 -0.102993 0.049390 0.083080 0.069117 0.199317 -0.039885 -0.115026 0.152387 -0.061626 0.011966 0.061095 -0.004757 -0.204829 0.094860 -0.238546 -0.061362 -0.029482 0.029318 0.185545 0.097219 0.009869 -0.089664 0.002776 0.010491 -0.022871 -0.031368 -0.061744 -0.027597 -0.061031 0.194466 -0.160758 0.050904 -0.090554 -0.157434 0.085294 -0.167855 -0.191079 0.095339 0.005795 0.108192
5 -0.092706 -0.286665 0.025806 0.049135 -0.062209 -0.184065 0.093916 0.148610 0.152350 0.004346 0.007867 0.272863 0.138121 -0.106346 0.062229 -0.220403 -0.140645 -0.186601 0.035218 -0.042566 0.177756 -0.116385 0.223679 -0.022111 0.146480 -0.049902 -0.059227 -0.053565 0.071643 0.009471 0.067908 0.122864 -0.071825 -0.035216 0.019474 -0.059992 0.158146 0.077191 -0.002042 -0.029428 -0.154630 -0.012477 0.158936 0.145548 -0.262584 0.045909 0.071614 -0.072575 0.079419 0.052976 -0.251820 0.150287 0.083234 0.018137 -0.094631 -0.145151 -0.011330 -0.005025 -0.054546 -0.018365 0.209991 -0.116193 0.068263 0.152714 -0.143490 0.080078 -0.084505 0.065982 0.004131 -0.137780 -0.125022 0.056150 -0.110852 -0.113854 0.222636 0.086809 0.088405 0.060766 -0.040652 -0.095730 -0.116627 0.001645 -0.034762 -0.063676 -0.156226 -0.027928 0.142569 -0.000536 0.045341 0.075613 0.107191 -0.015954 0.130942 0.003522 -0.124358 -0.004845 0.101078 -0.206719 0.056741 0.180417 -0.133334 0.089891 -0.219068 -0.051222 -0.106284 -0.020987 0.102303 0.054382 0.060138 -0.099069 -0.047552 0.187172 -0.028172 0.009580 -0.167029 -0.008518 -0.004847 0.187811 -0.207263 -0.070952 -0.028887 0.018112 0.202075 -0.175815 -0.358371 -0.071051 0.036801 0.189735
11 -0.093660 -0.276228 0.035393 0.052518 -0.049146 -0.179040 0.093788 0.138305 0.125245 0.006798 -0.005896 0.256187 0.138554 -0.119682 0.047929 -0.217566 -0.127713 -0.167046 0.028180 -0.030877 0.180237 -0.105623 0.236462 -0.024939 0.123550 -0.050173 -0.062916 -0.046494 0.065222 0.025691 0.071459 0.128771 -0.073402 -0.029392 0.004923 -0.054665 0.169464 0.079856 0.000123 -0.024717 -0.168131 0.004235 0.160995 0.145544 -0.251102 0.054402 0.064273 -0.081928 0.062524 0.050357 -0.227846 0.150370 0.077718 0.030070 -0.108093 -0.141995 -0.021323 -0.005850 -0.067697 -0.003693 0.203268 -0.114277 0.049365 0.154712 -0.122954 0.056698 -0.087065 0.050312 0.009812 -0.130297 -0.109262 0.057830 -0.101961 -0.102034 0.211603 0.079597 0.087105 0.074508 -0.037205 -0.071571 -0.112762 -0.009567 -0.036432 -0.083850 -0.145062 0.007811 0.118990 -0.003797 0.026176 0.071953 0.099641 -0.005285 0.138345 -0.003561 -0.118456 0.014704 0.081254 -0.173900 0.050606 0.153236 -0.136461 0.092640 -0.218718 -0.047088 -0.093731 -0.011733 0.115389 0.057753 0.055393 -0.099478 -0.037680 0.163516 -0.032549 0.005976 -0.150053 -0.016454 -0.020716 0.189927 -0.204434 -0.056295 -0.036164 -0.012749 0.187523 -0.174672 -0.327444 -0.054212 0.032044 0.174438
31 -0.069215 -0.217627 0.047843 0.055894 0.008135 -0.142009 0.122879 0.044109 0.008889 0.022160 -0.045388 0.199454 0.131578 -0.181402 -0.027033 -0.199810 -0.073162 -0.095314 -0.015653 0.050644 0.181321 -0.041345 0.257822 -0.017094 0.041242 -0.058346 -0.075142 -0.031928 0.043526 0.110881 0.065405 0.154447 -0.103504 0.018905 -0.058265 -0.062027 0.189570 0.086303 0.009662 -0.022128 -0.222318 0.055933 0.134182 0.138144 -0.198489 0.081625 0.016951 -0.153325 -0.011201 0.030081 -0.137187 0.164788 0.062591 0.059763 -0.148749 -0.126308 -0.064518 -0.034458 -0.083949 0.036611 0.171735 -0.102783 -0.051089 0.158680 -0.024581 -0.055474 -0.060680 -0.021846 0.029184 -0.093710 -0.046945 0.064678 -0.055082 -0.060907 0.150079 0.016381 0.072554 0.142628 -0.021367 0.021104 -0.120188 -0.073897 -0.052025 -0.175804 -0.086704 0.148655 0.004564 -0.010130 -0.071173 0.049109 0.080367 0.056593 0.177129 -0.037094 -0.125854 0.120274 -0.037438 -0.032685 0.054730 0.034487 -0.191398 0.086805 -0.225785 -0.064114 -0.046385 0.018996 0.165623 0.090504 0.014823 -0.095670 -0.006305 0.039186 -0.026008 -0.024434 -0.077637 -0.016740 -0.057888 0.199617 -0.178017 0.033061 -0.081393 -0.125549 0.102393 -0.166900 -0.216071 0.060977 0.015520 0.121529
29 -0.068973 -0.212778 0.042536 0.054600 0.020070 -0.136214 0.127714 0.030917 0.000032 0.023646 -0.052163 0.187969 0.123901 -0.185719 -0.036938 -0.191888 -0.063978 -0.089575 -0.025482 0.063187 0.182396 -0.031905 0.260271 -0.018235 0.024309 -0.064248 -0.083029 -0.039562 0.040294 0.125520 0.072541 0.155145 -0.098453 0.017705 -0.072838 -0.065002 0.196964 0.090138 0.005509 -0.020133 -0.226379 0.066412 0.123842 0.131402 -0.187613 0.090450 0.012321 -0.156408 -0.022764 0.023693 -0.118707 0.164819 0.056040 0.064663 -0.155785 -0.115650 -0.066594 -0.033754 -0.078491 0.048819 0.161612 -0.102629 -0.061481 0.163039 -0.011962 -0.073220 -0.054962 -0.031015 0.037945 -0.082102 -0.040249 0.069223 -0.054240 -0.050725 0.136346 0.010617 0.062777 0.150926 -0.022802 0.030709 -0.122055 -0.072867 -0.046273 -0.186039 -0.078002 0.165573 -0.007673 -0.008926 -0.084947 0.045972 0.080916 0.057905 0.179509 -0.037340 -0.113387 0.138923 -0.051049 -0.004843 0.054264 0.009604 -0.194373 0.090680 -0.226646 -0.058918 -0.035450 0.022766 0.165100 0.086471 0.009704 -0.090539 0.005384 0.026225 -0.026139 -0.030216 -0.070656 -0.026002 -0.060280 0.187491 -0.160135 0.043399 -0.083931 -0.138852 0.089942 -0.162052 -0.193569 0.076841 0.011579 0.110260
17 -0.103075 -0.313819 0.027643 0.056493 -0.083385 -0.201572 0.096811 0.173792 0.183705 0.009128 0.014835 0.298089 0.149534 -0.096727 0.073845 -0.225166 -0.154736 -0.210695 0.039769 -0.055776 0.182009 -0.140641 0.234252 -0.028817 0.171757 -0.048963 -0.064471 -0.059110 0.078421 -0.000414 0.076666 0.129952 -0.063730 -0.050993 0.026524 -0.062698 0.163147 0.080835 -0.005341 -0.031783 -0.160684 -0.020703 0.167678 0.153361 -0.285414 0.041227 0.084080 -0.059005 0.095272 0.063441 -0.282054 0.155989 0.086872 0.010489 -0.087931 -0.153752 -0.011446 0.002107 -0.050493 -0.027270 0.228062 -0.124114 0.088767 0.155199 -0.165020 0.102492 -0.096366 0.082482 0.000515 -0.145500 -0.143751 0.056960 -0.124171 -0.125827 0.244131 0.107779 0.090685 0.052794 -0.041775 -0.117175 -0.115717 0.015534 -0.026203 -0.047002 -0.176283 -0.051681 0.167622 -0.002829 0.065263 0.081977 0.108080 -0.025340 0.134225 0.013954 -0.128193 -0.020340 0.135517 -0.233215 0.058354 0.206964 -0.126033 0.097094 -0.231471 -0.047943 -0.114869 -0.028487 0.096727 0.046768 0.072076 -0.096777 -0.053088 0.218391 -0.029355 0.015245 -0.183919 -0.012205 -0.002853 0.196100 -0.223581 -0.091402 -0.018750 0.042900 0.227727 -0.177760 -0.395844 -0.096797 0.040100 0.208033
22 -0.085108 -0.261624 0.042902 0.047958 -0.038457 -0.172336 0.095941 0.115218 0.085012 0.014901 -0.018386 0.241904 0.139021 -0.140847 0.029047 -0.213316 -0.114921 -0.144552 0.029238 -0.007984 0.179536 -0.086972 0.240087 -0.024687 0.098092 -0.037098 -0.054226 -0.036075 0.071129 0.052473 0.063803 0.128303 -0.088586 -0.003103 -0.012576 -0.060599 0.163521 0.072856 0.006854 -0.026022 -0.168603 0.004740 0.147070 0.148922 -0.225214 0.060668 0.042340 -0.096788 0.047842 0.041565 -0.206428 0.136023 0.072115 0.040058 -0.118722 -0.129903 -0.029022 -0.008125 -0.072961 0.002561 0.193480 -0.106981 0.022112 0.151135 -0.093111 0.033047 -0.078917 0.033462 0.014004 -0.115362 -0.094087 0.056765 -0.080805 -0.090070 0.197748 0.067486 0.088293 0.091903 -0.021783 -0.047101 -0.118684 -0.036546 -0.041829 -0.110650 -0.127230 0.044504 0.092715 -0.013219 0.007552 0.061757 0.099240 0.009329 0.134055 -0.024719 -0.124881 0.036719 0.042469 -0.142314 0.054093 0.119637 -0.150249 0.082595 -0.209373 -0.046067 -0.077803 -0.001094 0.124433 0.071316 0.040947 -0.101838 -0.029989 0.127774 -0.023774 0.009601 -0.134852 -0.013699 -0.033424 0.190697 -0.201980 -0.038533 -0.047659 -0.043806 0.161413 -0.171501 -0.288739 -0.027246 0.036887 0.156846
18 -0.084920 -0.258984 0.042213 0.047875 -0.029872 -0.169335 0.101657 0.107425 0.076190 0.022792 -0.026370 0.245943 0.145954 -0.153028 0.017491 -0.223150 -0.110017 -0.138659 0.015508 0.004774 0.190059 -0.079969 0.256564 -0.026318 0.094079 -0.040388 -0.057455 -0.031306 0.069682 0.065505 0.066769 0.143875 -0.091052 0.004569 -0.019586 -0.062285 0.172945 0.076853 0.011138 -0.020083 -0.185992 0.019726 0.146381 0.148524 -0.225816 0.064683 0.037209 -0.109725 0.036147 0.038472 -0.195953 0.140239 0.080974 0.051445 -0.134225 -0.131095 -0.038641 -0.018357 -0.080603 0.010007 0.191886 -0.112460 0.007275 0.150054 -0.077570 0.018659 -0.072317 0.020135 0.017013 -0.112656 -0.089736 0.057603 -0.073130 -0.090161 0.190981 0.060306 0.091571 0.103519 -0.024016 -0.034844 -0.122450 -0.045320 -0.045222 -0.123092 -0.124934 0.072078 0.078707 -0.009893 -0.010577 0.063116 0.096922 0.016264 0.145126 -0.030837 -0.130451 0.053148 0.027025 -0.124284 0.052935 0.106063 -0.159515 0.085232 -0.217435 -0.052043 -0.073673 -0.000328 0.134948 0.071425 0.032927 -0.105880 -0.032288 0.110003 -0.027707 0.001734 -0.125681 -0.017069 -0.036686 0.196105 -0.198620 -0.027994 -0.057328 -0.061725 0.151768 -0.171609 -0.277265 -0.015127 0.030111 0.152442
16 -0.060198 -0.191338 0.048616 0.057995 0.035471 -0.119360 0.137611 0.004680 -0.035772 0.025777 -0.067393 0.165102 0.119521 -0.196887 -0.055856 -0.184025 -0.049230 -0.064872 -0.043612 0.084108 0.177431 -0.009196 0.269155 -0.017483 0.002272 -0.065099 -0.085562 -0.036933 0.027091 0.140962 0.062487 0.160074 -0.111682 0.028804 -0.086357 -0.065200 0.202960 0.087099 0.003301 -0.018013 -0.246682 0.084350 0.123686 0.132763 -0.168607 0.093127 0.002185 -0.174920 -0.045797 0.018880 -0.083792 0.168418 0.056237 0.072400 -0.160964 -0.116017 -0.084201 -0.044529 -0.081299 0.054673 0.151314 -0.097095 -0.088663 0.158330 0.026433 -0.105748 -0.043303 -0.048523 0.041328 -0.074479 -0.011568 0.065962 -0.033560 -0.043172 0.117434 -0.014065 0.059317 0.168297 -0.022467 0.063333 -0.115467 -0.097336 -0.052920 -0.213738 -0.059873 0.209715 -0.044340 -0.003818 -0.113346 0.044635 0.071903 0.080998 0.184792 -0.046849 -0.118037 0.169219 -0.080323 0.033014 0.053735 -0.026460 -0.202316 0.086827 -0.220368 -0.067459 -0.025972 0.026450 0.179480 0.098198 -0.001467 -0.090553 0.012201 -0.008036 -0.026381 -0.037163 -0.042975 -0.019559 -0.071046 0.196402 -0.155883 0.070209 -0.095450 -0.169614 0.066345 -0.158777 -0.157314 0.111674 0.010605 0.099415
23 -0.058663 -0.188376 0.042958 0.057545 0.034320 -0.116843 0.131126 0.010804 -0.031182 0.022447 -0.064596 0.159133 0.120515 -0.197303 -0.058672 -0.175792 -0.046314 -0.058185 -0.036990 0.087121 0.173586 -0.012800 0.256501 -0.012576 0.002381 -0.063902 -0.086527 -0.038161 0.026280 0.142555 0.063378 0.157799 -0.106501 0.029953 -0.088289 -0.067005 0.193354 0.084649 0.002495 -0.014737 -0.236519 0.078489 0.118705 0.128656 -0.163925 0.090135 -0.001467 -0.167425 -0.042042 0.014025 -0.084397 0.162104 0.055937 0.065454 -0.157450 -0.115041 -0.081779 -0.044160 -0.079598 0.053052 0.147376 -0.092753 -0.080964 0.158773 0.024466 -0.100796 -0.040548 -0.045481 0.042370 -0.066434 -0.014691 0.067788 -0.029802 -0.040220 0.107625 -0.011489 0.057318 0.165203 -0.016027 0.059590 -0.112262 -0.093804 -0.048239 -0.206461 -0.060533 0.200234 -0.043981 -0.005341 -0.112840 0.041729 0.074633 0.078256 0.178250 -0.047424 -0.116955 0.157479 -0.077964 0.029441 0.052560 -0.017131 -0.199423 0.081793 -0.213493 -0.065582 -0.023805 0.025473 0.172064 0.093488 -0.000312 -0.087660 0.008565 -0.012326 -0.023398 -0.039547 -0.046067 -0.022159 -0.067954 0.188599 -0.150413 0.068106 -0.089370 -0.161516 0.064263 -0.154778 -0.154582 0.101833 0.008446 0.093089
10 -0.070240 -0.218738 0.044598 0.057407 0.014494 -0.136417 0.126351 0.049774 0.015235 0.016976 -0.044810 0.197937 0.126885 -0.178911 -0.028424 -0.193290 -0.071440 -0.092187 -0.021432 0.051701 0.184758 -0.039989 0.265789 -0.016780 0.037658 -0.061490 -0.080459 -0.041901 0.042340 0.107158 0.063203 0.146371 -0.103361 0.019472 -0.063691 -0.067516 0.200449 0.085717 0.001522 -0.019039 -0.231967 0.056743 0.144118 0.146736 -0.199385 0.087357 0.024183 -0.158174 -0.008401 0.022463 -0.131985 0.166717 0.066161 0.061349 -0.153415 -0.124143 -0.065969 -0.037318 -0.083099 0.043656 0.173411 -0.102413 -0.053548 0.166524 -0.017489 -0.056244 -0.058786 -0.023198 0.029839 -0.095443 -0.040188 0.065929 -0.051795 -0.061978 0.152673 0.017773 0.070748 0.144930 -0.029588 0.023543 -0.123606 -0.075564 -0.051892 -0.177996 -0.091356 0.152118 0.003396 -0.009049 -0.074711 0.054360 0.089475 0.057937 0.180411 -0.034390 -0.123956 0.128182 -0.036480 -0.034975 0.057155 0.034051 -0.194907 0.087278 -0.229050 -0.058859 -0.048587 0.017066 0.169078 0.094283 0.011242 -0.097620 0.004477 0.040723 -0.023621 -0.026606 -0.078172 -0.019678 -0.055733 0.202843 -0.179776 0.032133 -0.080016 -0.130133 0.108163 -0.168210 -0.216629 0.061405 0.018510 0.125374
27 -0.061819 -0.203802 0.042571 0.052036 0.025570 -0.126229 0.126800 0.033480 -0.011153 0.021352 -0.053642 0.172352 0.119234 -0.180452 -0.039889 -0.185607 -0.053211 -0.079741 -0.029675 0.061648 0.177464 -0.022249 0.258147 -0.013623 0.021447 -0.063873 -0.086681 -0.032994 0.035128 0.125052 0.065526 0.147581 -0.105475 0.020149 -0.068105 -0.068996 0.190305 0.086601 0.002477 -0.015245 -0.231108 0.064547 0.126088 0.135193 -0.180635 0.088520 0.015216 -0.162541 -0.026677 0.022194 -0.103649 0.162752 0.053520 0.068696 -0.151972 -0.119607 -0.073041 -0.035585 -0.073279 0.049651 0.153223 -0.091808 -0.067827 0.159096 0.002807 -0.075696 -0.050864 -0.031475 0.036422 -0.081925 -0.032822 0.071136 -0.044160 -0.055276 0.128014 -0.000959 0.063695 0.148994 -0.026192 0.039337 -0.117889 -0.080044 -0.051481 -0.184099 -0.077232 0.170108 -0.010995 -0.008369 -0.093579 0.050345 0.074367 0.060627 0.179101 -0.039044 -0.121579 0.141972 -0.056105 -0.003455 0.058734 0.003090 -0.198027 0.084757 -0.216793 -0.062199 -0.032588 0.025088 0.169754 0.087884 0.001355 -0.090646 0.010700 0.018065 -0.023068 -0.032983 -0.058964 -0.021678 -0.061003 0.191321 -0.164504 0.049576 -0.085876 -0.140744 0.088192 -0.161108 -0.191080 0.084148 0.016110 0.108742
21 -0.065916 -0.195709 0.048879 0.053581 0.029519 -0.126983 0.131826 0.014411 -0.024520 0.027407 -0.061188 0.170627 0.123723 -0.200270 -0.052163 -0.185391 -0.050674 -0.068577 -0.033577 0.080120 0.182647 -0.016532 0.265360 -0.014080 0.009586 -0.064838 -0.084048 -0.034588 0.033330 0.138057 0.068208 0.157271 -0.109824 0.030830 -0.085185 -0.070054 0.198075 0.093224 0.008924 -0.012024 -0.243092 0.079260 0.122809 0.132858 -0.179826 0.093080 0.004873 -0.172548 -0.034585 0.017313 -0.092080 0.168368 0.059233 0.068942 -0.162624 -0.115613 -0.079821 -0.045084 -0.085451 0.058015 0.151975 -0.096471 -0.079703 0.165741 0.019703 -0.095660 -0.046104 -0.048936 0.039005 -0.080605 -0.017736 0.065369 -0.037477 -0.044512 0.124905 -0.007174 0.058256 0.161908 -0.020242 0.055393 -0.120774 -0.090515 -0.055647 -0.210465 -0.069998 0.192890 -0.034879 -0.009041 -0.102961 0.044421 0.079934 0.076163 0.183699 -0.043002 -0.121452 0.157311 -0.077381 0.021744 0.057078 -0.011228 -0.205671 0.084919 -0.225776 -0.060410 -0.025055 0.029320 0.177731 0.093699 -0.002078 -0.096712 0.014929 0.003182 -0.023921 -0.034500 -0.054900 -0.018052 -0.070467 0.195810 -0.160427 0.067621 -0.092200 -0.164248 0.076054 -0.164859 -0.171776 0.100908 0.015325 0.099378
19 -0.063499 -0.209465 0.051672 0.052746 0.021802 -0.130753 0.126919 0.028172 -0.006827 0.022427 -0.057925 0.182120 0.122952 -0.186884 -0.042066 -0.188129 -0.063133 -0.084195 -0.024514 0.069812 0.181138 -0.028960 0.263678 -0.015493 0.021451 -0.056808 -0.083255 -0.034939 0.037423 0.123475 0.064749 0.153630 -0.104463 0.020597 -0.074072 -0.067649 0.192487 0.091013 0.009114 -0.013478 -0.231317 0.064181 0.128904 0.136287 -0.183037 0.089896 0.012435 -0.165717 -0.027139 0.022342 -0.113797 0.161867 0.055381 0.065632 -0.153351 -0.117133 -0.076358 -0.035333 -0.078477 0.048191 0.158325 -0.100723 -0.061944 0.164360 -0.001312 -0.079746 -0.045897 -0.034789 0.033667 -0.085652 -0.031013 0.068025 -0.044865 -0.051487 0.130527 -0.000228 0.066796 0.156083 -0.026495 0.034151 -0.119690 -0.082201 -0.052106 -0.195436 -0.078136 0.174268 -0.011856 -0.005233 -0.092889 0.047182 0.080246 0.068116 0.181241 -0.040609 -0.121156 0.143043 -0.058107 -0.002345 0.056316 0.005316 -0.194268 0.088409 -0.228332 -0.063118 -0.035661 0.023904 0.171264 0.093656 0.004801 -0.097419 0.002807 0.019082 -0.021837 -0.031904 -0.062675 -0.018821 -0.057331 0.198039 -0.168262 0.051022 -0.086771 -0.147994 0.086410 -0.164884 -0.195165 0.082518 0.011371 0.108290
13 -0.082889 -0.253893 0.044866 0.044627 -0.032447 -0.168067 0.102467 0.106400 0.079379 0.018718 -0.023879 0.233800 0.137143 -0.146499 0.021338 -0.210381 -0.109741 -0.139858 0.018805 -0.006702 0.182717 -0.080227 0.238695 -0.023797 0.089885 -0.043807 -0.054592 -0.030181 0.066475 0.055978 0.061947 0.134214 -0.091043 -0.003140 -0.018001 -0.062610 0.175876 0.080018 0.009396 -0.023167 -0.179978 0.013786 0.150608 0.150783 -0.227196 0.063823 0.044621 -0.106587 0.036055 0.044214 -0.200444 0.146032 0.077285 0.048914 -0.132160 -0.134477 -0.039340 -0.015132 -0.074969 0.008339 0.192010 -0.108723 0.008690 0.148504 -0.082484 0.019572 -0.075393 0.022746 0.016103 -0.120407 -0.091311 0.055962 -0.078665 -0.088998 0.191972 0.057054 0.087056 0.095445 -0.028990 -0.042106 -0.117290 -0.044282 -0.047367 -0.118051 -0.127556 0.061277 0.082968 -0.010012 -0.006502 0.065302 0.100436 0.014100 0.138945 -0.026574 -0.125348 0.045825 0.033499 -0.134407 0.048992 0.112370 -0.154520 0.083679 -0.217092 -0.050905 -0.076750 -0.004905 0.135537 0.069942 0.035998 -0.105623 -0.025392 0.118211 -0.026112 0.006453 -0.131948 -0.018200 -0.037202 0.197663 -0.197666 -0.031213 -0.053566 -0.050127 0.158482 -0.169497 -0.285733 -0.013709 0.035035 0.158292
15 -0.070090 -0.210586 0.049693 0.054227 0.026172 -0.127699 0.132863 0.024969 -0.008538 0.020392 -0.053508 0.178207 0.124150 -0.185905 -0.040936 -0.188232 -0.061696 -0.081557 -0.033553 0.066244 0.182831 -0.023377 0.265279 -0.016641 0.018197 -0.062878 -0.088088 -0.039190 0.036522 0.123342 0.063687 0.157473 -0.102513 0.021405 -0.072940 -0.068061 0.195755 0.089781 0.008322 -0.012315 -0.239136 0.068324 0.128703 0.137129 -0.183863 0.091840 0.006489 -0.167327 -0.028642 0.018605 -0.110316 0.167493 0.058219 0.068014 -0.157888 -0.123530 -0.079456 -0.043675 -0.077822 0.052748 0.163469 -0.095408 -0.066899 0.160874 0.004489 -0.077189 -0.047390 -0.036122 0.041367 -0.078642 -0.027426 0.067472 -0.044049 -0.056225 0.128548 -0.000533 0.063451 0.158278 -0.029272 0.037600 -0.118616 -0.080232 -0.051579 -0.198599 -0.078319 0.173396 -0.019046 -0.008955 -0.094876 0.053990 0.081624 0.069351 0.185320 -0.043575 -0.123095 0.147646 -0.056635 0.005489 0.058192 0.007798 -0.196683 0.088317 -0.230088 -0.060844 -0.032608 0.020334 0.174248 0.094706 0.005237 -0.099221 0.008096 0.016935 -0.025280 -0.035889 -0.065324 -0.018334 -0.059026 0.199350 -0.168925 0.056023 -0.083411 -0.150681 0.091548 -0.158684 -0.197473 0.086265 0.016265 0.113378
12 -0.082163 -0.243385 0.042041 0.047775 -0.022287 -0.157127 0.104217 0.086547 0.057387 0.019476 -0.024373 0.226059 0.132485 -0.149475 0.006591 -0.199804 -0.100381 -0.122991 0.010113 0.008438 0.178115 -0.065886 0.246049 -0.025626 0.074244 -0.049773 -0.061926 -0.035016 0.057913 0.069131 0.065786 0.138269 -0.094721 0.003192 -0.027513 -0.057403 0.172831 0.080291 0.006231 -0.020363 -0.192176 0.025738 0.146356 0.142031 -0.217026 0.068447 0.038002 -0.119502 0.021802 0.034326 -0.178572 0.150413 0.069758 0.042740 -0.132679 -0.131399 -0.043989 -0.019010 -0.074169 0.019382 0.185376 -0.102952 -0.007290 0.154547 -0.068083 0.000386 -0.065580 0.012732 0.021224 -0.102924 -0.070169 0.062090 -0.068877 -0.077574 0.173990 0.046176 0.084151 0.112132 -0.025199 -0.016661 -0.116260 -0.047551 -0.049003 -0.132008 -0.113709 0.085494 0.056440 -0.008199 -0.025867 0.056246 0.091640 0.030054 0.147277 -0.026630 -0.119527 0.064618 0.019071 -0.104743 0.053304 0.087922 -0.166034 0.079117 -0.213240 -0.052618 -0.065995 -0.000065 0.137858 0.075245 0.033537 -0.100366 -0.024383 0.095231 -0.025100 -0.002918 -0.110088 -0.012622 -0.039580 0.193681 -0.192686 -0.013395 -0.061042 -0.071336 0.140731 -0.162152 -0.261885 0.005785 0.024779 0.143057
