34 50
34 0.069284 -0.344401 0.106366 0.064810 0.373046 0.042637 -0.545661 0.063425 -0.143321 0.367938 -0.192125 -0.181208 -0.172461 0.416977 -0.139992 0.203466 -0.207928 0.018064 0.043172 -0.023377 -0.118360 -0.203173 0.133444 0.388419 -0.260129 0.177278 -0.082778 -0.381734 -0.100907 -0.169124 -0.307524 -0.236256 -0.239075 0.434674 -0.036172 -0.196670 0.243367 -0.319851 -0.054390 -0.098930 0.321730 0.072751 0.252692 -0.148990 0.027639 0.338631 -0.147346 0.463246 0.183067 -0.062426
1 -0.136018 -0.131291 0.090786 -0.138033 0.179466 -0.080879 -0.011659 0.024195 0.296646 -0.036364 -0.387387 -0.010696 -0.345343 0.075859 -0.147622 -0.121840 -0.060206 0.225523 0.250932 -0.031400 0.036505 0.015181 -0.102808 -0.209972 -0.272122 -0.111291 0.227981 -0.281956 -0.149282 0.015432 -0.214715 -0.174866 0.496842 0.395942 0.173465 0.223072 -0.079710 -0.107866 0.137973 -0.019426 0.147998 -0.225118 0.028088 0.121701 -0.067754 0.152192 -0.061595 0.224176 0.218061 -0.378809
2 -0.177881 -0.216673 0.224127 -0.035652 0.226470 -0.319036 -0.044291 0.041601 0.058210 0.091721 -0.348596 -0.009671 -0.205623 0.013723 -0.201765 -0.063742 -0.021473 0.153888 0.214046 0.093231 -0.032846 0.047675 0.066890 0.019614 -0.368037 -0.017029 0.261049 -0.444016 -0.036617 -0.034384 -0.098622 -0.099897 0.224472 0.241166 0.083364 -0.021079 0.083064 -0.071384 -0.008664 0.258664 0.164036 -0.095173 0.015636 0.089882 -0.077412 0.136463 -0.094189 0.398321 0.264713 -0.134873
3 -0.188865 -0.236565 0.009811 -0.105248 0.255517 -0.037029 -0.183797 0.002260 0.227819 0.182456 -0.479838 0.175006 -0.372163 0.314925 -0.124188 -0.054405 -0.054410 0.163726 0.090153 0.093102 0.020317 -0.082380 0.121557 -0.044329 -0.157146 0.099383 -0.110788 -0.313943 -0.095380 -0.057953 -0.127026 -0.166373 -0.058168 0.518569 0.161620 -0.168859 0.110982 -0.015837 0.037925 0.040342 0.341559 -0.148717 0.026472 -0.172539 -0.020217 0.062798 -0.115161 0.050850 0.152721 -0.263934
33 0.250339 -0.228913 0.050069 0.007704 0.290350 -0.010732 -0.433071 0.022776 -0.083300 0.261845 -0.415110 -0.219336 -0.102435 0.197554 -0.151524 0.171279 0.115391 0.190841 0.264777 -0.202365 -0.026946 -0.203229 0.111807 0.253374 -0.153099 -0.061081 -0.143371 -0.254421 0.028822 -0.193098 -0.290848 -0.033026 -0.076831 0.256234 -0.152418 -0.133718 0.147882 -0.241925 -0.011292 0.026963 0.396904 0.069621 0.175625 -0.038364 0.120043 0.228432 -0.125644 0.511188 0.242916 -0.217394
24 -0.100869 -0.266955 0.069145 0.031920 0.312131 -0.062169 -0.504249 0.024421 0.218528 0.156324 0.022871 -0.157979 -0.170924 0.444787 -0.081971 0.146959 -0.117088 0.067153 0.101416 -0.050547 0.059552 -0.309921 0.059432 0.133777 -0.279765 -0.022911 -0.160677 -0.324686 -0.116670 -0.203415 -0.349582 -0.317916 -0.189829 0.393611 -0.054323 -0.190151 0.170744 -0.103609 0.038145 -0.059029 0.322621 0.016946 0.359530 0.056302 0.087780 0.129675 -0.309341 0.324306 0.198578 -0.229641
14 -0.114104 -0.276999 0.219802 0.134492 0.154830 -0.227824 -0.013424 0.023529 0.269153 -0.122310 -0.336799 -0.187629 -0.278390 0.207299 -0.088084 -0.040757 -0.116058 0.333890 0.177220 -0.008950 0.217515 -0.041109 0.022294 -0.152072 -0.456313 -0.056437 0.028376 -0.343394 -0.137018 0.053489 -0.271813 -0.106514 0.391448 0.218599 0.134356 0.165315 -0.136060 -0.076167 0.093651 0.216492 0.216315 -0.073061 -0.059218 0.009024 -0.030933 0.240853 -0.024220 0.179556 -0.087482 -0.278805
28 0.024757 -0.093000 0.241605 -0.150451 0.398079 -0.280156 -0.445884 -0.082783 0.322391 0.152923 -0.302546 -0.149245 -0.261211 0.412350 -0.378922 0.240801 -0.006106 0.261395 0.290913 -0.046555 0.087891 -0.316641 0.045214 0.179249 -0.240453 0.038173 -0.144986 -0.197187 0.034638 -0.163154 -0.137187 0.054265 -0.149943 0.324674 -0.182436 -0.133006 0.002142 -0.048039 0.130757 0.067872 0.294767 0.048006 0.094091 0.043449 -0.022076 0.173621 -0.157864 0.104787 0.011293 -0.189433
32 -0.072874 -0.341087 0.244291 0.258615 0.223784 0.016729 -0.262148 0.065217 0.017185 0.024102 -0.134927 -0.219116 -0.059838 0.606704 -0.155895 0.116093 -0.348561 0.117576 -0.015543 0.004400 -0.079769 -0.129255 0.146753 0.354725 -0.423280 0.184396 -0.036872 -0.335489 -0.094974 -0.103279 -0.230220 -0.263026 -0.196337 0.363071 -0.136612 -0.031887 0.253286 -0.254663 0.209419 -0.061745 0.370839 -0.263595 0.205151 0.017625 0.086264 0.298848 -0.196345 0.301490 0.224225 -0.284729
30 0.022960 -0.155484 0.130956 0.087255 0.423653 0.000559 -0.688172 0.043945 0.007665 0.190811 -0.025074 -0.063103 -0.082769 0.539314 -0.125995 0.322000 -0.134683 -0.062388 0.078067 -0.021054 0.100002 -0.282912 0.189172 0.155437 -0.544367 0.140391 -0.064521 -0.310611 -0.136896 -0.165045 -0.346302 -0.210813 -0.343143 0.415755 0.003216 -0.242811 0.089690 -0.121618 0.019455 -0.128719 0.009107 0.075780 0.134398 0.242834 0.010556 0.177256 -0.337167 0.336709 0.084866 -0.387932
7 0.247099 -0.065141 -0.273124 -0.087718 0.247639 -0.060336 -0.131349 0.050259 0.179042 0.148956 -0.233325 0.160886 -0.177358 -0.078475 -0.092886 -0.129670 0.026581 -0.103057 0.417270 -0.128499 -0.203332 0.042238 -0.131716 -0.137258 -0.453849 -0.236349 0.139086 -0.502797 -0.030003 -0.194787 -0.070201 -0.162981 0.441429 0.023177 0.132766 0.157224 -0.131938 -0.028940 0.074870 0.128752 0.265032 -0.077682 0.061663 0.158085 0.181947 -0.048655 0.022348 0.571750 0.611692 -0.607519
4 -0.331043 -0.190370 0.195283 -0.093299 0.202438 -0.277489 -0.224167 0.121869 0.209255 -0.027327 -0.204364 0.123465 -0.218949 0.088628 -0.095451 -0.230509 -0.140729 0.223940 0.045772 0.116693 0.139127 0.053339 -0.014056 -0.185473 -0.539084 0.076576 0.174621 -0.355197 -0.153308 0.036795 -0.175132 -0.104787 0.375572 0.372177 0.135297 0.044265 -0.026717 -0.081981 0.080409 0.218615 0.100235 -0.084273 0.042702 0.110170 -0.036640 0.055933 -0.113378 0.290590 0.065348 -0.196887
8 -0.067017 -0.143731 0.046598 -0.069984 0.272804 -0.210625 -0.114154 0.024831 0.238285 -0.044346 -0.431961 0.180176 -0.271403 0.073635 -0.216235 -0.092221 -0.106412 0.152883 0.337004 -0.092790 -0.017482 0.117118 -0.038222 -0.046355 -0.253459 -0.021341 0.237724 -0.553303 -0.133416 0.074120 -0.085746 -0.078384 0.541198 0.266791 0.209919 0.147401 -0.142846 0.053632 0.063918 0.336667 0.154731 -0.271928 -0.122976 -0.036855 -0.041048 -0.136297 0.024176 0.180101 0.274775 -0.248835
6 -0.066546 -0.028719 0.096704 -0.228709 -0.040820 -0.095673 0.073921 -0.053988 0.090026 0.042080 -0.426220 0.159493 -0.262023 0.169426 -0.350225 -0.030079 -0.091653 0.200897 0.301964 -0.056479 -0.035785 0.018551 -0.151146 0.033728 -0.296529 0.164974 0.337406 -0.452617 -0.032331 0.110662 -0.064771 -0.021973 0.554658 0.534994 0.146108 0.199374 -0.074358 -0.232427 0.212547 0.117667 0.373858 -0.360092 -0.110034 0.009344 -0.026071 0.148916 0.058369 0.175217 0.265048 -0.288867
15 0.019346 -0.216353 -0.056187 0.102501 0.419359 -0.035313 -0.660042 0.097946 -0.029998 0.255634 -0.034683 -0.189211 0.023541 0.359855 -0.102083 0.004865 -0.147477 0.239654 0.281319 0.012673 -0.147107 -0.335208 0.057376 0.318835 -0.191238 0.163661 0.022232 -0.239087 -0.201580 -0.122800 -0.355398 -0.201029 -0.097184 0.153702 0.021374 -0.247673 0.296236 -0.298214 -0.008953 -0.040521 0.340914 0.010787 0.260674 -0.010080 0.079521 0.053023 -0.311989 0.333782 0.282847 -0.311643
11 -0.004714 -0.068545 0.162425 -0.045580 0.033921 -0.004561 -0.223761 -0.013462 -0.000065 0.212937 -0.625107 0.093536 0.074482 0.078492 -0.216714 -0.148446 0.190112 0.305054 0.244632 -0.142691 -0.032721 0.129226 0.034904 0.128602 -0.326709 -0.032415 0.192807 -0.360913 0.010601 0.165963 -0.118415 0.076853 0.509181 0.330175 0.058603 0.192619 -0.004025 -0.189981 0.234949 0.411844 0.406677 -0.581496 -0.268206 0.182279 0.087490 -0.033367 0.207587 0.155154 0.309526 -0.392433
26 -0.065909 -0.284666 0.134514 0.208652 0.151696 0.119698 0.127084 -0.024026 0.183810 0.221598 -0.184021 0.086357 -0.258396 0.835534 -0.167656 -0.035629 -0.353860 0.136600 0.289300 0.042215 -0.177860 -0.298482 -0.060631 0.369216 -0.454365 0.279573 -0.037751 -0.404931 -0.327508 -0.023695 -0.407307 -0.331783 -0.190091 0.495631 -0.008484 -0.359320 0.240200 -0.304902 0.126143 0.109553 0.416778 0.214731 0.133297 -0.193894 0.173059 0.194675 -0.266440 -0.006524 0.089200 -0.000654
9 0.044076 0.069487 -0.133445 -0.040961 0.095567 -0.108884 -0.528040 -0.028476 0.132517 0.303868 -0.115501 0.042415 -0.062071 0.086078 -0.128722 0.190489 0.167984 0.103834 0.237265 -0.085713 0.083103 -0.123069 0.192444 0.123500 -0.284972 0.016415 0.163916 -0.424175 0.066817 -0.054583 -0.267842 -0.222832 0.020969 0.172563 0.226443 -0.015055 -0.042320 -0.042774 -0.063504 0.161134 0.329387 -0.262111 0.030279 0.068821 0.050804 0.198506 -0.129488 0.267114 0.168954 -0.395736
31 -0.006667 -0.276550 0.264787 -0.049142 0.282169 0.015269 -0.390192 0.125449 0.211518 0.103400 -0.296429 -0.212263 -0.281913 0.449686 -0.317995 0.140449 -0.089007 0.033822 0.216694 -0.074452 -0.239114 -0.163750 -0.002397 0.144390 -0.177155 -0.182653 -0.211811 -0.434607 -0.281854 -0.077588 -0.122045 -0.228683 -0.006646 0.224199 -0.023669 -0.184305 0.177217 -0.052700 0.001776 0.075488 0.083858 -0.092093 0.168683 0.007991 -0.097343 -0.054007 -0.114521 -0.001398 0.246295 -0.188428
25 0.039926 -0.269124 0.289770 0.119598 0.234401 -0.077293 -0.106482 -0.050410 -0.024951 0.077418 -0.127319 -0.148671 -0.258944 0.695685 -0.281434 0.098161 -0.117590 0.056376 0.258787 0.135528 0.001307 -0.454105 -0.139031 0.456691 -0.131780 0.012529 -0.234784 -0.299414 -0.291303 -0.094563 -0.539795 -0.194134 -0.246047 0.585866 -0.079398 -0.434873 0.424756 -0.434552 -0.030675 0.187501 0.397799 0.241384 0.205730 0.115340 0.127931 -0.032978 -0.357518 0.166984 0.352405 -0.124445
29 -0.035984 -0.191219 0.324002 0.267033 0.128987 0.245827 -0.413538 0.167740 -0.054011 0.146275 -0.228968 -0.099595 -0.049052 0.516928 0.062455 0.031028 -0.067062 0.024855 0.225466 -0.073748 -0.074792 -0.226953 0.015424 0.255996 -0.502808 0.064380 -0.007153 -0.448474 -0.335357 -0.019859 -0.290984 -0.172366 -0.021481 0.304363 0.063091 -0.292696 0.236928 -0.342807 0.080294 0.192138 0.212790 -0.038898 0.140749 0.044693 0.119518 0.078520 -0.132074 0.090673 0.142872 -0.206667
21 0.006349 -0.237278 0.196889 0.010202 0.293080 -0.155870 -0.508760 -0.039927 -0.032569 0.199689 -0.056834 -0.072783 -0.005897 0.501746 -0.186654 0.079831 -0.075245 0.256357 0.386211 -0.080129 0.022249 -0.395385 0.036548 0.444815 -0.243908 0.145774 -0.109428 -0.330897 0.003985 -0.213060 -0.419292 -0.185254 -0.153215 0.492274 -0.326151 -0.248635 0.204648 -0.059303 0.110156 0.090735 0.296110 0.067225 0.251405 0.062807 0.210014 -0.062350 -0.217110 0.218957 0.166969 -0.095219
20 -0.110090 -0.124781 -0.136562 0.041547 0.109059 -0.199905 0.012762 0.021965 0.078097 0.067086 -0.248763 0.163463 -0.218127 -0.175592 0.048003 0.125049 0.062403 0.051013 0.504359 -0.181919 0.289204 0.044995 0.183351 -0.102317 -0.472328 -0.082449 0.406219 -0.693912 0.065505 -0.266086 -0.182982 -0.184972 0.274330 0.197520 0.104341 0.124561 -0.150522 0.218599 -0.087578 0.256063 0.039164 -0.052616 0.166918 0.116920 0.091085 -0.012651 -0.231833 0.535893 0.375806 -0.155351
5 0.103543 -0.103923 0.062744 -0.003735 0.200435 -0.001830 -0.225919 0.003013 -0.073451 -0.078546 -0.391582 0.145061 -0.119252 0.094064 -0.238989 -0.006387 0.147974 0.207405 0.486604 -0.303269 -0.132541 0.044020 -0.013386 0.078934 -0.003797 0.026661 0.353900 -0.345671 -0.055334 -0.018315 -0.123538 -0.043180 0.448973 0.273597 0.137200 0.066042 0.033592 -0.044138 0.096618 0.217845 0.127923 -0.267665 0.059507 -0.078390 -0.030875 0.036183 -0.220179 0.383979 0.392190 -0.458416
17 -0.183326 -0.163872 0.215795 -0.162990 0.109606 -0.018461 0.142526 0.079904 0.137668 0.051160 -0.214561 -0.075170 -0.057083 -0.089391 -0.225417 0.025901 0.021315 0.125842 0.322003 -0.005859 0.009087 0.022204 -0.194963 -0.121117 -0.378792 -0.164481 0.507580 -0.442675 -0.193779 -0.018647 -0.139073 -0.052870 0.677137 0.421777 0.192961 0.285239 -0.167250 -0.140275 0.254459 0.227798 0.176365 -0.354965 -0.016939 0.276603 -0.182098 0.089527 -0.092101 0.329952 0.412571 -0.505700
12 -0.328787 -0.186414 -0.062018 -0.088242 0.029828 -0.394011 0.324399 -0.163301 0.336267 0.059966 -0.214815 0.187992 -0.228148 0.173623 -0.223330 -0.329993 -0.071138 0.353488 0.258094 0.195741 0.074469 -0.105393 -0.132098 -0.200520 -0.361148 0.002965 0.186547 -0.455719 -0.146534 0.167165 -0.250705 -0.167868 0.502725 0.260595 0.316318 -0.041160 0.051441 -0.095846 0.029175 0.211936 0.345543 -0.142332 -0.128396 0.053623 0.012096 -0.093045 -0.110191 0.209612 0.295523 -0.454492
18 -0.134415 -0.156368 0.221946 0.105254 0.191769 -0.265292 0.029423 -0.061652 0.226155 -0.304660 -0.485358 0.102668 -0.231193 0.089591 -0.072703 -0.394384 -0.058895 0.375491 0.189043 0.046046 0.091639 0.204612 -0.005016 -0.280854 -0.392580 -0.103257 0.302140 -0.229790 -0.045825 0.145234 -0.222855 -0.210772 0.478673 0.357951 0.080477 0.272279 0.062256 -0.116179 0.317171 0.266326 0.183338 -0.241650 -0.096346 0.120373 0.208554 0.219893 -0.125744 0.094299 0.109566 -0.451983
27 -0.141190 -0.397934 0.094693 -0.054304 0.198876 -0.041456 -0.395835 0.202540 -0.075239 0.335489 0.294334 -0.198006 -0.002468 0.564467 -0.303801 0.324682 -0.248242 0.217469 0.389422 -0.001590 -0.008035 -0.608792 0.068324 0.475527 -0.497816 0.252044 -0.149418 -0.591685 -0.158029 -0.390980 -0.362355 -0.353175 -0.311591 0.625683 -0.322692 -0.287005 0.227900 -0.011410 0.098826 0.027746 0.351613 0.226930 0.482128 -0.159458 0.232923 0.126150 -0.404842 0.061655 0.151570 0.024336
22 0.257413 0.035165 0.174162 -0.529546 0.021298 -0.054181 -0.354897 -0.128859 0.350259 -0.000783 -0.334589 0.264100 -0.192437 0.080951 -0.309724 0.001751 0.139177 0.095687 0.409940 0.163040 -0.278295 0.207830 -0.104729 -0.092342 -0.186692 -0.130901 0.373212 -0.564932 0.047447 0.115170 -0.275138 -0.257887 0.565006 0.426290 0.050241 0.257144 -0.330284 -0.008497 0.238519 0.473517 0.120615 -0.182530 -0.130882 -0.096049 -0.046814 0.008928 0.068705 -0.016981 -0.013028 -0.521917
19 0.074354 -0.120716 -0.154006 -0.003793 0.513168 0.194308 -0.646298 0.071773 0.054322 0.249097 -0.461219 -0.043317 -0.090192 0.216867 0.091325 0.000757 0.041633 0.116847 0.486752 -0.141721 -0.188813 -0.222764 0.156272 0.052239 -0.164386 -0.015573 0.120614 -0.313684 -0.044672 -0.230676 -0.006100 -0.139732 -0.238622 0.199266 -0.115744 -0.297316 0.403588 -0.238424 0.132364 -0.221714 0.311002 0.068279 0.396878 -0.095576 0.313906 0.036264 -0.341194 0.226874 0.441422 -0.198757
10 -0.110638 -0.149088 0.194585 0.235836 0.232606 -0.157601 -0.247264 -0.053591 0.305407 0.119473 -0.414055 -0.229029 -0.289310 0.408529 0.006399 -0.155689 -0.058944 0.366642 0.344756 0.001494 -0.063584 -0.283911 0.020118 0.165923 -0.179143 0.002069 -0.062759 -0.268192 -0.150559 0.040795 -0.264334 -0.157429 -0.077660 -0.025973 0.036791 -0.358004 0.312041 -0.264291 -0.019731 0.025589 0.483162 -0.009851 0.168999 -0.061978 0.076642 0.151763 -0.165112 0.114073 0.111989 -0.143669
13 -0.102923 -0.152285 0.147758 -0.118087 -0.123424 -0.359566 0.365769 -0.045635 0.281125 -0.052599 -0.413121 -0.066301 -0.404027 -0.129326 -0.063594 -0.277012 0.075136 0.359117 0.354776 0.293575 0.089274 0.034566 -0.020954 -0.187393 -0.334715 -0.301047 0.227708 -0.462213 -0.055419 -0.053266 -0.485283 -0.353183 0.435658 0.257373 0.126119 0.173616 0.032906 -0.139702 0.000321 0.323502 0.263299 -0.024467 0.050450 0.098376 0.094278 0.227146 -0.116566 0.279283 0.219149 -0.381319
23 0.076014 -0.066371 0.005194 0.088148 0.454850 -0.110428 -0.550669 -0.235930 -0.073617 0.209440 -0.265947 0.057575 0.123680 0.052104 0.062710 0.108863 0.168680 0.024779 0.201067 0.025499 0.075751 0.074408 0.303182 0.034842 -0.221699 -0.108773 0.500807 -0.236333 0.203266 -0.078417 -0.299817 -0.260923 -0.235961 0.377208 -0.031777 -0.101478 0.176620 -0.152212 0.135821 0.085063 0.117256 -0.019687 0.098825 0.288778 0.190309 0.225513 -0.453917 0.519455 0.257509 -0.301280
16 -0.105651 -0.143976 -0.014138 0.173551 0.514926 -0.040591 -0.466047 -0.195060 0.338167 0.348113 -0.218962 -0.246744 -0.074480 0.706005 -0.208356 0.167419 -0.323269 0.132144 0.165567 -0.228936 0.075699 -0.389640 -0.033196 0.329643 -0.275829 0.104409 -0.043729 -0.121968 -0.292522 0.044254 -0.354078 -0.024981 -0.099109 0.243694 0.046943 -0.171792 0.227472 -0.434852 0.058039 -0.211127 0.340544 -0.067099 0.083849 0.294347 0.014802 -0.033865 -0.165175 0.280257 0.285370 0.012264
