34 50
34 0.000222 -0.181722 0.078441 0.072575 0.280281 -0.033895 -0.344787 0.044515 0.042823 0.114519 -0.059538 -0.020980 -0.260438 0.294150 -0.122842 0.038370 -0.188292 -0.049680 0.009867 0.094476 -0.052160 -0.091789 0.089084 -0.025190 -0.245584 -0.036351 -0.210518 -0.498994 -0.233285 -0.156963 -0.217830 -0.248066 -0.044933 0.304766 0.083024 -0.082178 0.129577 0.000315 -0.015905 -0.022416 0.101162 0.073003 0.167674 -0.041836 0.000331 0.043932 -0.123834 0.263327 0.095188 -0.135102
1 -0.143862 -0.377378 0.016960 0.075712 0.213112 -0.072328 -0.094174 0.240533 0.087001 0.055549 -0.148411 -0.092814 -0.406057 0.130636 -0.139659 0.156040 -0.395933 -0.233005 -0.000315 0.003378 0.074484 0.066857 0.021391 -0.192271 -0.227058 -0.283793 -0.110227 -0.452100 -0.165390 0.075479 0.096601 -0.072937 0.309098 0.149448 0.230827 0.065230 -0.221871 0.143144 -0.129787 0.055702 0.029773 0.026541 -0.100652 0.053512 -0.019383 -0.119262 0.060970 0.231960 0.163447 -0.002454
33 0.089101 -0.214880 0.029772 0.181188 0.428475 -0.138373 -0.377522 -0.010067 0.044331 0.095594 -0.118616 -0.033804 -0.248226 0.339927 -0.146032 0.044540 -0.257049 -0.024415 0.098253 -0.032558 -0.070004 -0.130563 0.058841 0.042842 -0.266826 -0.050193 -0.134305 -0.434236 -0.251102 -0.246538 -0.237299 -0.157905 -0.116979 0.142091 0.078421 -0.123680 0.096190 -0.028286 -0.000270 0.020208 0.222341 0.109344 0.143035 -0.092940 -0.030976 0.031086 -0.049205 0.181086 0.080463 -0.117023
3 -0.167323 -0.244159 0.151171 -0.003654 0.227289 -0.241677 -0.234638 0.037792 0.038943 0.115976 -0.133596 0.119361 -0.068047 0.042282 -0.046440 0.067145 -0.242123 -0.231251 0.051979 0.256844 -0.029830 0.149605 0.160118 -0.120904 -0.333486 -0.002746 -0.033449 -0.420505 -0.054731 -0.039390 -0.056524 -0.083606 0.096278 0.375129 0.128186 -0.118146 0.004604 0.215434 0.036552 0.264175 0.036444 -0.075996 -0.143809 -0.030574 -0.067832 0.008341 -0.043110 0.364910 0.129048 -0.184866
2 -0.246914 -0.355699 0.196482 0.088738 0.224374 -0.123222 -0.049232 0.236846 0.050879 0.018708 -0.128773 -0.106678 -0.171016 0.007668 0.012721 -0.041687 -0.271264 -0.145144 -0.023784 0.149384 0.011265 0.067712 0.069249 -0.105673 -0.264568 -0.053394 -0.101915 -0.552789 -0.260713 -0.013978 0.014235 -0.140900 0.247196 0.385823 0.156277 -0.066869 0.048141 0.136956 -0.059041 0.142977 -0.070242 0.086692 -0.052520 0.053320 -0.007329 -0.102135 -0.077810 0.275927 0.188020 -0.004749
32 -0.055650 -0.136970 0.070134 0.028388 0.317591 -0.211097 -0.252752 -0.010247 0.172629 0.169578 -0.151076 -0.216594 -0.314771 0.323302 -0.203079 0.210631 -0.457046 -0.030775 0.033656 0.122520 -0.073949 -0.183743 0.146177 0.020501 -0.408326 -0.073152 -0.041265 -0.136543 -0.107511 -0.055946 -0.088509 -0.065106 -0.136989 -0.000595 0.066889 0.012618 0.122550 0.051724 0.052582 0.115899 0.223034 -0.026043 0.092600 -0.027181 0.001351 0.172215 -0.067462 0.378855 0.206210 -0.168796
4 -0.185975 -0.404083 0.152499 -0.100185 0.115527 -0.140506 -0.223204 0.139480 -0.008638 0.077791 -0.052691 0.211026 -0.151924 -0.016001 -0.021019 0.100516 -0.176656 -0.301399 0.100700 0.286600 0.020430 0.134865 0.207040 -0.226004 -0.425457 -0.031093 -0.104775 -0.458166 0.102243 -0.081356 -0.042735 -0.103461 0.215599 0.459567 0.128439 -0.097248 -0.106028 0.275980 -0.113022 0.172456 -0.129779 0.091838 -0.065056 0.039342 -0.063278 -0.110647 -0.067500 0.386819 0.047737 -0.081793
24 0.042102 0.021265 -0.030337 -0.057612 0.322093 -0.257124 -0.449028 0.019499 0.170430 0.190834 -0.066348 -0.210635 -0.407880 0.259585 -0.092284 0.084656 -0.273205 -0.054107 0.111819 0.183386 -0.113692 -0.224398 0.163854 0.022435 -0.343371 -0.027753 -0.226467 -0.121439 -0.002795 -0.189231 -0.233739 -0.302752 -0.125193 0.225003 0.040757 0.063835 0.182219 0.128521 -0.038301 -0.008494 0.161197 -0.085917 0.073864 0.101409 0.093086 0.119621 -0.025165 0.337854 0.187262 -0.214974
14 -0.104681 -0.223129 0.111787 -0.050465 0.226240 -0.303354 -0.148499 0.018357 0.132562 0.019539 -0.114408 -0.194845 -0.200445 0.060593 -0.062017 0.112304 -0.263057 -0.075887 0.096967 0.194272 -0.027968 -0.075105 0.196324 -0.047275 -0.310165 -0.065621 -0.071491 -0.401941 -0.206011 -0.051665 -0.119321 -0.140999 0.044903 0.232285 0.130832 -0.017719 0.071091 0.187670 -0.072577 0.333254 -0.030729 0.034036 -0.006730 0.003442 0.031103 -0.018834 -0.058525 0.331962 0.162752 -0.133415
30 0.141408 -0.210575 -0.026692 -0.052419 0.330452 -0.066932 -0.462371 0.026786 0.123342 0.343662 -0.070081 -0.215022 -0.371185 0.433731 -0.115391 0.261529 -0.225462 -0.172485 0.042731 -0.077006 -0.182876 -0.142544 0.041002 0.095876 0.047873 0.099361 -0.273115 -0.413962 -0.118489 -0.172275 -0.193010 -0.307396 -0.222676 0.322287 -0.016627 0.005879 0.158974 0.191165 0.008513 0.083036 0.135735 0.031828 0.047453 -0.002091 0.173843 0.206038 -0.040879 0.144639 0.156149 -0.090754
6 -0.180177 -0.398992 0.075317 0.188471 0.373545 -0.264552 -0.083123 0.188725 0.057560 -0.007091 -0.219864 0.014304 -0.328424 0.344855 -0.277243 0.113481 -0.364601 -0.285896 0.049899 -0.050087 -0.097221 0.321271 -0.090206 -0.225592 -0.239442 -0.138122 0.034335 -0.392654 -0.110881 0.246868 0.198290 -0.008015 0.539697 0.135442 0.199134 0.059882 -0.300912 0.110642 0.173395 0.059027 0.151121 -0.288233 -0.449430 -0.023051 -0.119978 0.116756 0.250427 0.175403 0.101362 -0.301760
28 -0.001335 -0.182005 0.071201 -0.011629 0.436233 -0.293665 -0.347291 0.038380 0.199902 0.108672 -0.094633 -0.212568 -0.547042 0.270194 -0.105453 0.156323 -0.374876 -0.168960 0.126471 0.177538 -0.062389 -0.189584 0.119280 -0.054279 -0.317988 -0.022494 -0.107114 0.016418 0.027643 -0.139435 -0.116532 -0.075398 -0.112223 0.093621 0.102844 0.060757 0.081904 0.223610 -0.048348 0.152970 0.045173 0.125316 0.035235 0.124351 0.074979 0.123223 -0.039892 0.283470 0.105069 -0.116064
7 -0.038456 -0.278940 -0.010706 0.264950 0.387176 -0.068866 0.059334 0.268877 0.230640 0.027312 -0.360316 -0.015546 -0.461556 0.371576 -0.277943 -0.086413 -0.426434 -0.194312 -0.015804 -0.069375 -0.085709 0.236363 -0.080355 -0.241740 -0.302120 -0.233543 -0.118030 -0.350405 -0.155770 0.079457 0.236165 0.060400 0.547530 0.189359 0.229774 0.172737 -0.372830 0.155081 0.198746 -0.067993 0.236876 -0.302329 -0.335947 0.008065 -0.065821 -0.017592 0.306864 0.179642 0.205351 -0.376221
8 -0.183254 -0.195339 0.144950 -0.076842 0.137411 -0.329959 -0.059290 0.054286 0.133665 -0.098433 -0.117666 -0.052550 -0.171899 -0.101364 0.037005 0.010865 -0.161038 -0.174235 0.030017 0.283308 0.065700 0.142157 0.186040 -0.173101 -0.305242 -0.068358 -0.112201 -0.523074 -0.191568 -0.025028 -0.130372 -0.171444 0.233882 0.430331 0.191825 -0.019464 -0.026474 0.305375 -0.068235 0.433781 -0.170748 -0.047149 -0.149959 0.063191 -0.006284 -0.060332 -0.052797 0.424484 0.065574 -0.205355
9 -0.041642 -0.223590 0.054075 0.131560 0.278283 -0.193759 -0.206449 0.096861 0.076471 0.112872 -0.190386 -0.145144 -0.066686 0.185937 -0.041830 0.075570 -0.238244 -0.015793 0.088655 -0.023221 -0.058781 -0.013938 0.155660 0.055066 -0.213680 0.034691 -0.119284 -0.587540 -0.149938 -0.120713 -0.082835 -0.189476 0.064001 0.335733 0.070407 -0.098249 0.029337 0.126438 -0.029330 0.100181 0.126692 -0.085700 -0.017410 -0.039418 0.008364 -0.058117 0.023996 0.241074 0.183277 -0.131310
25 0.141843 0.070829 -0.037755 -0.038912 0.509669 -0.355435 -0.357797 0.038145 0.281505 0.190741 -0.033107 0.065193 -0.560701 0.381620 -0.291715 0.046875 -0.447022 -0.130196 0.095513 0.287662 -0.142562 -0.223539 0.171605 0.036436 -0.303326 0.029230 -0.213090 0.114774 0.097977 -0.128485 -0.191416 -0.074643 -0.407370 0.109433 0.198927 0.006489 0.017363 0.174889 0.004393 -0.004353 0.231556 -0.139837 0.042329 0.093847 0.079095 0.018154 -0.161537 0.387653 0.189466 -0.314451
26 -0.027724 -0.309960 0.095416 0.023996 0.592725 -0.293149 -0.490694 0.075385 0.066501 0.220582 -0.044471 -0.007083 -0.477280 0.393192 -0.200544 0.166634 -0.393422 -0.218464 0.125062 0.161731 -0.206834 -0.143400 0.132772 0.023263 -0.388329 0.036863 -0.029435 0.168949 0.064841 -0.064843 -0.080598 -0.064921 -0.270599 0.008978 0.114295 -0.028132 0.089481 0.154255 0.014453 0.113854 0.196753 0.068206 0.015340 -0.043957 0.069406 0.194375 -0.089758 0.213404 0.119611 -0.102020
5 -0.180053 -0.328289 0.059283 0.260721 0.309944 -0.121837 0.043650 0.205013 0.003217 -0.048591 -0.122983 -0.146517 -0.397507 0.400797 -0.320788 0.099921 -0.326577 -0.216021 0.026605 -0.059621 -0.129206 0.142928 -0.073807 -0.243518 -0.360823 -0.221578 -0.099290 -0.446929 -0.349204 0.321492 0.148780 -0.030717 0.547331 0.148002 0.248002 0.049528 -0.229272 0.021829 0.152634 0.072331 0.162728 -0.230383 -0.388865 0.002290 -0.110646 0.150126 0.185508 0.153715 0.042793 -0.210455
20 -0.045930 -0.313717 0.072659 -0.089484 0.143129 -0.150967 -0.226425 0.050998 0.066980 0.064853 -0.084745 -0.036897 -0.192509 0.063341 -0.148247 0.057319 -0.220680 -0.152105 0.142346 0.144146 -0.085078 -0.038028 0.064176 -0.142613 -0.211199 -0.120381 -0.099463 -0.522118 -0.193450 -0.131370 -0.145023 -0.196599 0.240398 0.340859 0.089837 0.009483 0.072753 0.063517 -0.066115 0.206722 -0.016697 0.070204 0.019483 0.048295 -0.059991 -0.080134 -0.011966 0.216208 0.175873 -0.129306
11 -0.085352 -0.330080 -0.005888 0.145614 0.292354 0.103218 -0.008404 0.203105 0.148220 0.163532 -0.247248 0.033239 -0.427460 0.305012 -0.213767 -0.011078 -0.348566 -0.242795 -0.053610 0.072912 -0.111611 0.125635 0.020924 -0.261134 -0.583905 -0.316958 -0.177483 -0.204829 -0.241785 0.089462 0.161991 0.101980 0.344176 0.183020 0.181236 0.173088 -0.259720 0.109258 0.213382 0.151876 0.220831 -0.196752 -0.258165 -0.029757 -0.021400 0.120890 0.200733 0.139919 0.111009 -0.242372
31 -0.024535 -0.228325 0.030982 0.023518 0.214506 -0.154073 -0.354243 0.069743 0.060012 0.153138 -0.142537 -0.026678 -0.068713 0.122918 -0.104901 0.078770 -0.283014 -0.068566 0.145981 0.016269 -0.058383 -0.046187 0.106058 -0.001728 -0.209491 -0.043767 -0.126149 -0.586550 -0.084354 -0.186816 -0.154176 -0.261559 0.101819 0.331698 0.054842 -0.080031 0.019922 0.067084 -0.083870 0.021268 0.133339 -0.081387 0.017253 0.022009 -0.071024 -0.155579 0.003901 0.187321 0.187220 -0.112901
29 -0.068938 -0.248136 0.107330 0.071779 0.416219 -0.404762 -0.319630 0.119041 0.144771 0.008335 -0.125594 -0.065832 -0.387362 0.148823 -0.064523 0.019452 -0.341827 -0.109091 0.101036 0.202241 -0.007332 -0.072853 0.158539 -0.013198 -0.174746 0.032485 -0.055916 -0.155813 -0.007179 -0.157341 -0.177198 -0.152374 -0.110465 0.161429 0.194520 -0.059221 0.045254 0.171081 -0.141114 0.117966 0.033322 0.038250 0.073359 0.028652 0.039516 -0.069800 -0.088169 0.323985 0.138504 -0.150732
17 -0.168364 -0.360048 0.130164 0.209542 0.398074 -0.005923 -0.001507 0.099494 0.172446 0.134453 -0.293771 -0.020159 -0.346228 0.473955 -0.288135 0.073270 -0.360382 -0.166331 -0.081935 0.012442 -0.042376 0.181083 -0.088816 -0.208672 -0.494200 -0.314413 -0.028944 -0.347374 -0.428157 0.272134 0.132738 0.097882 0.428393 0.139402 0.184552 0.136577 -0.355011 0.054916 0.371512 0.193800 0.223800 -0.217174 -0.348157 -0.115065 -0.054169 0.245827 0.138816 0.064400 0.011640 -0.326676
23 0.003467 -0.247132 0.024026 0.031987 0.279294 -0.080601 -0.449752 0.026047 0.026086 0.305816 -0.141333 -0.061087 -0.015686 0.234961 -0.091929 0.137550 -0.286799 -0.017903 0.113302 -0.041354 -0.090217 -0.137652 0.120968 0.118824 -0.226911 0.004840 -0.121248 -0.544879 -0.107068 -0.245881 -0.184824 -0.245909 -0.091552 0.306989 -0.018510 -0.122028 0.104102 0.013232 -0.040548 -0.003859 0.241285 0.009600 0.160952 -0.062702 -0.015694 -0.068744 -0.046674 0.203163 0.215299 -0.048749
22 -0.141571 -0.346452 0.133859 -0.018141 0.139995 -0.138884 -0.093979 0.114889 0.093344 0.013192 -0.127559 -0.053738 -0.188629 0.050563 -0.113126 0.048439 -0.286623 -0.095944 0.133139 0.179590 -0.032170 -0.079549 0.157645 -0.153737 -0.508327 -0.196899 -0.093474 -0.482699 -0.227780 -0.057517 -0.114636 -0.150730 0.241170 0.225350 0.130409 0.008059 -0.039840 0.050540 -0.051641 0.192976 -0.022795 0.033863 -0.018890 0.019750 -0.059112 -0.116518 -0.014631 0.153649 0.095921 -0.092473
18 -0.195679 -0.411425 0.169434 -0.067681 0.059810 -0.187016 -0.027761 0.122147 0.013509 -0.083795 -0.049439 -0.092818 -0.176736 0.034591 -0.139486 0.127823 -0.230773 -0.134127 0.119365 0.183230 -0.042158 -0.007054 0.145110 -0.200138 -0.429518 -0.180835 -0.056829 -0.586446 -0.263522 0.056583 -0.115802 -0.242515 0.350135 0.254042 0.125325 0.022701 -0.009867 0.042893 -0.081552 0.267331 -0.083725 0.010064 -0.079078 0.029501 -0.047685 -0.038048 -0.036709 0.173872 0.066807 -0.086759
10 -0.140888 -0.212602 0.176911 0.132572 0.340983 -0.253762 -0.242166 0.098764 0.121124 0.057487 -0.191155 -0.077282 -0.170686 0.114294 0.043006 0.011254 -0.277324 -0.071483 0.015755 0.143568 0.066190 0.036291 0.106198 -0.009385 -0.256248 0.042539 -0.078402 -0.470036 -0.105492 -0.105628 -0.113303 -0.156587 0.004213 0.294946 0.104665 -0.108371 0.023854 0.170924 -0.021641 0.106713 0.039042 -0.008509 -0.037339 0.035674 0.013310 -0.027039 -0.072329 0.283471 0.102019 -0.115045
16 -0.033526 -0.159107 -0.003414 0.024529 0.348338 -0.161520 -0.503717 0.065293 0.010982 0.311662 -0.041692 -0.140035 -0.174649 0.276724 -0.111632 0.120459 -0.314043 -0.065140 0.138312 0.012342 -0.082974 -0.205659 0.027614 0.106950 -0.152056 0.032855 -0.168174 -0.442697 -0.107517 -0.186131 -0.192780 -0.242710 -0.058311 0.327282 0.012727 -0.107757 0.148242 0.000044 -0.080715 -0.063589 0.197061 0.098621 0.160663 0.044026 -0.001849 -0.044037 -0.069532 0.222031 0.196735 0.011513
27 0.039303 -0.141183 0.013358 -0.179047 0.283912 -0.152347 -0.550347 -0.006659 0.079637 0.318732 -0.009904 -0.193547 -0.324910 0.299912 -0.161345 0.119325 -0.229714 -0.107182 0.172762 0.116075 -0.114161 -0.258180 -0.055415 0.028186 0.005336 -0.001121 -0.202810 -0.392371 -0.154511 -0.247992 -0.293860 -0.328948 0.010884 0.410824 -0.039610 0.036283 0.216288 0.039404 -0.031283 -0.000311 0.089426 0.174510 0.155933 0.084010 0.070373 0.058204 -0.075961 0.158592 0.190694 -0.095444
21 -0.033618 -0.194030 0.070853 0.142893 0.375784 -0.058594 -0.435279 0.071972 0.053042 0.311207 -0.172439 -0.137936 -0.030503 0.257090 -0.020284 0.049279 -0.339396 0.035149 0.072856 -0.055738 -0.042246 -0.177634 0.075338 0.179102 -0.257433 0.054862 -0.153142 -0.562753 -0.171361 -0.271070 -0.166949 -0.240671 -0.149416 0.290531 -0.024072 -0.161499 0.140486 0.027947 -0.025045 -0.086927 0.278058 0.049629 0.139478 -0.040432 0.011597 -0.072206 -0.080815 0.175068 0.220508 0.009129
19 -0.026406 -0.242897 0.039533 -0.009759 0.308923 -0.117173 -0.478257 0.027599 0.051131 0.297420 -0.115149 -0.119976 -0.072355 0.268953 -0.065958 0.144069 -0.270643 -0.037486 0.150061 -0.032255 -0.128725 -0.167551 0.093097 0.092707 -0.310600 0.055991 -0.162578 -0.484964 -0.091212 -0.206344 -0.171224 -0.262284 -0.074554 0.254391 -0.064159 -0.092290 0.124643 0.041394 0.015466 0.004894 0.207597 -0.029490 0.037288 -0.024875 0.015280 0.033060 0.003094 0.104952 0.128807 -0.065458
13 -0.143707 -0.190490 0.036676 0.039813 0.140786 -0.287364 0.002746 0.100748 0.033795 -0.044753 -0.107062 -0.174803 -0.236877 0.030265 0.002835 0.112033 -0.118828 -0.158187 0.046862 0.214579 0.013881 0.120287 0.213829 -0.134261 -0.254921 -0.069951 -0.102805 -0.484646 -0.153056 0.046626 0.016123 -0.097118 0.258155 0.403378 0.178982 -0.013842 0.002137 0.287094 -0.096415 0.306668 -0.100709 0.049013 -0.113632 -0.035082 0.055714 0.054415 0.030237 0.541967 0.173773 -0.159876
15 -0.009140 -0.209401 0.031712 0.037529 0.311735 -0.116762 -0.395452 0.062277 0.070527 0.258007 -0.111908 -0.152585 -0.132251 0.266819 -0.061843 0.140937 -0.292281 0.004436 0.084517 -0.013245 -0.081788 -0.178360 0.148317 0.120180 -0.300253 0.031899 -0.168837 -0.482448 -0.116469 -0.172341 -0.154211 -0.230912 -0.158345 0.240160 0.002278 -0.091548 0.094753 0.075896 -0.051397 0.014451 0.190940 0.002335 0.127915 -0.023017 0.049237 -0.013384 -0.070513 0.215467 0.163173 -0.047518
12 -0.165264 -0.392456 0.061458 0.129339 0.154295 -0.135308 0.014989 0.143558 -0.030957 -0.008020 -0.116446 -0.054947 -0.036921 0.099350 -0.140813 0.099433 -0.237604 -0.045608 0.199457 0.107965 -0.100521 -0.080490 0.247503 -0.131297 -0.744313 -0.219337 -0.061991 -0.617774 -0.210641 0.073818 0.082064 -0.071886 0.335454 0.128816 0.125540 -0.051782 -0.128863 0.006863 -0.067936 0.058656 0.051991 -0.004975 -0.077105 -0.062594 -0.079778 -0.123129 0.116409 0.184169 0.137141 -0.075353
