34 50
34 -0.020245 -0.359754 0.061627 0.102031 0.288089 0.020736 -0.429371 0.170047 0.074936 0.212247 -0.219667 -0.099691 -0.254168 0.309201 -0.121681 0.025477 -0.372937 -0.089850 0.107660 0.102313 -0.121477 -0.120553 0.073112 0.111128 -0.160092 0.115623 -0.153510 -0.257653 -0.083890 -0.294947 -0.219336 -0.184859 -0.086500 0.214636 0.061045 -0.169418 0.220666 0.054982 -0.043589 -0.095485 0.273282 -0.003274 0.109085 -0.050404 -0.017622 0.141308 -0.102469 0.131821 0.106999 -0.136753
1 -0.139525 -0.310445 0.026201 -0.039546 0.222247 -0.154159 -0.250793 0.215545 0.079719 0.083323 -0.155146 -0.051074 -0.245655 0.034779 -0.093285 0.081435 -0.288633 -0.284076 0.134430 0.225943 -0.010365 0.048743 0.034521 -0.214094 -0.281039 -0.125737 -0.108371 -0.402979 -0.093248 -0.048224 0.052918 -0.078201 0.293242 0.338001 0.127826 -0.059454 0.038974 0.117894 -0.124305 0.074160 0.020759 0.063408 -0.092169 0.059512 -0.034375 -0.168624 0.065463 0.270370 0.295423 -0.010044
33 0.104472 -0.248570 0.152998 0.104554 0.275466 0.020717 -0.541117 -0.010903 0.007657 0.199699 -0.173209 -0.054671 -0.084109 0.364627 -0.155419 0.082549 -0.371519 -0.034259 0.140052 0.050144 -0.139587 -0.194629 0.115280 0.096586 -0.292360 0.068367 -0.017553 -0.238782 -0.129632 -0.182736 -0.272495 -0.187236 -0.118157 0.212681 0.067982 -0.207419 0.197373 -0.056800 -0.033139 0.061278 0.265505 0.103923 0.146659 -0.168272 -0.040219 0.096522 -0.090211 0.224076 0.158751 -0.173413
3 -0.108261 -0.225083 0.041385 -0.068103 0.273724 -0.119638 -0.278871 0.083690 0.102754 0.128406 -0.114578 0.042717 -0.273582 0.138235 -0.114508 0.130837 -0.236832 -0.230152 -0.012535 0.149822 0.018127 0.075048 0.150972 -0.166970 -0.326661 -0.055675 -0.167015 -0.305553 0.011750 -0.143729 -0.075457 -0.132103 -0.010723 0.364938 0.058750 -0.047654 0.068252 0.231326 0.012816 0.094431 -0.000676 -0.075466 0.000784 0.027939 -0.049025 0.044506 -0.053491 0.276724 0.176042 -0.167899
2 -0.305396 -0.148227 0.201175 -0.011536 0.311987 -0.338625 -0.216002 0.220867 0.208840 0.151615 -0.043331 -0.153681 -0.136323 -0.065732 0.065850 -0.077473 -0.290542 -0.070170 0.000171 0.270034 0.093926 -0.065254 0.081326 -0.099994 -0.271795 -0.018191 -0.126112 -0.377121 -0.219298 -0.078258 -0.105428 -0.140611 0.202964 0.336946 0.132473 -0.161964 0.111961 0.158697 -0.130422 0.194426 -0.128661 0.183700 -0.021216 0.144396 -0.055020 -0.201430 -0.159700 0.449574 0.171213 0.014097
32 0.058179 -0.086012 0.015695 -0.020553 0.268962 -0.287544 -0.034333 -0.043211 0.103234 0.024617 -0.008556 -0.115140 -0.396685 0.239781 -0.225953 0.075759 -0.482429 0.034972 -0.012017 0.154480 -0.070206 -0.181055 0.109044 0.015630 -0.235823 -0.033147 -0.238990 -0.253297 -0.070356 -0.123467 -0.262828 -0.264279 -0.192027 0.234675 0.097218 0.014819 0.067127 0.071810 -0.028809 0.004699 0.269343 -0.035541 0.094949 -0.003023 -0.003620 0.097503 -0.123475 0.462270 0.159655 -0.200594
4 -0.223957 -0.251697 0.257420 -0.028384 0.330913 -0.170289 -0.294575 0.183401 0.076659 0.095455 -0.159041 0.029921 -0.026121 -0.053899 0.051327 0.080246 -0.116775 -0.159050 -0.060797 0.227287 0.127653 0.112626 0.117568 -0.173925 -0.315789 -0.052926 -0.199059 -0.621150 -0.119602 -0.076251 -0.055364 -0.053394 0.161072 0.397820 0.053424 -0.080100 -0.001867 0.189546 -0.025111 0.190113 -0.172966 0.009984 -0.037197 0.043102 -0.053974 -0.018421 -0.124210 0.326320 0.065577 -0.148100
24 0.057743 -0.164442 -0.045337 -0.031655 0.389429 -0.187853 -0.444435 0.024838 0.024874 0.231694 -0.047998 -0.139015 -0.365053 0.384819 -0.238229 0.156679 -0.228446 -0.028400 0.062913 -0.019677 -0.105102 -0.156465 0.120694 0.092782 -0.247947 -0.116128 -0.235772 -0.177447 -0.003995 -0.244084 -0.216458 -0.230157 -0.345545 0.296897 -0.053140 0.038039 0.049856 0.044508 0.075728 -0.141852 0.249877 -0.096878 0.211078 0.026616 0.076649 0.051648 -0.123765 0.281083 0.213272 -0.186292
14 -0.074840 -0.211939 0.139892 0.010481 0.326205 -0.146962 -0.364356 0.110668 0.095126 0.088735 -0.146471 0.007098 -0.202730 0.054299 0.023802 0.103077 -0.132000 -0.228529 0.034151 0.193327 0.021858 0.028223 0.163630 -0.139476 -0.365079 -0.069630 -0.191753 -0.540486 -0.097422 -0.170386 -0.023183 -0.027348 -0.006560 0.279062 0.093110 -0.057270 -0.031726 0.244514 -0.034809 0.146438 -0.076182 0.088293 -0.047121 -0.029783 0.016679 -0.090033 -0.003603 0.233377 0.063318 -0.030912
30 0.031210 -0.377981 0.034790 0.052930 0.307091 0.068340 -0.397913 0.025846 0.067165 0.255373 -0.052099 -0.116775 -0.177638 0.406075 -0.077055 0.155408 -0.258382 -0.174322 0.157443 0.068071 -0.137792 -0.281946 0.142064 0.064720 -0.418925 0.044493 -0.157072 -0.271220 -0.163947 -0.178625 -0.204932 -0.199101 -0.176361 0.249278 0.059810 -0.093403 0.164945 -0.057693 0.010687 -0.048266 0.132801 0.076409 0.120898 0.037845 0.059569 0.175679 -0.049790 0.080374 0.096985 -0.117785
6 -0.160367 -0.239429 -0.033721 0.025010 0.193722 -0.249639 -0.064266 0.208497 0.115933 -0.055221 -0.214810 -0.079215 -0.327121 0.196953 -0.250822 0.017174 -0.427360 -0.332516 0.225036 0.180351 -0.166309 0.289352 -0.122153 -0.208632 -0.306274 -0.144745 0.039910 -0.448055 -0.147927 0.167421 0.193839 -0.095055 0.770356 0.351284 0.193060 0.091604 -0.154642 0.093597 0.096383 0.056627 0.187058 -0.205207 -0.354679 0.090846 -0.032949 0.047352 0.252432 0.199784 0.310664 -0.292886
28 0.008773 -0.104626 0.034231 0.054219 0.509806 -0.272182 -0.241770 0.048834 0.180396 0.111975 0.025703 -0.096393 -0.432444 0.370890 -0.215598 0.108755 -0.356129 -0.017266 -0.015769 0.050122 -0.067699 -0.184090 0.128209 0.086652 -0.332803 -0.027513 -0.276535 -0.173484 -0.091596 -0.170937 -0.229369 -0.124583 -0.266199 0.172889 0.027335 0.026356 -0.006613 0.068821 0.059833 -0.113806 0.175105 -0.010527 0.103352 0.016108 0.069522 0.224788 -0.189558 0.278183 0.001964 -0.171382
7 -0.152218 -0.385810 0.149187 0.128310 0.407535 -0.292277 0.025073 0.115116 0.080867 0.020857 -0.298095 -0.032065 -0.152873 0.155216 -0.107497 -0.019811 -0.370321 -0.261316 0.212880 0.167106 -0.175914 0.225481 -0.146884 -0.161595 -0.330810 -0.112845 0.063058 -0.631138 -0.220854 0.153340 0.199856 -0.029812 0.659530 0.184860 0.175040 0.073797 -0.229960 0.055064 0.130030 0.142999 0.212029 -0.123543 -0.374158 -0.010145 -0.019996 0.007925 0.338598 0.134072 0.216042 -0.227842
8 -0.145978 -0.193877 0.138527 0.036822 0.272826 -0.280929 -0.260639 0.151674 0.129881 0.007692 -0.152745 -0.066786 -0.189908 -0.053146 0.034944 0.058586 -0.177505 -0.157328 0.027114 0.177266 0.015898 0.088693 0.180645 -0.162774 -0.310233 -0.118301 -0.100521 -0.590420 -0.187590 -0.034511 -0.018926 -0.112947 0.224839 0.271719 0.195519 -0.005184 -0.044242 0.317723 -0.092743 0.348377 -0.122706 0.036528 -0.105634 -0.002352 -0.011981 -0.130241 0.013560 0.261498 0.084580 -0.051955
9 -0.087580 -0.188030 0.127033 0.118067 0.285587 -0.107474 -0.311473 0.123057 0.115417 0.144818 -0.181401 -0.105283 -0.178569 0.265483 -0.039933 0.063349 -0.196278 -0.065388 0.054646 0.084242 -0.067805 0.003739 0.156831 0.067871 -0.319056 0.066030 -0.194273 -0.561179 -0.141349 -0.163040 -0.106292 -0.115162 -0.036811 0.169279 0.044424 -0.102227 0.035867 0.176559 0.014426 0.039836 0.070697 -0.111461 -0.028198 0.022826 0.020659 0.091372 -0.101469 0.148805 0.049300 -0.173825
25 0.183312 -0.212465 -0.211102 -0.024012 0.352368 -0.322544 -0.361118 0.053295 0.204205 0.007386 0.079781 0.006070 -0.594220 0.415791 -0.396461 0.141186 -0.409431 -0.143253 0.039225 0.128081 -0.099534 -0.127467 -0.047954 0.123436 0.256777 0.021285 -0.236810 -0.153764 -0.039418 -0.119698 -0.145661 -0.241172 -0.301495 0.327177 0.243915 0.066186 -0.077146 0.063706 -0.027032 -0.057893 0.299545 -0.119298 0.064745 0.073358 0.064840 0.030077 -0.121090 0.402232 0.238001 -0.294455
26 0.187455 -0.133287 -0.122686 0.081683 0.375224 -0.206126 -0.339977 -0.025433 0.286876 0.107878 0.144456 -0.008322 -0.634939 0.547778 -0.317982 0.129913 -0.412290 -0.005075 -0.014568 -0.074441 -0.111463 -0.289456 0.092282 0.182853 -0.125265 0.061683 -0.296423 -0.185937 -0.130630 -0.138471 -0.307504 -0.228070 -0.348144 0.177245 0.192976 0.072624 -0.094886 0.100080 0.072122 -0.041097 0.227618 -0.015619 0.090287 0.011401 0.132492 0.303460 -0.225746 0.292617 -0.068943 -0.233449
5 -0.161489 -0.160538 0.020626 0.070256 0.193487 -0.182875 -0.060107 0.109647 0.049060 -0.022609 -0.136550 -0.170003 -0.236599 0.224070 -0.199788 0.032540 -0.333221 -0.208283 0.211137 0.098942 -0.189018 0.102302 0.000600 -0.197741 -0.477175 -0.208745 0.045780 -0.426449 -0.289856 0.226579 0.088116 -0.170777 0.714452 0.352221 0.208113 0.097170 -0.090529 0.029336 0.106658 0.160675 0.113075 -0.134718 -0.283800 0.074641 -0.028572 0.114691 0.204682 0.154248 0.175914 -0.266240
20 0.030272 -0.250400 0.159089 -0.019205 0.282369 -0.163568 -0.357943 0.006400 0.013195 0.085732 -0.080621 -0.016763 -0.090001 0.027749 0.011244 0.100854 -0.131188 -0.095102 0.055124 0.089858 0.028803 -0.104549 0.129188 -0.146268 -0.364311 -0.141108 -0.112104 -0.585456 -0.187747 -0.063599 -0.129444 -0.133127 0.031445 0.305981 0.137279 0.002393 -0.013548 0.123737 -0.063483 0.271499 -0.041526 0.138248 0.051009 -0.016685 0.037810 -0.097625 -0.044635 0.302294 0.107960 -0.068547
11 -0.168995 -0.507165 0.070349 0.003997 0.545046 -0.246068 -0.021193 0.135407 0.068069 0.063232 -0.186929 -0.046024 -0.152086 0.103383 -0.108144 0.019686 -0.314885 -0.307054 0.113692 0.202434 -0.163468 0.090252 -0.065767 -0.244050 -0.377513 -0.272216 -0.054765 -0.386370 -0.225640 0.132320 0.147091 -0.082153 0.471044 0.260876 0.113148 0.203504 -0.101391 -0.030516 0.105789 0.136683 0.157003 -0.077909 -0.209234 0.041911 0.047782 0.133553 0.308663 0.029892 0.247888 -0.217114
31 -0.028408 -0.366449 0.078900 0.065636 0.131158 -0.052873 -0.330821 0.068804 0.010810 0.218446 -0.194652 -0.054802 -0.190345 0.190741 -0.097204 0.226265 -0.295181 -0.114255 0.122339 -0.018079 0.002642 -0.072052 0.205800 -0.060218 -0.338969 -0.041830 -0.025386 -0.414736 -0.043778 -0.116879 -0.107101 -0.146996 -0.036441 0.187237 0.073937 -0.126951 0.062856 0.158917 -0.138377 0.176134 0.074025 0.054215 0.074217 -0.063375 -0.047224 -0.160722 -0.050014 0.299091 0.165101 0.020150
29 0.029983 -0.129603 0.005680 0.046918 0.253588 -0.271219 -0.345161 0.040934 0.172833 0.083489 -0.016640 -0.012363 -0.490290 0.217529 -0.131259 0.108611 -0.296600 -0.089730 -0.011184 0.072469 -0.012063 -0.106899 0.140711 0.005039 -0.120317 -0.001096 -0.193246 -0.387213 -0.109173 -0.181861 -0.138477 -0.120336 -0.220117 0.171979 0.182791 -0.019671 -0.084475 0.286752 -0.057954 0.152871 0.094226 0.066068 0.011777 -0.074743 0.053030 -0.096034 -0.084736 0.398178 0.078240 -0.010725
17 -0.210153 -0.380518 0.180873 0.170677 0.393961 -0.290440 0.309161 0.021910 0.028906 -0.056059 -0.248925 -0.070538 -0.264879 0.282174 -0.263791 0.118021 -0.462612 -0.081972 0.066412 0.037461 -0.116612 0.140261 -0.021968 -0.216665 -0.419638 -0.204857 0.098162 -0.478576 -0.294954 0.314557 0.061291 -0.087975 0.624896 0.202354 0.226307 0.156034 -0.255154 0.042905 0.228688 0.242717 0.270704 -0.238797 -0.330813 -0.077409 -0.092400 0.284414 0.203305 0.181213 0.126871 -0.329147
23 0.037521 -0.204650 0.050959 0.134184 0.185819 -0.044820 -0.538387 -0.014530 0.008608 0.352859 -0.141592 -0.156585 -0.220241 0.471704 -0.142570 0.232138 -0.163922 -0.050010 0.198722 -0.124622 -0.110513 -0.158603 0.221447 0.237909 -0.337648 0.060814 -0.038764 -0.327768 -0.035914 -0.222000 -0.200287 -0.223246 -0.314045 0.215660 -0.034692 -0.178660 0.062348 0.114221 -0.003100 0.021740 0.166587 -0.032161 0.110501 -0.002411 0.042322 -0.090671 -0.104791 0.273587 0.148689 -0.066492
22 -0.106635 -0.315754 0.142974 -0.040915 0.231508 -0.194317 -0.230349 0.081064 -0.018171 0.069477 -0.151695 -0.107363 -0.053290 -0.070896 0.050906 0.056838 -0.212333 -0.105484 0.086523 0.173009 -0.029527 -0.081508 0.201783 -0.208265 -0.347963 -0.165149 -0.078191 -0.581815 -0.219437 -0.050504 -0.086172 -0.237388 0.220373 0.283302 0.168202 -0.008642 0.143604 0.130755 -0.188025 0.340470 -0.069241 0.136841 0.075907 -0.013146 -0.024801 -0.164521 0.038176 0.248351 0.189817 -0.039487
18 -0.113831 -0.329585 0.095058 -0.042527 0.169407 -0.198623 -0.221272 0.123313 0.032339 0.063029 -0.137823 -0.083317 -0.103946 -0.088291 0.003823 0.059741 -0.295368 -0.097445 0.045432 0.157430 0.033666 -0.050823 0.199824 -0.244887 -0.316005 -0.163009 -0.081755 -0.519578 -0.173444 -0.049395 -0.080129 -0.213110 0.188141 0.272698 0.169799 -0.041719 0.154072 0.169618 -0.232590 0.340858 -0.071121 0.146137 0.085442 0.001624 -0.044801 -0.219359 -0.029737 0.322290 0.194698 -0.004775
10 -0.031107 -0.045459 0.097852 0.042646 0.313792 -0.212488 -0.290649 0.036153 0.128826 0.107121 -0.068055 -0.110972 -0.254496 0.241046 -0.108903 0.084661 -0.236633 -0.058318 0.034965 0.106169 -0.037903 -0.070720 0.145402 -0.015229 -0.389500 -0.060033 -0.203963 -0.410741 -0.107439 -0.100011 -0.142872 -0.134524 -0.087333 0.237498 0.057597 -0.058368 0.007041 0.135420 0.032831 0.029237 0.078538 -0.031886 -0.005368 0.057411 0.026782 0.038076 -0.117356 0.274430 0.079995 -0.148741
16 0.147525 -0.104209 0.055698 0.176647 0.045731 -0.032888 -0.371149 -0.133024 0.007823 0.247608 -0.122435 -0.143920 -0.169423 0.511267 -0.198969 0.190386 -0.342983 0.057270 0.194038 -0.129952 -0.152706 -0.191571 0.181211 0.212076 -0.343130 0.118063 0.004950 -0.451254 -0.134150 -0.093896 -0.253851 -0.273374 -0.161539 0.163018 0.090693 -0.171054 0.058600 0.039061 -0.001843 0.109417 0.275118 -0.067990 0.072682 -0.074647 -0.016772 -0.005467 -0.086905 0.321075 0.130181 -0.175673
27 0.035773 -0.264857 -0.018852 -0.040499 0.286538 0.028509 -0.515172 0.042628 -0.066988 0.346025 -0.025778 -0.208390 -0.219501 0.356922 -0.059667 0.145867 -0.143528 -0.132462 0.203878 -0.024914 -0.153761 -0.329120 0.131847 0.062768 -0.477724 -0.104308 -0.191576 -0.307359 -0.161862 -0.258117 -0.165491 -0.199328 -0.186482 0.256689 -0.081661 -0.014052 0.152419 -0.040798 -0.026314 -0.107477 0.138755 0.125385 0.209830 0.041346 0.139171 -0.011547 -0.012129 0.158934 0.179373 -0.014735
21 -0.066829 -0.266874 0.012594 0.156164 0.169319 -0.051105 -0.278722 0.039010 0.019856 0.351564 -0.175344 -0.213331 -0.266735 0.468228 -0.177847 0.119223 -0.323626 0.072130 0.164001 -0.147145 -0.123219 -0.167605 0.166654 0.176435 -0.350773 0.025589 -0.088246 -0.312346 -0.092994 -0.189635 -0.178966 -0.235526 -0.150071 0.142919 -0.019242 -0.149231 0.090336 0.066149 0.026469 -0.050041 0.298814 -0.074213 0.110202 -0.002039 0.000920 -0.035696 -0.089394 0.236111 0.176144 -0.079679
19 0.001000 -0.251994 0.110697 0.117366 0.188323 -0.028146 -0.305161 -0.033790 -0.017546 0.227835 -0.180125 -0.093361 -0.163594 0.366039 -0.131210 0.176180 -0.317222 0.003492 0.121339 -0.031855 -0.094975 -0.152383 0.189270 0.088089 -0.327303 0.048782 -0.027498 -0.373037 -0.104915 -0.137922 -0.208646 -0.230018 -0.145283 0.191514 0.044543 -0.151462 0.110176 0.071396 -0.023674 0.124329 0.212208 -0.013269 0.104710 -0.113003 -0.035831 0.029420 -0.072230 0.267193 0.137501 -0.136025
13 -0.249387 -0.199798 0.038740 -0.025505 0.276959 -0.278104 -0.241406 0.261632 0.150270 0.063543 -0.133947 -0.129702 -0.348419 0.017131 -0.030589 0.152960 -0.144848 -0.289468 0.040061 0.217478 -0.006634 0.150951 0.280166 -0.103846 -0.365899 -0.125700 -0.206356 -0.359681 -0.033996 -0.110812 -0.026106 -0.133407 0.121096 0.264498 0.040727 0.027509 0.015198 0.361369 -0.143281 0.176116 -0.236378 -0.028441 -0.080467 0.079952 0.000529 -0.036215 0.001424 0.256683 0.063239 -0.043879
15 -0.026096 -0.250684 0.071431 0.133893 0.066704 0.038395 -0.359862 0.063117 0.029483 0.320754 -0.162931 -0.172405 -0.177342 0.402960 -0.116169 0.110130 -0.325022 0.050390 0.139626 -0.087902 -0.072339 -0.188737 0.183549 0.097523 -0.384262 0.065154 -0.064800 -0.419561 -0.149087 -0.155553 -0.175538 -0.202951 -0.089274 0.177306 0.038118 -0.229636 0.121394 0.039826 -0.028268 0.011162 0.199056 0.001521 0.097222 -0.010251 -0.028823 -0.084580 -0.151510 0.259039 0.163771 -0.046024
12 -0.134394 -0.199002 0.190783 -0.005470 0.389833 -0.376353 -0.105543 -0.008565 0.055091 0.040553 -0.061328 -0.095125 -0.087886 0.025374 -0.035845 0.037932 -0.305603 -0.116333 0.091280 0.246956 -0.078113 -0.088007 0.121055 -0.156320 -0.348419 -0.126791 -0.044760 -0.433012 -0.226145 0.081581 -0.101209 -0.214828 0.255807 0.179346 0.160621 0.001958 0.079574 0.017213 -0.147974 0.289657 -0.058157 0.155775 -0.043875 -0.004891 -0.050512 -0.032826 0.105656 0.327767 0.184324 -0.121590
