34 128
J34 0.144689 0.079772 0.107452 0.123201 0.087232 -0.055583 0.220630 0.124334 -0.027448 -0.159795 -0.188908 -0.049470 -0.131089 -0.060148 -0.037589 -0.169113 0.048159 0.054825 -0.216644 -0.097872 0.079790 -0.157775 -0.048318 0.050021 0.076909 0.179030 0.045552 -0.082911 0.017245 0.123952 -0.190773 0.019250 -0.149379 0.260499 -0.026657 0.079680 0.170503 -0.007997 0.049314 0.005757 0.033259 -0.116051 -0.063922 0.117011 0.012014 -0.002845 -0.001832 -0.084462 0.069148 0.037086 -0.050817 0.020250 -0.035892 0.284245 -0.004173 0.106288 -0.147645 0.048547 0.113408 0.046376 0.096683 0.002182 -0.076185 -0.173166 0.054334 0.100148 -0.055532 -0.091923 0.146706 -0.044100 -0.118824 -0.213352 -0.086139 0.067953 -0.090493 -0.028331 -0.054185 0.014841 -0.206322 -0.039782 -0.058004 0.012628 0.002551 -0.066967 0.013850 -0.011124 -0.170510 0.244077 0.179412 0.035904 0.016345 0.091152 0.050116 0.052002 0.116930 -0.104147 0.051321 0.184561 0.015004 0.028633 0.049069 0.178286 0.069828 0.073666 0.000016 0.238242 0.004938 -0.160468 -0.163701 -0.131140 -0.166758 0.129732 -0.111621 0.227184 -0.108841 0.144799 0.089730 0.009706 0.069269 0.039041 0.025890 -0.160864 -0.214457 -0.100763 -0.026171 0.023497 -0.047963 0.007465
J1 0.027710 0.213576 0.131535 0.099693 0.021151 -0.066624 0.135449 0.030211 -0.035083 -0.139699 -0.070503 -0.004703 -0.103383 -0.089699 -0.030120 -0.069720 0.004532 0.023184 -0.195083 -0.074243 0.085218 -0.024427 0.037700 0.076839 0.075829 0.185832 0.025380 -0.142806 -0.017076 0.107647 -0.087226 -0.012723 -0.171404 0.217775 0.063782 0.124472 0.196941 -0.029916 0.021718 0.042598 -0.111006 -0.088118 -0.033022 0.070200 -0.063597 -0.059268 -0.134871 -0.160903 0.042021 -0.097186 -0.108156 0.013158 -0.142984 0.223366 0.016154 0.089684 -0.027028 -0.034689 0.040023 0.070763 0.013480 -0.101378 -0.072137 -0.131114 0.092786 0.018157 -0.129215 -0.013114 0.208585 -0.207658 -0.148574 -0.190857 -0.043654 0.054558 -0.097238 0.076114 0.015484 -0.059762 -0.227703 -0.027878 -0.047310 -0.005258 -0.032849 -0.047669 0.079955 -0.008973 -0.158833 0.190565 0.255154 0.091545 0.077154 0.197186 -0.001335 -0.004725 0.102290 -0.137837 0.012076 0.127175 -0.047554 -0.030908 -0.088976 0.079908 0.013327 -0.003294 0.025967 0.265491 -0.065992 0.082531 -0.080667 -0.113920 -0.098048 0.027558 -0.017828 0.168401 -0.146955 0.050858 0.096485 0.113231 0.067766 0.039510 0.086813 -0.070794 -0.136094 -0.103858 -0.103442 0.063274 -0.012088 0.016080
J33 0.154704 0.074076 0.114020 0.126578 0.087363 -0.055887 0.225551 0.132765 -0.028622 -0.167179 -0.206179 -0.046654 -0.130378 -0.061463 -0.038402 -0.179391 0.051088 0.057760 -0.216953 -0.099166 0.086405 -0.167464 -0.063053 0.046723 0.078963 0.189578 0.052061 -0.085520 0.015324 0.125266 -0.199390 0.014731 -0.155818 0.278927 -0.028231 0.080423 0.177222 -0.010533 0.050655 0.008431 0.041540 -0.124999 -0.066149 0.123320 0.017808 0.000581 0.008042 -0.091054 0.071317 0.043281 -0.050951 0.023043 -0.036347 0.309540 -0.004250 0.112532 -0.155093 0.059248 0.126966 0.049719 0.108315 0.005924 -0.086872 -0.188519 0.061727 0.109103 -0.054531 -0.098417 0.145306 -0.041592 -0.115997 -0.221249 -0.093138 0.079774 -0.088446 -0.039608 -0.058910 0.015454 -0.215646 -0.048842 -0.061304 0.012234 0.000512 -0.073832 0.009730 -0.003356 -0.183479 0.260750 0.189328 0.030640 0.010847 0.095262 0.055057 0.059760 0.115434 -0.104587 0.053859 0.201925 0.019614 0.031930 0.060910 0.189238 0.075458 0.081781 0.003231 0.249825 0.007790 -0.173311 -0.179183 -0.142990 -0.178164 0.141454 -0.118082 0.239657 -0.117679 0.158157 0.095488 0.008990 0.076325 0.038390 0.026828 -0.181215 -0.228949 -0.109272 -0.020564 0.024683 -0.056278 0.005991
J3 0.081346 0.157035 0.118408 0.107426 0.046194 -0.058944 0.168644 0.067612 -0.036949 -0.145556 -0.119473 -0.026636 -0.107952 -0.079822 -0.032782 -0.112756 0.024208 0.041565 -0.201164 -0.085324 0.084599 -0.080288 -0.000057 0.069417 0.078043 0.182435 0.039893 -0.117928 -0.008149 0.114561 -0.119626 -0.002809 -0.169468 0.238582 0.028928 0.106851 0.187606 -0.021071 0.032676 0.025972 -0.046725 -0.104393 -0.043929 0.092715 -0.038274 -0.040829 -0.076277 -0.134902 0.057173 -0.043615 -0.087179 0.023673 -0.097806 0.251686 0.005846 0.102648 -0.074479 -0.005499 0.065241 0.065975 0.041634 -0.062499 -0.076065 -0.148147 0.079068 0.052530 -0.103013 -0.045574 0.185930 -0.146963 -0.136819 -0.202371 -0.058064 0.068232 -0.093509 0.030839 -0.018943 -0.030033 -0.222551 -0.037228 -0.054512 0.004321 -0.018694 -0.063574 0.052895 -0.016897 -0.166101 0.211637 0.230764 0.065149 0.052740 0.157969 0.020128 0.019238 0.112066 -0.125004 0.028530 0.160399 -0.029927 -0.006757 -0.030168 0.126880 0.035527 0.026668 0.017812 0.256063 -0.039954 -0.014427 -0.115377 -0.124807 -0.121386 0.068117 -0.057987 0.192400 -0.131014 0.087250 0.090650 0.068195 0.069231 0.039173 0.063432 -0.117972 -0.175137 -0.105432 -0.066857 0.049877 -0.029460 0.011918
J2 0.043366 0.189149 0.118191 0.094199 0.030513 -0.060454 0.148275 0.038429 -0.035539 -0.143322 -0.090846 -0.017703 -0.098212 -0.080909 -0.036721 -0.079408 0.015093 0.034710 -0.198143 -0.079026 0.089147 -0.044169 0.033087 0.082982 0.072555 0.182293 0.036903 -0.136450 -0.015361 0.109471 -0.090618 -0.004813 -0.169234 0.213165 0.049379 0.119183 0.191853 -0.022871 0.024059 0.028725 -0.091536 -0.100185 -0.031782 0.074524 -0.058319 -0.054721 -0.118780 -0.148494 0.046308 -0.079542 -0.098695 0.017742 -0.129448 0.224208 0.012547 0.095259 -0.043898 -0.034328 0.041421 0.070800 0.015776 -0.092793 -0.074060 -0.134871 0.092663 0.033797 -0.127232 -0.023124 0.201644 -0.197595 -0.150704 -0.200962 -0.051886 0.058649 -0.101033 0.069060 0.007253 -0.050601 -0.227536 -0.030098 -0.051790 -0.002283 -0.029745 -0.052967 0.069535 -0.019812 -0.153554 0.192729 0.246386 0.080834 0.066310 0.184469 0.011325 0.008396 0.112307 -0.131237 0.014931 0.140018 -0.048331 -0.024412 -0.064096 0.103458 0.012890 0.004017 0.028238 0.262827 -0.059572 0.055467 -0.090134 -0.119381 -0.104071 0.046355 -0.035976 0.180043 -0.134593 0.056040 0.095782 0.101072 0.069454 0.034995 0.084304 -0.085860 -0.152964 -0.102990 -0.092145 0.063269 -0.021822 0.014186
J32 0.110946 0.120701 0.128675 0.119936 0.072216 -0.056581 0.196064 0.098126 -0.029191 -0.165956 -0.165911 -0.038093 -0.132506 -0.079600 -0.039680 -0.143148 0.034054 0.045761 -0.219232 -0.091669 0.084437 -0.118128 -0.032242 0.056237 0.079518 0.194447 0.047711 -0.103911 0.008430 0.122620 -0.166227 0.004755 -0.165652 0.267623 -0.000675 0.093740 0.191698 -0.018099 0.042679 0.022155 -0.013254 -0.116805 -0.051191 0.106409 -0.012133 -0.017311 -0.040524 -0.112665 0.057639 -0.001499 -0.068302 0.025300 -0.073621 0.288792 0.002689 0.110871 -0.115853 0.030339 0.098518 0.057293 0.078884 -0.031981 -0.086447 -0.169646 0.071908 0.080410 -0.081171 -0.076406 0.170575 -0.098650 -0.123535 -0.210183 -0.073868 0.075421 -0.093093 -0.002937 -0.041554 -0.016976 -0.222250 -0.039141 -0.052523 0.000522 -0.012319 -0.067101 0.033827 -0.001903 -0.172961 0.237933 0.205727 0.046009 0.034349 0.128140 0.035490 0.036725 0.110526 -0.110804 0.040777 0.178692 -0.005557 0.007046 0.013827 0.148576 0.056387 0.049086 0.006925 0.254270 -0.012396 -0.095691 -0.148526 -0.133699 -0.147457 0.100151 -0.080601 0.215364 -0.132271 0.124590 0.097372 0.038680 0.070937 0.043794 0.042856 -0.148967 -0.200118 -0.110893 -0.045098 0.034382 -0.041835 0.007674
J4 0.071545 0.157254 0.121959 0.099359 0.052623 -0.060088 0.174051 0.066284 -0.034669 -0.152251 -0.120555 -0.024375 -0.114560 -0.084982 -0.034048 -0.102394 0.020395 0.043743 -0.203383 -0.082388 0.088555 -0.072914 0.006042 0.077040 0.076328 0.188903 0.040082 -0.127167 -0.008957 0.113275 -0.123070 -0.004248 -0.174950 0.238873 0.026614 0.108944 0.190856 -0.017444 0.034327 0.020466 -0.054835 -0.110796 -0.044729 0.088991 -0.040120 -0.046740 -0.091255 -0.141153 0.059062 -0.049790 -0.090883 0.019402 -0.101067 0.254046 0.009858 0.102598 -0.072715 -0.010189 0.061488 0.069845 0.032915 -0.072254 -0.077460 -0.148002 0.084410 0.055761 -0.107940 -0.047913 0.180726 -0.156897 -0.136021 -0.204508 -0.057278 0.069794 -0.099813 0.040970 -0.009828 -0.035746 -0.226319 -0.032837 -0.048607 -0.000004 -0.023629 -0.059298 0.060509 -0.012609 -0.162874 0.207547 0.232916 0.063064 0.047664 0.165188 0.025506 0.015845 0.112704 -0.119110 0.021490 0.155756 -0.035463 -0.015663 -0.034131 0.126012 0.028509 0.020336 0.021186 0.255987 -0.042803 -0.004049 -0.110076 -0.128864 -0.122642 0.066149 -0.052959 0.197222 -0.130357 0.077638 0.098811 0.077623 0.071804 0.036756 0.063415 -0.116701 -0.168408 -0.108792 -0.071915 0.051024 -0.033103 0.014438
J24 0.140977 0.092028 0.120709 0.123459 0.081499 -0.051202 0.217092 0.122264 -0.025038 -0.164861 -0.193165 -0.045498 -0.134888 -0.071381 -0.038119 -0.173369 0.042693 0.054919 -0.217986 -0.096168 0.085925 -0.152079 -0.052387 0.049802 0.084594 0.191006 0.052019 -0.093495 0.017392 0.127056 -0.184165 0.010323 -0.159328 0.278355 -0.020802 0.085154 0.177401 -0.012134 0.050132 0.015925 0.023139 -0.116358 -0.060417 0.122704 0.005877 -0.007502 -0.008608 -0.097459 0.072486 0.029526 -0.056215 0.028820 -0.049307 0.304179 -0.006380 0.108812 -0.146805 0.053319 0.114067 0.055453 0.100226 -0.003777 -0.085543 -0.177399 0.062188 0.093642 -0.059224 -0.091523 0.153335 -0.055336 -0.117234 -0.222940 -0.083909 0.076253 -0.091538 -0.026554 -0.052453 0.002788 -0.219651 -0.040055 -0.056090 0.008022 -0.008073 -0.072618 0.019721 -0.001230 -0.185071 0.253854 0.193974 0.033024 0.019741 0.103362 0.047380 0.047417 0.112765 -0.110835 0.052999 0.191837 0.007252 0.028182 0.042281 0.171939 0.071235 0.073117 0.004548 0.251836 0.005726 -0.147211 -0.169139 -0.135634 -0.163780 0.128099 -0.102510 0.231410 -0.120534 0.147433 0.091477 0.019442 0.077239 0.045015 0.027756 -0.168959 -0.215580 -0.105077 -0.031539 0.027614 -0.047674 0.007478
J14 0.073415 0.158716 0.113637 0.099427 0.047893 -0.059836 0.164008 0.063897 -0.033024 -0.151954 -0.118676 -0.028881 -0.106828 -0.078633 -0.033387 -0.098290 0.022001 0.042310 -0.197669 -0.085935 0.087341 -0.071603 0.011041 0.071392 0.080537 0.182089 0.042931 -0.117604 -0.012771 0.113273 -0.117150 -0.002152 -0.165760 0.232212 0.028894 0.111467 0.184421 -0.015061 0.027928 0.022478 -0.056491 -0.105169 -0.041202 0.088633 -0.039868 -0.043449 -0.081909 -0.135975 0.048235 -0.047555 -0.089262 0.021407 -0.106278 0.241599 0.006176 0.101135 -0.073321 -0.010111 0.060746 0.069644 0.038525 -0.070734 -0.079579 -0.150438 0.083624 0.047695 -0.114018 -0.046725 0.182750 -0.158734 -0.134892 -0.200311 -0.061637 0.067307 -0.094460 0.038463 -0.013554 -0.036889 -0.216802 -0.038813 -0.056614 -0.002046 -0.021151 -0.056666 0.053902 -0.019361 -0.161729 0.204137 0.229908 0.063507 0.054612 0.160808 0.025443 0.018304 0.112840 -0.123369 0.017635 0.154435 -0.028287 -0.013942 -0.031472 0.117779 0.029924 0.024262 0.018862 0.259345 -0.037916 -0.003281 -0.107918 -0.123322 -0.116043 0.071636 -0.055535 0.188362 -0.132380 0.078051 0.095197 0.073076 0.068701 0.033920 0.071335 -0.114753 -0.167501 -0.108620 -0.072970 0.055852 -0.027135 0.008936
J6 -0.005059 0.249150 0.139327 0.102313 0.001871 -0.074775 0.107051 0.008056 -0.046826 -0.131162 -0.039847 0.005986 -0.090013 -0.087792 -0.023078 -0.056556 0.001988 0.014450 -0.210468 -0.076104 0.086027 0.010984 0.062207 0.080689 0.075200 0.190277 0.007850 -0.162234 -0.024520 0.097343 -0.061385 -0.021536 -0.166968 0.205568 0.088717 0.140430 0.214505 -0.030716 0.014469 0.058299 -0.157536 -0.076198 -0.024841 0.059041 -0.091389 -0.066018 -0.168584 -0.180798 0.025896 -0.134967 -0.120883 0.008866 -0.166589 0.205309 0.014440 0.082605 0.012213 -0.061463 0.019425 0.071199 -0.010084 -0.129552 -0.072901 -0.111076 0.096737 -0.006701 -0.150215 0.017548 0.238072 -0.254635 -0.155459 -0.181893 -0.033994 0.051127 -0.103207 0.096061 0.034614 -0.076259 -0.238197 -0.024062 -0.056766 -0.004220 -0.039702 -0.035412 0.095216 -0.012104 -0.160107 0.182884 0.276677 0.110448 0.100843 0.221968 -0.019132 -0.022714 0.101561 -0.146198 0.004034 0.104336 -0.052753 -0.042717 -0.128700 0.054098 -0.000703 -0.029032 0.024999 0.280084 -0.094782 0.145276 -0.061522 -0.110070 -0.080749 0.002627 0.002565 0.147179 -0.157530 0.019329 0.094962 0.138629 0.063255 0.035308 0.102566 -0.034700 -0.112866 -0.101022 -0.132802 0.072626 0.002576 0.010736
J7 -0.032703 0.270590 0.134913 0.096209 -0.008592 -0.077637 0.092934 -0.018348 -0.050089 -0.127399 -0.010478 0.006814 -0.086066 -0.091171 -0.020844 -0.037761 -0.005711 0.005589 -0.203027 -0.074978 0.078488 0.041760 0.086567 0.090499 0.070107 0.189482 0.004131 -0.171530 -0.037208 0.097735 -0.034132 -0.027735 -0.172786 0.190255 0.104691 0.140905 0.217220 -0.037314 0.014599 0.064292 -0.187181 -0.064014 -0.015686 0.049948 -0.105804 -0.077836 -0.196674 -0.193515 0.015873 -0.160346 -0.126368 0.008664 -0.193000 0.187619 0.017459 0.081881 0.041600 -0.074868 0.000212 0.072299 -0.023697 -0.150578 -0.069911 -0.104030 0.100338 -0.024083 -0.167046 0.033781 0.248387 -0.286132 -0.164091 -0.176442 -0.025510 0.050073 -0.101786 0.116301 0.046505 -0.091119 -0.236479 -0.022771 -0.055980 -0.004810 -0.045339 -0.035795 0.110739 -0.008946 -0.152183 0.171154 0.298720 0.127477 0.110840 0.246788 -0.027085 -0.031737 0.099675 -0.155726 -0.010371 0.094588 -0.072084 -0.054940 -0.160935 0.036947 -0.012466 -0.043257 0.030411 0.289693 -0.108944 0.197730 -0.042002 -0.102047 -0.071463 -0.021804 0.021372 0.138367 -0.168970 0.000187 0.096898 0.158736 0.065886 0.030933 0.116750 -0.012614 -0.101914 -0.099132 -0.149981 0.086467 0.007875 0.009202
J8 0.057787 0.173668 0.116694 0.099091 0.038898 -0.056962 0.152901 0.047588 -0.037814 -0.143538 -0.098575 -0.024705 -0.104900 -0.079415 -0.035604 -0.087840 0.011813 0.031759 -0.193432 -0.075941 0.088432 -0.056969 0.019267 0.072938 0.078587 0.178179 0.032080 -0.129020 -0.013732 0.107805 -0.106042 -0.008634 -0.173889 0.227009 0.040581 0.111724 0.183993 -0.017528 0.030971 0.027084 -0.076454 -0.093960 -0.035374 0.081021 -0.051394 -0.046190 -0.105848 -0.144216 0.050695 -0.063002 -0.096229 0.017871 -0.115943 0.235382 0.012042 0.092365 -0.055822 -0.017347 0.055413 0.069848 0.025118 -0.084581 -0.073877 -0.141261 0.089588 0.038579 -0.124850 -0.032268 0.190579 -0.177655 -0.144308 -0.199328 -0.053751 0.062781 -0.098800 0.054514 -0.002861 -0.042643 -0.224746 -0.033073 -0.053692 0.003226 -0.022708 -0.058089 0.067866 -0.015387 -0.160636 0.199706 0.238078 0.072235 0.056596 0.177376 0.012560 0.013251 0.110055 -0.131960 0.014048 0.148279 -0.041342 -0.021458 -0.053640 0.106625 0.026136 0.017596 0.022090 0.262740 -0.048623 0.032902 -0.097412 -0.123251 -0.108641 0.054088 -0.036712 0.184852 -0.134106 0.068170 0.097772 0.088872 0.069414 0.038018 0.077993 -0.100908 -0.155674 -0.107250 -0.080526 0.061555 -0.023057 0.011894
J28 0.124873 0.106695 0.117002 0.115166 0.071948 -0.051977 0.192787 0.101940 -0.026971 -0.159008 -0.173933 -0.034684 -0.122986 -0.067334 -0.029591 -0.155650 0.034017 0.044166 -0.204905 -0.087227 0.080338 -0.133840 -0.041356 0.049107 0.078998 0.182735 0.046353 -0.091330 0.011672 0.116277 -0.166472 0.004171 -0.158408 0.259639 -0.013014 0.082265 0.172787 -0.010664 0.041098 0.021201 0.002786 -0.109947 -0.056094 0.105518 0.002126 -0.011443 -0.019737 -0.104452 0.062419 0.013327 -0.055723 0.022372 -0.053829 0.281596 -0.004900 0.109671 -0.125027 0.042905 0.101230 0.053790 0.088504 -0.018186 -0.082607 -0.166066 0.061259 0.082749 -0.070010 -0.081633 0.160937 -0.073347 -0.118606 -0.208737 -0.073021 0.069224 -0.083502 -0.017800 -0.039388 -0.004994 -0.209858 -0.034434 -0.053008 0.003431 -0.010064 -0.064624 0.024278 0.000630 -0.174237 0.236068 0.186849 0.039024 0.022302 0.114607 0.036186 0.045556 0.106754 -0.109202 0.043290 0.177000 -0.003175 0.016958 0.027733 0.154104 0.061798 0.062876 0.003392 0.243419 -0.003969 -0.113701 -0.149039 -0.126426 -0.155588 0.110833 -0.086602 0.218828 -0.124543 0.135449 0.089238 0.022573 0.068509 0.039002 0.031731 -0.153267 -0.200627 -0.104163 -0.035001 0.033531 -0.042030 0.006825
J9 0.097406 0.124304 0.118772 0.108907 0.064958 -0.062469 0.191706 0.087838 -0.034739 -0.156688 -0.152944 -0.035976 -0.121272 -0.072866 -0.033215 -0.125029 0.032860 0.045970 -0.208195 -0.086067 0.082526 -0.106953 -0.018045 0.061262 0.079074 0.186348 0.048260 -0.104404 0.000130 0.114388 -0.148898 0.005646 -0.167071 0.244206 0.004846 0.099920 0.179797 -0.011970 0.036942 0.019295 -0.024997 -0.109880 -0.050136 0.097705 -0.018156 -0.025949 -0.050447 -0.117957 0.057976 -0.016046 -0.071183 0.022232 -0.077710 0.269077 0.008494 0.102982 -0.104111 0.019072 0.087671 0.061008 0.063376 -0.040277 -0.079974 -0.160788 0.077702 0.075590 -0.094421 -0.067619 0.171928 -0.114088 -0.131303 -0.214255 -0.066615 0.071755 -0.093759 0.012197 -0.029055 -0.019896 -0.220092 -0.038461 -0.058420 0.006565 -0.016287 -0.062118 0.041472 -0.010031 -0.165568 0.226118 0.211529 0.050268 0.035921 0.132798 0.036883 0.033796 0.113285 -0.111704 0.032820 0.168031 -0.011614 0.003860 0.002231 0.144207 0.046210 0.043723 0.015959 0.248904 -0.025163 -0.067166 -0.130907 -0.133274 -0.141938 0.097600 -0.079474 0.207594 -0.122074 0.103998 0.093642 0.047195 0.071567 0.039608 0.050944 -0.138689 -0.191115 -0.104812 -0.050973 0.038325 -0.040660 0.011983
J30 0.152764 0.072851 0.119032 0.133150 0.092456 -0.052014 0.231052 0.130915 -0.030988 -0.174667 -0.207898 -0.053557 -0.142073 -0.068958 -0.041541 -0.184778 0.053756 0.054393 -0.224072 -0.101963 0.090013 -0.171945 -0.061868 0.046023 0.084110 0.188826 0.051540 -0.086871 0.021427 0.132728 -0.201512 0.017006 -0.157746 0.284558 -0.029889 0.079895 0.175976 -0.010643 0.049417 0.010845 0.042653 -0.124631 -0.070526 0.126452 0.017292 -0.001784 0.012245 -0.086966 0.074851 0.043092 -0.046103 0.029283 -0.034716 0.314083 -0.005119 0.111768 -0.160766 0.061453 0.129280 0.049688 0.105433 0.010949 -0.085311 -0.190897 0.058553 0.111075 -0.054009 -0.103648 0.149773 -0.036021 -0.118124 -0.218341 -0.088909 0.075538 -0.088386 -0.039243 -0.057852 0.020497 -0.216562 -0.042651 -0.062647 0.011385 0.003459 -0.076567 0.009239 -0.003503 -0.189154 0.260652 0.178951 0.028284 0.015969 0.093554 0.059055 0.058917 0.119155 -0.105988 0.055530 0.196065 0.019492 0.032439 0.060651 0.190159 0.080279 0.084790 -0.002726 0.249289 0.010507 -0.184302 -0.181474 -0.138128 -0.175568 0.139434 -0.115923 0.242349 -0.116488 0.160394 0.088906 0.000500 0.077449 0.041664 0.019050 -0.177284 -0.231652 -0.108177 -0.017958 0.022481 -0.054672 0.005867
J29 0.102821 0.123712 0.120149 0.115599 0.061933 -0.060125 0.191332 0.095578 -0.029615 -0.153658 -0.150415 -0.038123 -0.123462 -0.070546 -0.037095 -0.132400 0.032593 0.043743 -0.211647 -0.090948 0.081584 -0.110798 -0.018781 0.060934 0.078677 0.183364 0.041043 -0.105639 0.005375 0.117823 -0.151622 0.006177 -0.161141 0.246497 0.005861 0.095379 0.180523 -0.018187 0.038288 0.019189 -0.018094 -0.104438 -0.047656 0.101620 -0.019756 -0.019117 -0.048772 -0.108502 0.056064 -0.008945 -0.069257 0.017892 -0.071902 0.265595 -0.000864 0.099223 -0.106868 0.016463 0.084806 0.060365 0.066752 -0.031322 -0.078661 -0.160036 0.069618 0.067928 -0.080271 -0.069516 0.161995 -0.104231 -0.119872 -0.202942 -0.069748 0.066049 -0.089749 0.007752 -0.035072 -0.017771 -0.209178 -0.037379 -0.052154 0.003756 -0.009650 -0.060743 0.036272 -0.013298 -0.162058 0.222534 0.200828 0.045657 0.034424 0.123041 0.035884 0.030260 0.110712 -0.110489 0.031846 0.166780 -0.006651 0.006941 0.010451 0.140344 0.050852 0.048326 0.010112 0.241392 -0.015183 -0.076341 -0.132113 -0.125853 -0.134775 0.096532 -0.079622 0.200540 -0.119982 0.104650 0.093189 0.044651 0.071489 0.038413 0.050799 -0.133853 -0.184577 -0.102759 -0.047550 0.034850 -0.033451 0.013451
J5 -0.040084 0.277529 0.136746 0.088803 -0.014147 -0.070254 0.082227 -0.022813 -0.045952 -0.122575 -0.005321 0.014627 -0.078916 -0.095030 -0.023853 -0.030192 -0.006433 0.010117 -0.199737 -0.064918 0.082356 0.046461 0.089111 0.085361 0.071980 0.183607 0.003156 -0.169439 -0.041058 0.087075 -0.023014 -0.028561 -0.172649 0.188552 0.108642 0.146441 0.213821 -0.035944 0.007420 0.059357 -0.192679 -0.063363 -0.020001 0.047457 -0.101181 -0.083249 -0.195213 -0.195886 0.017991 -0.169281 -0.129557 0.008387 -0.196821 0.178603 0.018621 0.073123 0.046967 -0.080422 -0.004195 0.073385 -0.032728 -0.156512 -0.074181 -0.107048 0.106942 -0.023865 -0.172859 0.038031 0.255930 -0.296856 -0.170127 -0.182463 -0.028581 0.045743 -0.098589 0.128411 0.054233 -0.090211 -0.242503 -0.028267 -0.056334 -0.008234 -0.046493 -0.034078 0.109756 -0.009316 -0.149249 0.166690 0.298912 0.128276 0.109696 0.247789 -0.028528 -0.032981 0.093315 -0.152224 -0.012319 0.092310 -0.069463 -0.057611 -0.163928 0.031283 -0.011579 -0.043267 0.032360 0.282556 -0.113887 0.212924 -0.033981 -0.101274 -0.059747 -0.020712 0.027643 0.133371 -0.160728 -0.006903 0.093526 0.160048 0.061872 0.031085 0.122236 -0.012380 -0.089529 -0.094953 -0.151275 0.086976 0.006721 0.008299
J26 0.106319 0.128459 0.127290 0.114108 0.062169 -0.052301 0.189814 0.089868 -0.032314 -0.164425 -0.163046 -0.029252 -0.127647 -0.079339 -0.028616 -0.148044 0.037536 0.041584 -0.206339 -0.088639 0.084398 -0.116698 -0.029667 0.058666 0.082347 0.188900 0.043906 -0.100595 0.007857 0.115099 -0.157439 -0.001900 -0.167825 0.263072 0.000757 0.091110 0.185489 -0.011566 0.037556 0.027203 -0.018631 -0.110164 -0.052523 0.104514 -0.009021 -0.027113 -0.038476 -0.121975 0.062465 -0.001878 -0.066493 0.017447 -0.065734 0.286027 -0.003485 0.109646 -0.107530 0.030959 0.089190 0.056268 0.077452 -0.033074 -0.085663 -0.166613 0.073778 0.076084 -0.079919 -0.076525 0.181046 -0.098795 -0.132588 -0.219759 -0.071840 0.070188 -0.087913 -0.002695 -0.037415 -0.014409 -0.222654 -0.038085 -0.048480 0.005430 -0.016210 -0.067849 0.034166 -0.002057 -0.181539 0.240348 0.204097 0.045428 0.035037 0.139568 0.029345 0.039337 0.107514 -0.120979 0.038813 0.171852 -0.008539 0.010020 0.008290 0.147443 0.057500 0.052606 0.003121 0.251708 -0.014223 -0.085749 -0.137352 -0.133672 -0.148228 0.099902 -0.073973 0.214749 -0.134953 0.126823 0.098134 0.038979 0.078194 0.038218 0.041709 -0.141597 -0.195203 -0.104051 -0.044780 0.038259 -0.040816 0.004894
J25 0.121149 0.118545 0.129700 0.118686 0.071850 -0.051714 0.196147 0.102339 -0.028776 -0.164035 -0.170617 -0.036829 -0.132628 -0.074648 -0.035094 -0.160637 0.039736 0.047976 -0.212264 -0.092017 0.088701 -0.123724 -0.037741 0.056525 0.076347 0.196359 0.041522 -0.100229 0.013900 0.126375 -0.172695 0.007697 -0.163998 0.271553 -0.004224 0.090999 0.184229 -0.009724 0.045461 0.026157 -0.009633 -0.116011 -0.061347 0.113266 -0.002103 -0.017403 -0.036484 -0.117282 0.065768 0.006487 -0.068499 0.020339 -0.062045 0.298078 -0.003791 0.106185 -0.120448 0.031027 0.097008 0.062636 0.080435 -0.019978 -0.084666 -0.174455 0.071971 0.083999 -0.072273 -0.083589 0.175496 -0.085008 -0.125425 -0.217938 -0.072144 0.076477 -0.086338 -0.012762 -0.041053 -0.005778 -0.218155 -0.041182 -0.049000 0.006090 -0.011214 -0.071513 0.033618 0.003078 -0.183452 0.241778 0.201842 0.040437 0.029923 0.128855 0.031993 0.041184 0.111782 -0.116258 0.043183 0.179834 -0.004880 0.018145 0.021144 0.157465 0.066334 0.056264 0.003939 0.252433 -0.004803 -0.109169 -0.152509 -0.130250 -0.156927 0.110483 -0.086843 0.221368 -0.130222 0.131303 0.100226 0.035366 0.079858 0.045962 0.036179 -0.157721 -0.204275 -0.106980 -0.039235 0.033796 -0.038091 0.004703
J31 0.081885 0.132388 0.112877 0.100799 0.057119 -0.058469 0.172785 0.078134 -0.031106 -0.149590 -0.130754 -0.026325 -0.111487 -0.074961 -0.035726 -0.112687 0.027712 0.038287 -0.198892 -0.080915 0.079199 -0.090180 -0.005353 0.066581 0.076007 0.177163 0.036995 -0.106259 0.001980 0.109843 -0.135303 0.005691 -0.160124 0.232803 0.011950 0.098216 0.176879 -0.012453 0.038363 0.019695 -0.032871 -0.103561 -0.042633 0.088636 -0.024898 -0.026526 -0.060904 -0.113629 0.051008 -0.026919 -0.077380 0.022891 -0.083705 0.250576 0.004620 0.097614 -0.086737 0.007819 0.077817 0.059984 0.051634 -0.043566 -0.073183 -0.150078 0.074772 0.058681 -0.093779 -0.051342 0.165596 -0.122243 -0.125033 -0.200120 -0.066821 0.065294 -0.088165 0.020228 -0.021944 -0.021318 -0.212940 -0.035603 -0.054472 0.001164 -0.014765 -0.060463 0.040577 -0.011336 -0.156027 0.210073 0.208743 0.058968 0.037566 0.133793 0.026476 0.021752 0.109509 -0.109896 0.026391 0.155293 -0.020590 -0.001756 -0.012928 0.125866 0.042669 0.036996 0.011033 0.242744 -0.030362 -0.045720 -0.122907 -0.122348 -0.125765 0.078679 -0.068013 0.195551 -0.123499 0.091590 0.087207 0.058259 0.063750 0.032928 0.049990 -0.116977 -0.174620 -0.102329 -0.061288 0.045421 -0.029975 0.006766
J11 -0.016314 0.255776 0.131106 0.094690 0.000196 -0.071422 0.099052 -0.000214 -0.047816 -0.138448 -0.030183 0.004163 -0.090338 -0.095100 -0.024834 -0.045809 -0.000326 0.014494 -0.206329 -0.074501 0.084121 0.021242 0.070472 0.086800 0.074566 0.185643 0.012934 -0.162480 -0.028860 0.096980 -0.047576 -0.025283 -0.172852 0.206893 0.094842 0.140273 0.217742 -0.035898 0.011164 0.054769 -0.168423 -0.074140 -0.024255 0.056488 -0.095506 -0.071857 -0.178841 -0.187284 0.025278 -0.147029 -0.127429 0.012559 -0.179143 0.203687 0.013248 0.083081 0.018243 -0.069164 0.007838 0.073780 -0.017005 -0.139260 -0.077640 -0.115034 0.105422 -0.004518 -0.165710 0.016882 0.244286 -0.272771 -0.163702 -0.187681 -0.036635 0.054448 -0.101651 0.106612 0.034054 -0.079685 -0.240613 -0.024911 -0.053687 -0.009318 -0.045402 -0.039865 0.101313 -0.010529 -0.160189 0.180653 0.288833 0.115802 0.101990 0.237362 -0.020782 -0.022067 0.106154 -0.157425 -0.004129 0.104169 -0.063082 -0.048937 -0.141684 0.050830 -0.002305 -0.033014 0.029745 0.287833 -0.097952 0.167480 -0.054202 -0.109080 -0.076606 -0.005744 0.012738 0.149578 -0.163184 0.016568 0.093326 0.146836 0.066677 0.031871 0.112573 -0.033103 -0.113955 -0.104033 -0.135540 0.084739 -0.000155 0.012575
J20 0.067730 0.156729 0.114658 0.103627 0.042136 -0.056664 0.162642 0.059296 -0.033508 -0.150974 -0.117692 -0.025181 -0.108259 -0.080251 -0.030709 -0.099375 0.019334 0.034529 -0.195761 -0.085037 0.084214 -0.074530 0.012749 0.069150 0.076159 0.181441 0.035210 -0.117623 -0.005905 0.108229 -0.116001 -0.001086 -0.164134 0.224860 0.028334 0.105623 0.182933 -0.019277 0.033527 0.030002 -0.056237 -0.100122 -0.040379 0.081319 -0.040647 -0.039267 -0.085052 -0.132820 0.052711 -0.051307 -0.082277 0.018912 -0.105513 0.241262 0.011971 0.100336 -0.066095 -0.009854 0.059565 0.065405 0.035061 -0.069657 -0.076929 -0.144940 0.081581 0.046873 -0.106869 -0.043998 0.185310 -0.149814 -0.132539 -0.195214 -0.058871 0.062751 -0.093680 0.037065 -0.013903 -0.035790 -0.216707 -0.035422 -0.049531 0.002979 -0.022286 -0.058460 0.057623 -0.014945 -0.155890 0.201520 0.227354 0.068120 0.048079 0.159718 0.022085 0.014000 0.105193 -0.121392 0.017613 0.148491 -0.027091 -0.009757 -0.032751 0.118000 0.029597 0.020369 0.018501 0.253775 -0.043037 -0.005534 -0.108919 -0.116637 -0.117210 0.068112 -0.048721 0.189167 -0.130617 0.078473 0.093094 0.076722 0.067635 0.034426 0.063171 -0.105732 -0.165603 -0.105611 -0.075700 0.055171 -0.027522 0.011210
J17 -0.015290 0.252524 0.129120 0.096994 -0.002149 -0.072461 0.095034 -0.005405 -0.049831 -0.130618 -0.026374 0.004251 -0.088841 -0.087167 -0.027347 -0.042150 -0.003391 0.009717 -0.201532 -0.071417 0.079289 0.022903 0.072097 0.082411 0.076524 0.181799 0.004604 -0.160929 -0.034249 0.097492 -0.049972 -0.024436 -0.163861 0.196172 0.097138 0.140883 0.214912 -0.036474 0.015652 0.060753 -0.167893 -0.067189 -0.024381 0.056277 -0.090523 -0.068504 -0.176446 -0.184581 0.023217 -0.145866 -0.118102 0.012116 -0.178713 0.195348 0.017629 0.076003 0.024600 -0.066004 0.014851 0.075445 -0.015856 -0.140308 -0.071931 -0.108806 0.099771 -0.013880 -0.158213 0.024953 0.239717 -0.264738 -0.154995 -0.181542 -0.036815 0.047788 -0.100420 0.109655 0.035034 -0.076965 -0.236012 -0.028300 -0.055487 -0.002330 -0.037882 -0.031951 0.097429 -0.014007 -0.149432 0.175280 0.283910 0.118837 0.104808 0.231404 -0.019252 -0.023394 0.094920 -0.152570 -0.006552 0.101889 -0.057732 -0.041679 -0.138150 0.047304 -0.001637 -0.032703 0.027646 0.279509 -0.101061 0.165542 -0.049938 -0.105269 -0.079222 -0.004257 0.010683 0.143822 -0.157870 0.011376 0.091151 0.148541 0.059957 0.028794 0.104788 -0.024156 -0.105675 -0.095719 -0.134123 0.077873 0.002685 0.009146
J15 0.134214 0.110058 0.125313 0.125020 0.077436 -0.059556 0.222048 0.120924 -0.032016 -0.174763 -0.188481 -0.042125 -0.138398 -0.070601 -0.035989 -0.165041 0.043392 0.048410 -0.226489 -0.097649 0.090218 -0.149054 -0.048341 0.057949 0.084648 0.199724 0.050166 -0.095485 0.012293 0.130289 -0.185983 0.008351 -0.163922 0.280306 -0.010051 0.092066 0.187767 -0.012235 0.045779 0.019858 0.015312 -0.123056 -0.062761 0.122258 0.002471 -0.012942 -0.016100 -0.105444 0.068787 0.017097 -0.059401 0.022098 -0.051543 0.303792 -0.004399 0.112516 -0.140805 0.042078 0.113819 0.053443 0.095220 -0.017608 -0.085042 -0.185103 0.063825 0.095678 -0.068529 -0.088618 0.170357 -0.071074 -0.127812 -0.222964 -0.081611 0.078099 -0.092675 -0.017160 -0.050084 0.003295 -0.223793 -0.043533 -0.062472 0.006064 -0.007348 -0.070851 0.022908 -0.006282 -0.190352 0.255972 0.200532 0.041342 0.025437 0.119574 0.047697 0.044243 0.120313 -0.118347 0.046966 0.191158 0.008615 0.025006 0.034835 0.175220 0.070071 0.070177 0.003413 0.262850 -0.000731 -0.138740 -0.161737 -0.139557 -0.166636 0.124462 -0.105534 0.237102 -0.128803 0.139498 0.095398 0.027100 0.074381 0.038680 0.037940 -0.162417 -0.215210 -0.114087 -0.034338 0.032397 -0.043683 0.010527
J23 0.105892 0.119137 0.118850 0.119301 0.065463 -0.059871 0.194925 0.094940 -0.032739 -0.155271 -0.155049 -0.032120 -0.118574 -0.073429 -0.032805 -0.139217 0.030618 0.045655 -0.214072 -0.090155 0.082586 -0.115970 -0.026498 0.062330 0.079023 0.182774 0.043763 -0.100488 0.008118 0.118030 -0.153435 0.002722 -0.160380 0.248472 0.001724 0.094007 0.180883 -0.012185 0.038473 0.018182 -0.013881 -0.111412 -0.052325 0.106196 -0.012865 -0.021284 -0.040365 -0.107896 0.062310 -0.007986 -0.070167 0.024567 -0.075094 0.270232 0.002291 0.106450 -0.110387 0.025353 0.096463 0.057305 0.072475 -0.030192 -0.077827 -0.164435 0.072781 0.075917 -0.081240 -0.070158 0.165011 -0.105752 -0.125765 -0.211073 -0.070956 0.069557 -0.094756 0.002520 -0.032075 -0.015797 -0.214506 -0.041633 -0.057949 0.006511 -0.012940 -0.066362 0.032805 -0.013148 -0.172688 0.233017 0.209893 0.052400 0.032443 0.125614 0.035106 0.031537 0.112377 -0.113446 0.039131 0.175187 -0.007581 0.013412 0.006624 0.145330 0.055955 0.052477 0.007395 0.254407 -0.015528 -0.081952 -0.143545 -0.130485 -0.143204 0.100193 -0.084959 0.209630 -0.127198 0.113306 0.091969 0.040390 0.070042 0.040194 0.045485 -0.135131 -0.197912 -0.107777 -0.049746 0.036259 -0.034970 0.009601
J13 0.053366 0.190859 0.126475 0.105772 0.035190 -0.064645 0.149920 0.051069 -0.035638 -0.150075 -0.101908 -0.015465 -0.111348 -0.082449 -0.031000 -0.094914 0.018415 0.034600 -0.210031 -0.084259 0.090991 -0.055564 0.023484 0.078386 0.078342 0.187256 0.033925 -0.138553 -0.014199 0.113433 -0.107031 -0.009042 -0.175350 0.235399 0.048469 0.116738 0.199166 -0.019143 0.030098 0.032813 -0.090209 -0.099028 -0.041374 0.084129 -0.051787 -0.049420 -0.112134 -0.156164 0.046703 -0.074223 -0.096663 0.013425 -0.123256 0.239661 0.007913 0.094895 -0.049857 -0.022253 0.055188 0.070399 0.022933 -0.083886 -0.082764 -0.144061 0.090232 0.040452 -0.127868 -0.027728 0.206302 -0.191493 -0.147473 -0.205982 -0.052425 0.060743 -0.100674 0.057233 0.001549 -0.046418 -0.234807 -0.034855 -0.051291 0.002859 -0.023402 -0.052873 0.068028 -0.016760 -0.165989 0.202928 0.249325 0.084449 0.066255 0.187655 0.007775 0.010445 0.112509 -0.137018 0.012677 0.146289 -0.042188 -0.024197 -0.059432 0.103864 0.023885 0.010546 0.020151 0.271460 -0.058502 0.039969 -0.096397 -0.120608 -0.113095 0.053477 -0.033162 0.186674 -0.143092 0.064579 0.098210 0.093958 0.074678 0.042050 0.080401 -0.093170 -0.159219 -0.107159 -0.092767 0.062382 -0.023717 0.007973
J10 0.074918 0.150717 0.123437 0.107969 0.044606 -0.061660 0.161271 0.068504 -0.031766 -0.146884 -0.115642 -0.026216 -0.110076 -0.073808 -0.030597 -0.111555 0.026207 0.041034 -0.203676 -0.083816 0.082746 -0.076160 0.000623 0.065223 0.073561 0.180452 0.032493 -0.117037 -0.004589 0.106327 -0.121932 -0.003052 -0.156533 0.232501 0.029069 0.104524 0.184255 -0.021840 0.032791 0.023837 -0.049013 -0.096357 -0.044004 0.090154 -0.036918 -0.036538 -0.077268 -0.124095 0.049383 -0.043223 -0.083037 0.018590 -0.096321 0.243868 0.007019 0.092861 -0.070849 -0.005117 0.065493 0.058770 0.047615 -0.059216 -0.076203 -0.141887 0.076018 0.048367 -0.100119 -0.048242 0.179988 -0.140092 -0.128215 -0.198351 -0.058722 0.063142 -0.086335 0.034586 -0.019071 -0.033088 -0.212912 -0.029253 -0.053850 0.001408 -0.019230 -0.054970 0.051409 -0.011118 -0.160432 0.208255 0.217334 0.061383 0.048651 0.145619 0.020905 0.014562 0.105740 -0.113584 0.027361 0.147661 -0.023117 -0.007273 -0.026767 0.112992 0.039273 0.028057 0.018053 0.240730 -0.032738 -0.020307 -0.114407 -0.118723 -0.117312 0.069847 -0.057820 0.182442 -0.129686 0.081494 0.090781 0.070846 0.066318 0.040607 0.061314 -0.111205 -0.159922 -0.103000 -0.064123 0.044109 -0.028748 0.009082
J19 0.123559 0.101347 0.111515 0.121129 0.072405 -0.057596 0.197146 0.106443 -0.027941 -0.157311 -0.167710 -0.035854 -0.125220 -0.063152 -0.034996 -0.152046 0.039507 0.044843 -0.211078 -0.095244 0.080720 -0.130740 -0.032968 0.054246 0.074444 0.181559 0.044099 -0.091429 0.014374 0.118805 -0.171361 0.011031 -0.156524 0.259068 -0.007799 0.091292 0.178100 -0.014261 0.041449 0.013359 0.003627 -0.109547 -0.057447 0.109927 -0.004388 -0.016225 -0.021940 -0.097950 0.062911 0.011820 -0.058410 0.025265 -0.058742 0.280801 -0.001491 0.102803 -0.126874 0.033709 0.099843 0.056739 0.080843 -0.017156 -0.084300 -0.169587 0.068205 0.081947 -0.069237 -0.077037 0.162631 -0.079822 -0.125144 -0.212780 -0.077025 0.069988 -0.092104 -0.013960 -0.046558 -0.003643 -0.210694 -0.037244 -0.058417 0.006557 -0.006139 -0.063439 0.022148 -0.006424 -0.176064 0.239235 0.195997 0.046277 0.030052 0.114980 0.040418 0.043841 0.114451 -0.112701 0.044810 0.179395 0.006039 0.019808 0.030822 0.159679 0.060105 0.063014 0.001547 0.247335 -0.006187 -0.118052 -0.153996 -0.129906 -0.156621 0.112814 -0.093920 0.218972 -0.123450 0.123546 0.092899 0.031381 0.068939 0.035087 0.033661 -0.149744 -0.204077 -0.104274 -0.035558 0.032585 -0.040574 0.007665
J21 0.102681 0.134933 0.123638 0.122765 0.066148 -0.063269 0.193416 0.091921 -0.031338 -0.160089 -0.157159 -0.036271 -0.127421 -0.073642 -0.039923 -0.141126 0.034357 0.040279 -0.219850 -0.088153 0.086342 -0.113256 -0.021243 0.064117 0.077551 0.192403 0.041553 -0.104742 0.002927 0.123948 -0.159376 0.006084 -0.164225 0.254188 0.004229 0.100435 0.189057 -0.020184 0.043945 0.019237 -0.020596 -0.110360 -0.052245 0.104242 -0.017694 -0.027434 -0.049888 -0.116928 0.056884 -0.016026 -0.071766 0.023582 -0.078493 0.278135 0.003247 0.105882 -0.110013 0.024387 0.091361 0.058736 0.074306 -0.034506 -0.080215 -0.166829 0.070460 0.075538 -0.086362 -0.066810 0.171885 -0.108256 -0.133600 -0.210425 -0.075475 0.070477 -0.097441 0.006801 -0.032624 -0.018938 -0.219604 -0.035228 -0.060216 0.007326 -0.014469 -0.066552 0.041111 -0.003061 -0.178031 0.237228 0.216055 0.059050 0.035478 0.136362 0.034443 0.028811 0.113840 -0.115372 0.039838 0.175719 -0.009786 0.006994 0.004234 0.142016 0.053040 0.044640 0.007272 0.258539 -0.022012 -0.074822 -0.142433 -0.129620 -0.146810 0.099632 -0.079981 0.213967 -0.130522 0.112142 0.096524 0.050467 0.069493 0.040183 0.048382 -0.138370 -0.198954 -0.110842 -0.057641 0.042624 -0.038651 0.006920
J27 0.136238 0.089379 0.109150 0.124054 0.078861 -0.049892 0.212325 0.115409 -0.024215 -0.158988 -0.190834 -0.040554 -0.130126 -0.062764 -0.039419 -0.168594 0.046700 0.050601 -0.218859 -0.093357 0.079410 -0.150573 -0.052926 0.046731 0.078722 0.184975 0.049462 -0.082384 0.019729 0.122035 -0.182200 0.010304 -0.149342 0.262333 -0.022949 0.083192 0.177174 -0.013923 0.041748 0.016535 0.019865 -0.114238 -0.062648 0.117008 0.003454 -0.004349 -0.003459 -0.089490 0.062344 0.026987 -0.053654 0.024670 -0.043083 0.291353 -0.001341 0.104669 -0.142427 0.051360 0.110899 0.044518 0.096229 -0.002799 -0.084074 -0.168340 0.057371 0.092079 -0.055674 -0.090857 0.152171 -0.056136 -0.117488 -0.213122 -0.085211 0.075532 -0.091520 -0.027699 -0.052841 0.010409 -0.207505 -0.041935 -0.058341 0.013577 0.001137 -0.065794 0.018798 -0.009976 -0.179856 0.241652 0.184243 0.036622 0.017428 0.095713 0.048179 0.051808 0.116088 -0.109160 0.048144 0.178022 0.013295 0.025336 0.044634 0.173095 0.066501 0.071639 0.004579 0.242168 0.006179 -0.145346 -0.163231 -0.133555 -0.165098 0.127108 -0.103982 0.224756 -0.114178 0.143068 0.085392 0.010895 0.066988 0.037286 0.029315 -0.156071 -0.206944 -0.101232 -0.029743 0.021470 -0.042492 0.010220
J18 0.082252 0.153764 0.123304 0.113740 0.056550 -0.061775 0.180379 0.082047 -0.029281 -0.154190 -0.136360 -0.024738 -0.116638 -0.079802 -0.038790 -0.113916 0.022643 0.040862 -0.210740 -0.086633 0.089148 -0.087552 0.000035 0.068268 0.080144 0.189649 0.039630 -0.118976 0.001542 0.115461 -0.138813 0.002887 -0.168167 0.240720 0.020534 0.109311 0.188475 -0.020242 0.033717 0.025070 -0.042821 -0.106318 -0.048303 0.091739 -0.031733 -0.032363 -0.076968 -0.132046 0.054866 -0.038717 -0.086582 0.021057 -0.094438 0.256733 0.006206 0.103455 -0.083135 0.000214 0.075736 0.066034 0.047979 -0.058397 -0.079684 -0.155194 0.078260 0.055135 -0.101648 -0.055504 0.176900 -0.138205 -0.134586 -0.209266 -0.064224 0.069982 -0.091618 0.026031 -0.019033 -0.029790 -0.223467 -0.033982 -0.051359 -0.000757 -0.016404 -0.062022 0.052344 -0.014250 -0.165194 0.215393 0.222150 0.061209 0.045106 0.146638 0.027996 0.022266 0.109123 -0.117302 0.024711 0.162194 -0.017137 -0.006062 -0.016051 0.132506 0.041838 0.030711 0.018902 0.257416 -0.036802 -0.035398 -0.123009 -0.128954 -0.127738 0.081214 -0.059792 0.195668 -0.133517 0.091585 0.094185 0.070168 0.072317 0.037125 0.062169 -0.121534 -0.178258 -0.106109 -0.065633 0.046896 -0.028078 0.013819
J16 0.144295 0.078981 0.114565 0.128659 0.087571 -0.053245 0.222450 0.121227 -0.029124 -0.166546 -0.197333 -0.049414 -0.131626 -0.066206 -0.039920 -0.174826 0.046000 0.050164 -0.224834 -0.098223 0.086484 -0.159881 -0.052978 0.051263 0.075802 0.187382 0.049480 -0.084557 0.014377 0.125544 -0.193658 0.015561 -0.152887 0.271113 -0.022625 0.080881 0.177425 -0.010179 0.048912 0.009304 0.028840 -0.120152 -0.060598 0.119876 0.010168 -0.001324 0.003807 -0.090149 0.068286 0.030361 -0.053893 0.021389 -0.036135 0.295565 -0.002711 0.110800 -0.151276 0.050757 0.120078 0.047021 0.099055 0.005407 -0.081475 -0.179064 0.060610 0.101334 -0.052775 -0.095599 0.150228 -0.046883 -0.117446 -0.215440 -0.087928 0.072702 -0.091925 -0.034783 -0.055633 0.013369 -0.212531 -0.045481 -0.061773 0.009938 -0.000779 -0.065099 0.014314 -0.004544 -0.178217 0.246607 0.182325 0.035927 0.019018 0.096573 0.048697 0.048125 0.114748 -0.105140 0.054508 0.191962 0.016741 0.033412 0.052577 0.176944 0.070247 0.072089 -0.000474 0.245895 0.007300 -0.165214 -0.164523 -0.131895 -0.171279 0.131039 -0.107475 0.226621 -0.119428 0.149194 0.089315 0.008510 0.072736 0.039180 0.021696 -0.164246 -0.218541 -0.101201 -0.025553 0.023542 -0.048181 0.008056
J22 0.055758 0.165353 0.107460 0.090585 0.038001 -0.054618 0.147965 0.053380 -0.036452 -0.140420 -0.099495 -0.020507 -0.098918 -0.076637 -0.033422 -0.084957 0.013187 0.036656 -0.187852 -0.077205 0.080876 -0.057194 0.019854 0.070404 0.076570 0.168586 0.037717 -0.118563 -0.012376 0.103136 -0.099913 -0.004673 -0.163691 0.216719 0.033508 0.105831 0.179838 -0.016059 0.025777 0.026786 -0.067639 -0.090461 -0.036790 0.079308 -0.044888 -0.045682 -0.095913 -0.138080 0.046576 -0.061435 -0.091475 0.019036 -0.109534 0.223672 0.013006 0.092703 -0.057935 -0.018342 0.052749 0.061147 0.023123 -0.078321 -0.069012 -0.136731 0.083284 0.040257 -0.111684 -0.030121 0.181443 -0.163286 -0.137457 -0.194483 -0.050873 0.059293 -0.092871 0.049809 -0.006278 -0.040477 -0.206957 -0.035177 -0.051709 -0.000758 -0.026785 -0.055532 0.058440 -0.014024 -0.154015 0.188881 0.225563 0.071434 0.056772 0.165200 0.010447 0.013183 0.105191 -0.123315 0.016109 0.137954 -0.034160 -0.018920 -0.044777 0.105589 0.022381 0.014844 0.021664 0.243757 -0.043636 0.021458 -0.096910 -0.116731 -0.108230 0.055465 -0.042856 0.175158 -0.130862 0.063533 0.086266 0.083034 0.067306 0.035970 0.070026 -0.096404 -0.152603 -0.100855 -0.080388 0.053786 -0.025964 0.012246
J12 0.037541 0.197342 0.123969 0.098073 0.026993 -0.067224 0.141055 0.035363 -0.039502 -0.146873 -0.080863 -0.016802 -0.099396 -0.087639 -0.028395 -0.083400 0.014052 0.029308 -0.198639 -0.082503 0.081109 -0.036302 0.035330 0.078853 0.078947 0.182110 0.031454 -0.135645 -0.022469 0.109488 -0.087810 -0.009288 -0.166268 0.217622 0.054126 0.120421 0.192529 -0.026495 0.025201 0.033402 -0.102262 -0.094584 -0.032721 0.074856 -0.056171 -0.058173 -0.117164 -0.158482 0.044663 -0.084814 -0.099807 0.012786 -0.134287 0.227249 0.011015 0.093386 -0.036251 -0.030721 0.042804 0.067904 0.014520 -0.100291 -0.076347 -0.139903 0.090579 0.032369 -0.133698 -0.021823 0.207968 -0.201721 -0.149795 -0.201577 -0.052805 0.057883 -0.099518 0.064386 0.007126 -0.057253 -0.229233 -0.035252 -0.056241 -0.001725 -0.033202 -0.054514 0.075330 -0.015702 -0.164588 0.200717 0.256156 0.089114 0.073629 0.192919 0.003785 -0.000758 0.111404 -0.137609 0.010724 0.138474 -0.045598 -0.028978 -0.074464 0.093426 0.016498 0.004103 0.020223 0.270766 -0.067670 0.066994 -0.089143 -0.118834 -0.105775 0.040981 -0.026836 0.176557 -0.145728 0.058271 0.099773 0.098860 0.068791 0.033947 0.085343 -0.080274 -0.151237 -0.103966 -0.098512 0.067204 -0.021465 0.010526
