34 128
1 -0.072248 -0.259860 -0.028565 -0.048503 -0.010562 -0.181763 0.076676 0.073761 0.044497 0.011834 -0.101649 0.143267 0.064176 -0.192367 0.045906 -0.237856 -0.045574 -0.193980 -0.012448 -0.002981 0.240752 0.004399 0.113087 0.057353 0.049367 -0.042338 -0.015247 0.090612 0.108984 0.068843 -0.014640 0.013548 -0.066078 0.076686 -0.146218 -0.117759 0.078758 0.114975 0.023633 -0.122935 -0.131332 -0.009887 0.052502 0.115594 -0.171703 0.096876 0.058586 -0.042249 0.059589 0.039871 -0.185186 0.089601 -0.000097 0.158832 -0.266824 -0.109113 -0.024157 0.074816 -0.048300 0.041278 0.141604 -0.118551 0.002138 0.148883 -0.159542 0.022105 -0.045603 0.069970 0.004057 -0.163818 -0.151692 0.039429 0.008145 -0.043945 0.123213 0.046667 0.171570 0.017216 0.069683 -0.185117 -0.182700 -0.072504 -0.008253 -0.167236 -0.096991 0.059336 0.120262 -0.066545 0.050847 -0.042093 0.142434 0.023548 0.149678 -0.118671 -0.188393 0.126430 -0.106192 -0.125039 0.085005 0.063411 -0.124666 0.024517 -0.204997 -0.057635 -0.001675 0.092347 0.148837 0.054954 -0.065802 -0.080316 -0.071546 0.021240 0.046762 0.052361 -0.118942 0.028302 0.016451 0.174143 -0.079001 -0.058286 -0.076104 -0.081484 0.046556 -0.241038 -0.133626 -0.017577 -0.023429 0.142284
34 -0.036557 -0.191576 -0.012877 0.032663 0.037619 -0.109388 0.157161 -0.051082 -0.097671 0.042352 -0.117402 0.136427 0.069889 -0.207185 -0.067088 -0.140644 -0.087344 -0.062718 -0.094263 0.108123 0.213529 0.031298 0.165341 0.019848 -0.104246 0.005326 -0.042751 0.014577 0.065876 0.147883 -0.059501 0.067458 -0.047326 0.097902 -0.171898 -0.096153 0.204576 0.107000 -0.034194 -0.113966 -0.213742 0.088923 0.019607 0.095837 -0.043755 0.153669 0.021097 -0.107170 -0.090245 -0.054172 -0.060321 0.108037 0.011996 0.047081 -0.182033 -0.085271 -0.129988 -0.023469 -0.034333 0.022049 0.162906 -0.089438 -0.125212 0.150678 0.046873 -0.182021 -0.053677 -0.014614 0.054908 -0.032935 -0.018795 0.046490 0.089112 -0.033502 0.031217 0.013400 0.148818 0.111979 0.048014 0.043486 -0.109546 -0.184206 0.026646 -0.320982 -0.055412 0.300968 -0.031597 -0.057881 -0.116124 -0.054004 0.120416 0.139134 0.152507 -0.132765 -0.129272 0.243953 -0.167781 0.072508 0.049522 -0.105123 -0.161085 -0.006440 -0.203589 -0.054554 0.051293 0.081845 0.188042 0.060991 -0.077308 -0.052932 0.016575 -0.136600 0.027145 -0.022888 0.009858 0.021105 -0.085091 0.245101 -0.061307 0.043870 -0.085003 -0.222615 -0.018014 -0.186923 0.057314 0.117709 -0.085375 0.073807
33 -0.040075 -0.200977 -0.016543 0.034200 0.041929 -0.118578 0.161490 -0.047604 -0.095908 0.043489 -0.118299 0.143859 0.070923 -0.218146 -0.063756 -0.142253 -0.094189 -0.062947 -0.106959 0.109312 0.228556 0.034867 0.175383 0.020133 -0.113489 0.006686 -0.050029 0.016059 0.072998 0.154440 -0.064327 0.072907 -0.045968 0.106787 -0.186408 -0.106957 0.211880 0.111176 -0.042632 -0.116046 -0.226788 0.093166 0.019032 0.095106 -0.048025 0.167942 0.022274 -0.111785 -0.098092 -0.061387 -0.062812 0.114931 0.012854 0.046221 -0.196938 -0.084712 -0.136533 -0.023953 -0.033505 0.029662 0.173083 -0.097660 -0.132125 0.159476 0.051143 -0.191240 -0.048661 -0.015755 0.057365 -0.029622 -0.013571 0.047932 0.097797 -0.033686 0.030567 0.019867 0.158329 0.112132 0.051300 0.042123 -0.108082 -0.190369 0.026553 -0.337659 -0.060382 0.315423 -0.034550 -0.062913 -0.118947 -0.057712 0.132461 0.148448 0.161120 -0.138155 -0.129066 0.257403 -0.176382 0.071515 0.057612 -0.109883 -0.171592 -0.013814 -0.216295 -0.046989 0.060476 0.082995 0.195383 0.063384 -0.077823 -0.057641 0.016162 -0.141318 0.030842 -0.029651 0.013062 0.023445 -0.088790 0.249357 -0.064244 0.038101 -0.085737 -0.233529 -0.016969 -0.193249 0.066213 0.117445 -0.097031 0.072427
2 -0.070364 -0.271674 -0.031469 -0.043531 -0.009023 -0.191701 0.087508 0.073979 0.025944 0.013638 -0.104554 0.153489 0.068701 -0.210017 0.042714 -0.243821 -0.058740 -0.191084 -0.022598 0.003696 0.252976 0.008096 0.125741 0.055705 0.038631 -0.040492 -0.022740 0.088946 0.118542 0.081286 -0.014326 0.015582 -0.074309 0.086245 -0.154112 -0.115529 0.093183 0.117563 0.019216 -0.120095 -0.135021 0.000298 0.053404 0.113135 -0.171357 0.103522 0.058823 -0.053442 0.044405 0.029371 -0.176159 0.084678 0.002098 0.154689 -0.273594 -0.109348 -0.027244 0.072425 -0.048117 0.046571 0.144024 -0.115536 -0.004750 0.154279 -0.147493 0.010316 -0.044066 0.066053 0.007511 -0.159442 -0.143761 0.045244 0.013587 -0.042466 0.120200 0.051887 0.181484 0.024054 0.073820 -0.169242 -0.178946 -0.080591 -0.013554 -0.183016 -0.089064 0.085534 0.115248 -0.065842 0.042606 -0.047573 0.145660 0.037336 0.149073 -0.128580 -0.193049 0.139808 -0.115670 -0.120728 0.080508 0.055841 -0.129609 0.015866 -0.208606 -0.058649 0.000062 0.088518 0.149741 0.056318 -0.062226 -0.083826 -0.071028 0.020462 0.047163 0.045003 -0.114983 0.033536 0.009517 0.180406 -0.080826 -0.055216 -0.080834 -0.096676 0.046429 -0.251639 -0.123947 -0.009271 -0.024230 0.138373
32 -0.040812 -0.196656 -0.020817 0.022051 0.034625 -0.116268 0.153002 -0.044067 -0.089204 0.041609 -0.112856 0.137265 0.068413 -0.200825 -0.058015 -0.136669 -0.085640 -0.070376 -0.094761 0.099251 0.214377 0.035071 0.152300 0.020506 -0.103214 0.005012 -0.046077 0.026655 0.075328 0.138826 -0.060766 0.064173 -0.039943 0.101443 -0.178649 -0.102290 0.198713 0.110232 -0.031795 -0.119343 -0.211663 0.080820 0.015818 0.093317 -0.055318 0.153837 0.022465 -0.097973 -0.083367 -0.057673 -0.072588 0.107076 0.008724 0.057580 -0.197227 -0.086767 -0.124123 -0.018077 -0.037436 0.024508 0.167802 -0.093947 -0.121401 0.155215 0.027376 -0.168200 -0.054915 -0.004119 0.050713 -0.043367 -0.033443 0.050414 0.090901 -0.039235 0.034093 0.022022 0.155974 0.105013 0.049576 0.024164 -0.114549 -0.179705 0.029980 -0.311364 -0.059841 0.290381 -0.019318 -0.061146 -0.100641 -0.059528 0.127838 0.136155 0.155965 -0.138791 -0.129767 0.235523 -0.163710 0.056346 0.048097 -0.099190 -0.156647 -0.012150 -0.207364 -0.051249 0.056435 0.087820 0.188467 0.058123 -0.080191 -0.052836 0.009720 -0.131120 0.033279 -0.013946 0.003384 0.024482 -0.078237 0.241463 -0.055089 0.028605 -0.084238 -0.219002 -0.017555 -0.187937 0.053860 0.101796 -0.090611 0.079325
3 -0.058816 -0.230965 -0.021239 -0.006986 0.014428 -0.150105 0.122260 0.011919 -0.032169 0.026008 -0.110091 0.143540 0.064272 -0.212328 -0.010936 -0.198444 -0.068671 -0.136347 -0.059065 0.052845 0.234180 0.020725 0.143702 0.043593 -0.025915 -0.020924 -0.033619 0.056283 0.096208 0.117345 -0.040288 0.038568 -0.061657 0.094077 -0.167588 -0.114260 0.148924 0.119173 -0.006695 -0.117282 -0.175977 0.037656 0.037414 0.110383 -0.113299 0.131110 0.045274 -0.080117 -0.023915 -0.008151 -0.120034 0.097734 0.002483 0.104624 -0.235430 -0.103071 -0.081062 0.026560 -0.042819 0.037124 0.152795 -0.104710 -0.061758 0.160092 -0.055562 -0.085710 -0.046555 0.032295 0.032955 -0.104711 -0.083322 0.047459 0.049058 -0.038125 0.081802 0.030876 0.171297 0.066196 0.064096 -0.071800 -0.148936 -0.128102 0.007044 -0.254992 -0.076888 0.189917 0.047491 -0.062764 -0.036481 -0.052014 0.135322 0.086214 0.153691 -0.129220 -0.166872 0.193523 -0.144365 -0.025305 0.072241 -0.021409 -0.149410 0.007196 -0.214213 -0.057023 0.028228 0.091962 0.169330 0.057170 -0.068607 -0.073100 -0.026223 -0.056989 0.038352 0.013211 -0.054253 0.029590 -0.037860 0.216248 -0.067173 -0.008740 -0.084594 -0.161279 0.013902 -0.223552 -0.040909 0.050476 -0.055402 0.111327
7 -0.072920 -0.289567 -0.045752 -0.058582 -0.031875 -0.200267 0.074602 0.105509 0.072582 0.007664 -0.110425 0.162403 0.067321 -0.214125 0.072789 -0.279576 -0.043980 -0.245818 -0.010146 -0.019484 0.273002 -0.007646 0.121500 0.073248 0.095294 -0.063378 -0.021790 0.099591 0.120669 0.066458 0.000377 -0.000020 -0.072960 0.064303 -0.149808 -0.124094 0.064927 0.124372 0.027148 -0.134617 -0.126562 -0.024051 0.059335 0.127234 -0.207525 0.097367 0.081819 -0.032551 0.093081 0.061587 -0.213319 0.090876 -0.004937 0.183466 -0.291757 -0.120161 -0.003277 0.091752 -0.042919 0.049012 0.142097 -0.122882 0.038039 0.164984 -0.207448 0.060995 -0.049397 0.099443 -0.001928 -0.204868 -0.189135 0.051346 -0.022163 -0.046386 0.153955 0.059548 0.181332 0.004364 0.076954 -0.235151 -0.207317 -0.040447 -0.014028 -0.132910 -0.108838 0.014438 0.158058 -0.065897 0.078823 -0.040802 0.154361 -0.002341 0.162294 -0.114929 -0.209801 0.115619 -0.089130 -0.173008 0.091059 0.097636 -0.120413 0.033160 -0.224548 -0.065253 -0.017054 0.096153 0.138100 0.048516 -0.056770 -0.084120 -0.088083 0.065689 0.048930 0.062365 -0.150542 0.033849 0.034548 0.163416 -0.083245 -0.075042 -0.082179 -0.052720 0.072153 -0.268839 -0.185962 -0.047513 -0.004409 0.167792
4 -0.076137 -0.274242 -0.030749 -0.044436 -0.005720 -0.199983 0.084561 0.077735 0.030565 0.012710 -0.103546 0.154257 0.073227 -0.215387 0.043348 -0.252953 -0.055628 -0.203455 -0.018547 0.005553 0.263038 0.007651 0.124052 0.055899 0.045133 -0.041077 -0.022083 0.094145 0.124570 0.082479 -0.018387 0.014230 -0.073359 0.085462 -0.155937 -0.122597 0.087784 0.121856 0.022915 -0.116102 -0.129453 -0.010287 0.055282 0.116657 -0.172054 0.096905 0.057861 -0.052075 0.048626 0.032703 -0.177681 0.081284 0.003138 0.161383 -0.282496 -0.111798 -0.020528 0.071248 -0.045555 0.042577 0.152322 -0.121101 -0.000345 0.158199 -0.150727 0.014535 -0.049292 0.071264 0.009310 -0.165184 -0.150452 0.048565 0.011346 -0.047053 0.127171 0.048610 0.186270 0.029094 0.072295 -0.172540 -0.184300 -0.085050 -0.011935 -0.184190 -0.091277 0.080704 0.124817 -0.070220 0.045060 -0.043492 0.146451 0.030737 0.148233 -0.132773 -0.195755 0.141252 -0.121549 -0.125918 0.085847 0.056186 -0.138656 0.020952 -0.212334 -0.052971 -0.003311 0.097032 0.150281 0.058275 -0.064034 -0.090024 -0.068158 0.019202 0.047175 0.051826 -0.120597 0.035264 0.010934 0.182196 -0.080089 -0.057361 -0.079498 -0.094674 0.043976 -0.260129 -0.136035 -0.009785 -0.021675 0.145489
20 -0.057418 -0.229029 -0.025057 -0.017450 0.003669 -0.159980 0.107869 0.031660 -0.014186 0.021680 -0.105206 0.137621 0.067868 -0.197708 0.005832 -0.199509 -0.065870 -0.141213 -0.045476 0.032352 0.230105 0.013996 0.132259 0.043404 -0.004503 -0.020256 -0.023304 0.060040 0.095799 0.095029 -0.032574 0.029629 -0.058068 0.083068 -0.147046 -0.104894 0.126566 0.107636 -0.002440 -0.116810 -0.159490 0.024140 0.034789 0.103167 -0.120815 0.118127 0.048366 -0.066334 0.001678 -0.001303 -0.134316 0.088578 0.005915 0.109253 -0.230436 -0.094824 -0.057776 0.031156 -0.044021 0.037439 0.146099 -0.099654 -0.039359 0.146664 -0.079209 -0.052097 -0.044165 0.041174 0.020304 -0.107648 -0.099642 0.046137 0.033086 -0.038240 0.087972 0.038254 0.162650 0.049979 0.062064 -0.091074 -0.147675 -0.109600 0.001420 -0.220020 -0.074833 0.149223 0.061478 -0.059904 -0.013648 -0.044169 0.133549 0.063991 0.144984 -0.122126 -0.160290 0.164426 -0.123556 -0.053207 0.066666 0.004239 -0.138005 0.005519 -0.201948 -0.047121 0.017475 0.088035 0.151072 0.053596 -0.060597 -0.068450 -0.039532 -0.029096 0.037972 0.023315 -0.071706 0.025894 -0.018835 0.190935 -0.067359 -0.019725 -0.078453 -0.127718 0.023002 -0.220875 -0.059356 0.031664 -0.047162 0.111645
30 -0.025068 -0.186648 -0.015980 0.049519 0.042006 -0.091306 0.176597 -0.079219 -0.122960 0.052968 -0.128957 0.139674 0.071231 -0.216405 -0.092748 -0.128410 -0.099014 -0.042890 -0.122071 0.137239 0.221352 0.037548 0.185782 0.011722 -0.140794 0.017571 -0.049188 0.002679 0.054445 0.167766 -0.076641 0.076257 -0.038512 0.100319 -0.189179 -0.098472 0.235344 0.111872 -0.046785 -0.123924 -0.238722 0.109284 0.011780 0.101199 -0.017788 0.175669 0.013357 -0.120862 -0.123554 -0.076112 -0.038323 0.118825 0.014798 0.022195 -0.166222 -0.078750 -0.161821 -0.040673 -0.030065 0.018576 0.173489 -0.093974 -0.147787 0.155127 0.093966 -0.229005 -0.060675 -0.031445 0.064513 -0.012977 0.008702 0.048827 0.114742 -0.039202 0.014645 0.003671 0.148557 0.131648 0.040193 0.089869 -0.101939 -0.217172 0.031572 -0.362243 -0.056884 0.359735 -0.064295 -0.058640 -0.150751 -0.057928 0.127387 0.160008 0.161561 -0.135223 -0.114659 0.274902 -0.187063 0.116461 0.048144 -0.146123 -0.167306 -0.013247 -0.212910 -0.056660 0.067913 0.084470 0.209161 0.066251 -0.094093 -0.049964 0.033302 -0.181281 0.023397 -0.042594 0.041205 0.016589 -0.114203 0.267353 -0.061109 0.065712 -0.091403 -0.256102 -0.032691 -0.179776 0.106191 0.148617 -0.099649 0.065057
14 -0.072888 -0.267544 -0.027392 -0.044835 -0.006460 -0.185943 0.083257 0.070787 0.030847 0.015155 -0.106849 0.150062 0.063981 -0.204054 0.044510 -0.240225 -0.051052 -0.193560 -0.019573 0.000651 0.252573 0.010680 0.121403 0.058496 0.043916 -0.039164 -0.016106 0.089480 0.108823 0.083184 -0.013635 0.015761 -0.070836 0.083197 -0.143204 -0.118845 0.089984 0.120255 0.015719 -0.118063 -0.138062 -0.004277 0.053223 0.118298 -0.171320 0.105231 0.062397 -0.047924 0.048068 0.036800 -0.180286 0.087369 0.001204 0.154159 -0.265486 -0.112091 -0.031169 0.070931 -0.048680 0.039223 0.142892 -0.118077 0.003442 0.150972 -0.151620 0.013210 -0.042286 0.064967 0.009941 -0.162901 -0.150074 0.049384 0.002832 -0.039200 0.127744 0.050213 0.175678 0.024101 0.069334 -0.175465 -0.181675 -0.075544 -0.008083 -0.173633 -0.096703 0.079102 0.117403 -0.066769 0.042679 -0.042718 0.144407 0.026688 0.150297 -0.124692 -0.192027 0.139242 -0.115347 -0.117478 0.087114 0.058619 -0.134501 0.019779 -0.213260 -0.052870 -0.005575 0.094179 0.151609 0.057752 -0.065570 -0.087205 -0.071543 0.017710 0.043436 0.048629 -0.113376 0.030223 0.007121 0.175763 -0.078510 -0.052495 -0.078439 -0.093738 0.048987 -0.251891 -0.129095 -0.013231 -0.026208 0.141323
24 -0.035265 -0.194883 -0.013565 0.038089 0.042778 -0.109948 0.166945 -0.062295 -0.106282 0.048142 -0.116717 0.141741 0.074141 -0.214702 -0.077601 -0.133942 -0.097992 -0.053051 -0.106450 0.117963 0.218965 0.038083 0.170439 0.022236 -0.123683 0.016476 -0.050077 0.008932 0.065593 0.158577 -0.072867 0.075923 -0.046312 0.102336 -0.183733 -0.104012 0.224858 0.108660 -0.040991 -0.122681 -0.230704 0.101156 0.014246 0.099118 -0.035592 0.171694 0.013520 -0.110551 -0.107055 -0.072125 -0.052468 0.115368 0.009552 0.042584 -0.181817 -0.079911 -0.141800 -0.033086 -0.037417 0.022255 0.174888 -0.095955 -0.138184 0.157248 0.061655 -0.206249 -0.055930 -0.017601 0.056940 -0.020883 -0.006952 0.050715 0.103795 -0.037599 0.025171 0.012333 0.154622 0.118674 0.046437 0.063405 -0.103996 -0.200267 0.031287 -0.348501 -0.061651 0.330423 -0.047308 -0.059843 -0.129510 -0.058948 0.129077 0.155947 0.163793 -0.142659 -0.127690 0.267078 -0.178401 0.090773 0.050087 -0.123347 -0.174804 -0.009695 -0.211882 -0.049699 0.061923 0.088243 0.200112 0.066181 -0.083773 -0.053784 0.026174 -0.160438 0.027919 -0.032182 0.016400 0.020503 -0.099408 0.259843 -0.059200 0.052619 -0.087696 -0.247791 -0.026918 -0.193619 0.083780 0.132514 -0.099220 0.073967
11 -0.092447 -0.314089 -0.041629 -0.068145 -0.022916 -0.223117 0.062968 0.122227 0.088322 -0.002102 -0.111435 0.168765 0.064522 -0.216247 0.092206 -0.307660 -0.046116 -0.263000 0.001130 -0.034760 0.291918 -0.002550 0.125055 0.077812 0.102496 -0.070490 -0.016806 0.112888 0.128653 0.058395 0.003906 -0.004532 -0.078658 0.069171 -0.145857 -0.126438 0.065967 0.137467 0.035251 -0.126285 -0.115837 -0.028647 0.072478 0.131605 -0.229916 0.097255 0.088152 -0.027466 0.101623 0.071332 -0.225574 0.091489 -0.000509 0.201022 -0.313457 -0.133518 0.009531 0.107640 -0.057921 0.051807 0.142653 -0.136257 0.052567 0.172731 -0.234592 0.081247 -0.052146 0.100791 -0.000044 -0.227410 -0.202154 0.048266 -0.030115 -0.051896 0.173536 0.062460 0.192503 -0.008805 0.075440 -0.262188 -0.217575 -0.033861 -0.023985 -0.136419 -0.119283 -0.001880 0.184041 -0.067919 0.101453 -0.039319 0.158871 -0.015985 0.163839 -0.118013 -0.221081 0.104455 -0.094126 -0.195643 0.098837 0.122517 -0.120889 0.040616 -0.230115 -0.062862 -0.026450 0.099598 0.146371 0.048447 -0.059145 -0.102420 -0.102019 0.084182 0.047361 0.070966 -0.168685 0.035134 0.041752 0.167439 -0.086407 -0.091507 -0.080946 -0.053254 0.082175 -0.292795 -0.207827 -0.061672 -0.005766 0.177204
28 -0.040809 -0.186286 -0.012063 0.019439 0.028245 -0.107089 0.140499 -0.039671 -0.079588 0.036513 -0.104381 0.131801 0.064930 -0.187334 -0.055503 -0.136965 -0.082124 -0.072122 -0.081390 0.092550 0.197535 0.027533 0.145701 0.022238 -0.089482 0.007059 -0.044176 0.023454 0.070676 0.128380 -0.055611 0.061902 -0.040194 0.093458 -0.165385 -0.100229 0.184318 0.104641 -0.026017 -0.111423 -0.199347 0.068887 0.020127 0.094625 -0.056093 0.143581 0.017738 -0.094512 -0.077680 -0.050323 -0.075832 0.100366 0.011315 0.050760 -0.179048 -0.081053 -0.116909 -0.018364 -0.039098 0.025248 0.156506 -0.092013 -0.101961 0.145093 0.024881 -0.153638 -0.050553 0.000763 0.040693 -0.047070 -0.032097 0.047277 0.079770 -0.039769 0.037462 0.018022 0.147275 0.100096 0.043129 0.019910 -0.110846 -0.170565 0.024669 -0.294152 -0.060330 0.269511 -0.014598 -0.056661 -0.093128 -0.052417 0.122607 0.123730 0.146657 -0.131107 -0.126563 0.221039 -0.154767 0.051492 0.051574 -0.086332 -0.153558 -0.002878 -0.201991 -0.050124 0.050832 0.084112 0.179613 0.063443 -0.071824 -0.058476 0.006790 -0.116194 0.026620 -0.017149 -0.002999 0.019504 -0.074175 0.227469 -0.060158 0.026019 -0.079267 -0.201505 -0.014187 -0.183269 0.035931 0.094958 -0.079173 0.079536
9 -0.047594 -0.212728 -0.022356 0.010811 0.025892 -0.128433 0.139613 -0.020628 -0.061011 0.034434 -0.112629 0.141835 0.068653 -0.209821 -0.041992 -0.162878 -0.083414 -0.089479 -0.081815 0.084059 0.219262 0.029688 0.157744 0.025550 -0.073590 -0.000887 -0.039963 0.027962 0.077294 0.133886 -0.050502 0.060184 -0.051423 0.089552 -0.163425 -0.104419 0.178681 0.108341 -0.026147 -0.110856 -0.199040 0.061956 0.027416 0.102239 -0.072981 0.140994 0.029401 -0.094561 -0.062430 -0.039555 -0.088225 0.102901 0.007403 0.069422 -0.196807 -0.089800 -0.108942 -0.003850 -0.038111 0.025319 0.157965 -0.096861 -0.096804 0.150184 0.007064 -0.137685 -0.047592 0.003843 0.041133 -0.061532 -0.043032 0.047840 0.077445 -0.038392 0.054959 0.018603 0.152617 0.093139 0.047490 -0.004004 -0.119151 -0.159726 0.013319 -0.291019 -0.067255 0.247038 0.001336 -0.060383 -0.080838 -0.050044 0.129437 0.111552 0.154503 -0.123743 -0.141062 0.212155 -0.151241 0.028521 0.057186 -0.064622 -0.154697 -0.006205 -0.206314 -0.050284 0.041992 0.082100 0.173946 0.062665 -0.077705 -0.064361 -0.000371 -0.100247 0.033633 -0.010851 -0.017223 0.021300 -0.067626 0.229827 -0.065979 0.023567 -0.083640 -0.192355 -0.006673 -0.198079 0.015358 0.090128 -0.072137 0.088296
23 -0.034924 -0.185491 -0.020091 0.023807 0.028938 -0.105717 0.144060 -0.038287 -0.079772 0.037343 -0.110453 0.130994 0.067175 -0.198140 -0.059528 -0.132293 -0.085005 -0.064119 -0.087095 0.099996 0.203629 0.026841 0.147561 0.023079 -0.094106 0.005876 -0.046328 0.016948 0.063416 0.136913 -0.058129 0.062894 -0.042218 0.091397 -0.173311 -0.100340 0.188942 0.100465 -0.033177 -0.112599 -0.203243 0.076140 0.019238 0.094450 -0.045494 0.146997 0.018296 -0.094128 -0.082459 -0.051525 -0.067415 0.100565 0.012540 0.046777 -0.181806 -0.083819 -0.123074 -0.017598 -0.032372 0.019828 0.159335 -0.091763 -0.107358 0.143557 0.036996 -0.161624 -0.047753 -0.003648 0.047303 -0.035738 -0.024954 0.044592 0.091271 -0.035480 0.030234 0.016699 0.149211 0.101190 0.048995 0.026522 -0.103624 -0.175354 0.026874 -0.301219 -0.060223 0.278559 -0.023289 -0.058768 -0.101506 -0.055695 0.123979 0.129593 0.145429 -0.128083 -0.130476 0.225326 -0.155624 0.054082 0.049010 -0.087366 -0.151289 -0.010772 -0.194601 -0.052000 0.050391 0.074772 0.175119 0.058385 -0.073509 -0.052037 0.005615 -0.126245 0.027870 -0.023259 0.000839 0.020776 -0.079029 0.232395 -0.060100 0.032711 -0.078129 -0.202079 -0.018084 -0.184742 0.049502 0.100365 -0.080927 0.073935
18 -0.075419 -0.286460 -0.039123 -0.049054 -0.009082 -0.199249 0.084166 0.082095 0.043568 0.016338 -0.112557 0.163480 0.072080 -0.219370 0.053076 -0.270010 -0.056498 -0.215953 -0.023066 0.003690 0.277150 0.006003 0.134044 0.063860 0.057126 -0.046153 -0.020201 0.094178 0.122844 0.084173 -0.014161 0.014519 -0.072370 0.085364 -0.155279 -0.127414 0.092667 0.128963 0.021661 -0.126029 -0.142072 -0.002247 0.053447 0.122838 -0.187420 0.111566 0.065577 -0.048823 0.059932 0.039018 -0.192229 0.090595 0.003613 0.171549 -0.288812 -0.117742 -0.023998 0.073815 -0.050377 0.042070 0.152150 -0.127520 0.005793 0.164741 -0.165231 0.020770 -0.049469 0.073533 0.013511 -0.175752 -0.165029 0.048404 0.004666 -0.050632 0.139692 0.054105 0.189326 0.024023 0.075043 -0.193274 -0.200603 -0.072176 -0.007963 -0.182806 -0.104945 0.071949 0.136241 -0.069081 0.048123 -0.042467 0.153818 0.021237 0.163442 -0.130747 -0.207171 0.141150 -0.116972 -0.132611 0.091131 0.063804 -0.134429 0.027395 -0.222923 -0.061047 -0.005145 0.098567 0.153106 0.051303 -0.067235 -0.091705 -0.077447 0.025745 0.044840 0.051791 -0.126258 0.031969 0.014868 0.181729 -0.077724 -0.062419 -0.084006 -0.094407 0.054203 -0.266437 -0.143237 -0.022434 -0.025720 0.150281
8 -0.063528 -0.251883 -0.026130 -0.027424 -0.002012 -0.168150 0.099491 0.046876 0.007047 0.022285 -0.106417 0.146095 0.063497 -0.203188 0.024821 -0.223529 -0.057859 -0.167772 -0.032430 0.026150 0.241552 0.012361 0.128684 0.046265 0.015159 -0.028353 -0.024220 0.075018 0.101258 0.094118 -0.025443 0.024818 -0.062722 0.085855 -0.152669 -0.113981 0.115215 0.116355 0.010800 -0.114270 -0.149954 0.014759 0.041008 0.112310 -0.143546 0.115767 0.050122 -0.060190 0.019142 0.017162 -0.154424 0.088747 0.006857 0.132672 -0.250648 -0.104449 -0.050488 0.048763 -0.045249 0.035099 0.142650 -0.112307 -0.024023 0.152678 -0.107832 -0.028973 -0.043567 0.048913 0.018246 -0.136729 -0.122543 0.043425 0.021855 -0.041566 0.103545 0.042037 0.165027 0.038901 0.064090 -0.128866 -0.162469 -0.098778 -0.004607 -0.201000 -0.088918 0.121722 0.090458 -0.062730 0.012322 -0.047925 0.139442 0.047404 0.148511 -0.123234 -0.175993 0.152068 -0.123043 -0.084028 0.074395 0.021174 -0.131515 0.011287 -0.210401 -0.056061 0.012586 0.086617 0.156708 0.050243 -0.067299 -0.079385 -0.054348 -0.009878 0.043653 0.032892 -0.092575 0.032682 -0.010255 0.186857 -0.074003 -0.035427 -0.080810 -0.119670 0.037399 -0.231920 -0.088658 0.009825 -0.034852 0.123574
5 -0.083116 -0.303946 -0.044493 -0.062483 -0.019642 -0.211689 0.076567 0.101156 0.077474 0.001466 -0.109353 0.168282 0.063609 -0.213870 0.078048 -0.292570 -0.050461 -0.251910 -0.008081 -0.020156 0.285107 0.002078 0.120855 0.077073 0.088672 -0.066221 -0.018447 0.103232 0.124002 0.065578 -0.005208 0.000587 -0.078396 0.073715 -0.149599 -0.130433 0.072232 0.135281 0.029854 -0.133382 -0.123671 -0.024327 0.063505 0.129719 -0.217907 0.101202 0.081801 -0.035620 0.089962 0.061162 -0.221372 0.097932 0.001729 0.186894 -0.303128 -0.131796 -0.001935 0.096306 -0.049571 0.045095 0.147745 -0.135484 0.039165 0.172658 -0.218451 0.061947 -0.048078 0.095159 0.002590 -0.215691 -0.194791 0.049554 -0.020642 -0.053616 0.161660 0.055435 0.190712 0.000269 0.073711 -0.247539 -0.217587 -0.048427 -0.019087 -0.150807 -0.116179 0.017308 0.168619 -0.066286 0.086031 -0.042498 0.162898 -0.002730 0.167701 -0.121914 -0.221538 0.119999 -0.103387 -0.179797 0.100626 0.107960 -0.129646 0.035027 -0.232326 -0.069503 -0.022718 0.098424 0.151411 0.053163 -0.065413 -0.096979 -0.098060 0.064547 0.050099 0.063630 -0.158285 0.038677 0.038910 0.175320 -0.082742 -0.079745 -0.083553 -0.060333 0.072746 -0.287182 -0.193455 -0.044570 -0.012100 0.175598
22 -0.072327 -0.283574 -0.035338 -0.044544 -0.009446 -0.200326 0.089976 0.073312 0.031273 0.013642 -0.112394 0.161715 0.071588 -0.220651 0.049037 -0.261661 -0.060691 -0.208964 -0.019162 0.007335 0.271128 0.007047 0.133465 0.062098 0.044169 -0.041898 -0.021945 0.087407 0.121484 0.087802 -0.016510 0.012194 -0.076742 0.084593 -0.157330 -0.125865 0.097671 0.126281 0.016541 -0.130455 -0.139424 -0.004936 0.050753 0.124589 -0.177565 0.115656 0.063002 -0.050367 0.053173 0.033467 -0.188834 0.090809 -0.002180 0.160916 -0.280206 -0.116928 -0.025754 0.074936 -0.046623 0.040435 0.152730 -0.120559 0.000953 0.167575 -0.158840 0.011314 -0.053046 0.073273 0.015750 -0.167452 -0.157046 0.050719 0.006076 -0.047177 0.135842 0.052790 0.183392 0.027483 0.077103 -0.181144 -0.194440 -0.080086 -0.007173 -0.191768 -0.099434 0.079201 0.128453 -0.071805 0.044653 -0.046220 0.153542 0.028395 0.159240 -0.132566 -0.201050 0.145056 -0.119430 -0.125375 0.090092 0.055741 -0.138088 0.023314 -0.220788 -0.057699 -0.001439 0.099956 0.155072 0.056750 -0.065321 -0.088013 -0.068492 0.021226 0.049039 0.052345 -0.123166 0.033544 0.007030 0.187885 -0.082336 -0.057264 -0.082892 -0.100491 0.052205 -0.266041 -0.133938 -0.011220 -0.024730 0.148881
6 -0.085609 -0.314450 -0.042381 -0.066708 -0.030476 -0.221226 0.070627 0.124831 0.085980 0.005038 -0.113516 0.172803 0.069010 -0.226291 0.089818 -0.311371 -0.045982 -0.276579 0.002484 -0.034597 0.295577 -0.007933 0.125685 0.074737 0.112726 -0.071186 -0.014045 0.112941 0.137220 0.068018 0.002841 -0.009803 -0.078311 0.073463 -0.152596 -0.134671 0.061896 0.141886 0.032758 -0.141805 -0.125868 -0.033453 0.072009 0.133834 -0.238180 0.098526 0.091181 -0.035626 0.112376 0.076422 -0.236788 0.093649 -0.006657 0.205518 -0.317450 -0.136254 0.005886 0.106907 -0.048860 0.047920 0.151818 -0.132204 0.051059 0.172712 -0.238162 0.079952 -0.053814 0.107243 -0.008232 -0.231932 -0.209639 0.050465 -0.030109 -0.048525 0.175482 0.064142 0.200456 -0.000972 0.081123 -0.269092 -0.231199 -0.036373 -0.018268 -0.134296 -0.114497 -0.004083 0.188161 -0.073527 0.099142 -0.042441 0.166673 -0.010723 0.169875 -0.121048 -0.229081 0.112148 -0.095078 -0.202925 0.106605 0.117817 -0.123156 0.034596 -0.236097 -0.066729 -0.026282 0.107216 0.148162 0.057122 -0.061387 -0.099547 -0.101296 0.082812 0.054199 0.078137 -0.169588 0.041474 0.048944 0.168348 -0.088982 -0.093100 -0.083686 -0.051364 0.083429 -0.297551 -0.217584 -0.057967 0.001689 0.177634
13 -0.068629 -0.269889 -0.032005 -0.049527 -0.013495 -0.188439 0.080635 0.075173 0.041943 0.015196 -0.106260 0.146771 0.067480 -0.207397 0.052310 -0.250966 -0.054468 -0.206181 -0.017299 -0.005469 0.260339 0.004311 0.116954 0.060203 0.050411 -0.045846 -0.013525 0.091480 0.114207 0.077141 -0.014003 0.012738 -0.069706 0.073404 -0.142991 -0.118642 0.086128 0.123249 0.020619 -0.120218 -0.125916 -0.007740 0.052000 0.116220 -0.174756 0.104098 0.064554 -0.043295 0.055825 0.043375 -0.185188 0.088466 0.003725 0.160136 -0.271400 -0.114684 -0.023606 0.070280 -0.042004 0.037471 0.141848 -0.114552 0.007717 0.147369 -0.157334 0.020739 -0.047938 0.068400 0.011153 -0.170254 -0.157239 0.043398 -0.000768 -0.045384 0.130119 0.045605 0.171326 0.017137 0.066128 -0.186700 -0.183441 -0.069277 -0.011625 -0.163923 -0.098993 0.059195 0.129452 -0.065591 0.047059 -0.037018 0.146808 0.016432 0.144620 -0.122047 -0.188464 0.123573 -0.105296 -0.134559 0.081813 0.065750 -0.121091 0.023069 -0.207836 -0.055795 -0.008246 0.085795 0.146196 0.048864 -0.060459 -0.087798 -0.069877 0.029274 0.043216 0.054062 -0.124996 0.028047 0.013351 0.170630 -0.074994 -0.061711 -0.075729 -0.076671 0.057103 -0.246496 -0.141378 -0.016930 -0.017671 0.144750
25 -0.042301 -0.201964 -0.024504 0.015585 0.024978 -0.121366 0.143772 -0.039057 -0.072907 0.039498 -0.116832 0.136967 0.070049 -0.201943 -0.050218 -0.159684 -0.082584 -0.085770 -0.085004 0.095954 0.226556 0.028723 0.159267 0.029668 -0.085609 -0.003643 -0.038972 0.024756 0.069151 0.139263 -0.053016 0.057377 -0.043579 0.091119 -0.176683 -0.101430 0.186159 0.115048 -0.031365 -0.124492 -0.208775 0.077331 0.015139 0.093743 -0.060153 0.159791 0.027873 -0.091195 -0.065799 -0.046316 -0.085163 0.108689 0.011777 0.065354 -0.202300 -0.089272 -0.110479 -0.017033 -0.037888 0.029012 0.161820 -0.091794 -0.103312 0.149429 0.011099 -0.155050 -0.056923 0.001004 0.043284 -0.051013 -0.043088 0.045753 0.082466 -0.036610 0.045595 0.016567 0.150647 0.100693 0.051941 0.006553 -0.125306 -0.171671 0.024313 -0.305555 -0.066291 0.268729 -0.007399 -0.067772 -0.096160 -0.059596 0.127880 0.119487 0.161674 -0.137140 -0.137919 0.230614 -0.160818 0.043409 0.057165 -0.082046 -0.160708 -0.003603 -0.212712 -0.049880 0.050238 0.085780 0.187227 0.062116 -0.076190 -0.059384 0.001316 -0.117855 0.032724 -0.014682 -0.014174 0.019949 -0.068933 0.234101 -0.059842 0.023229 -0.083404 -0.202059 -0.010818 -0.202053 0.033799 0.102876 -0.085759 0.083622
29 -0.041883 -0.199574 -0.023459 0.011941 0.025886 -0.121841 0.136171 -0.030025 -0.067484 0.037255 -0.108340 0.136468 0.064085 -0.199615 -0.043081 -0.155170 -0.082678 -0.088199 -0.077797 0.083667 0.216558 0.024456 0.146498 0.026519 -0.078100 -0.005123 -0.038959 0.027417 0.075040 0.131416 -0.047024 0.052806 -0.044205 0.089964 -0.170178 -0.098204 0.178131 0.108118 -0.023099 -0.119175 -0.190953 0.070352 0.017379 0.090420 -0.063269 0.148713 0.026526 -0.091219 -0.063735 -0.038518 -0.083407 0.100317 0.006324 0.065492 -0.200523 -0.082071 -0.102017 -0.003788 -0.034557 0.029469 0.156383 -0.095565 -0.099010 0.146598 0.004235 -0.141775 -0.054115 0.001773 0.044428 -0.052212 -0.045399 0.044753 0.072317 -0.032812 0.048170 0.023711 0.154491 0.091261 0.052658 -0.000573 -0.123658 -0.155564 0.021112 -0.288239 -0.061991 0.250736 -0.000275 -0.064201 -0.082416 -0.057797 0.125746 0.110677 0.149956 -0.125259 -0.131883 0.218416 -0.154128 0.035718 0.054529 -0.074693 -0.151678 -0.002208 -0.200663 -0.049725 0.045631 0.081668 0.170718 0.054577 -0.071380 -0.055125 0.000315 -0.103503 0.027472 -0.013006 -0.016668 0.018776 -0.066600 0.219130 -0.057582 0.020573 -0.082679 -0.190364 -0.010226 -0.195292 0.028067 0.090915 -0.076288 0.078096
26 -0.037230 -0.194529 -0.019937 0.009743 0.024556 -0.123023 0.135451 -0.025462 -0.066859 0.033255 -0.110938 0.131600 0.070424 -0.199818 -0.040456 -0.155399 -0.077469 -0.092595 -0.078016 0.081914 0.221458 0.025959 0.151729 0.030747 -0.072695 -0.006471 -0.041774 0.029662 0.073305 0.129401 -0.047283 0.051995 -0.045375 0.086463 -0.171364 -0.104523 0.174213 0.106409 -0.024435 -0.119768 -0.191635 0.060155 0.018311 0.094387 -0.071860 0.148036 0.025819 -0.087679 -0.057101 -0.032945 -0.084879 0.102517 0.006417 0.067284 -0.201185 -0.088849 -0.099825 -0.001523 -0.038985 0.027520 0.157941 -0.094955 -0.091645 0.149656 -0.001293 -0.131242 -0.050707 0.003668 0.041348 -0.059516 -0.049492 0.045490 0.070062 -0.038707 0.053428 0.019137 0.148585 0.087328 0.050073 -0.011493 -0.127837 -0.153761 0.020656 -0.278823 -0.062980 0.244000 0.001542 -0.061500 -0.075942 -0.054185 0.126985 0.109571 0.153983 -0.124030 -0.135188 0.210312 -0.150458 0.025730 0.059790 -0.068371 -0.147356 -0.003155 -0.200389 -0.048474 0.043736 0.084874 0.178026 0.058808 -0.069455 -0.053482 -0.007910 -0.100973 0.033321 -0.003569 -0.018614 0.022351 -0.058976 0.220335 -0.057473 0.011174 -0.081170 -0.188066 -0.006797 -0.200653 0.017875 0.087851 -0.075286 0.083092
15 -0.041005 -0.191870 -0.014723 0.019297 0.031933 -0.105945 0.147671 -0.042762 -0.077349 0.036794 -0.109006 0.134063 0.065111 -0.192551 -0.052776 -0.138010 -0.087029 -0.070822 -0.093897 0.090679 0.210753 0.031068 0.152636 0.024237 -0.095424 0.004740 -0.045418 0.019934 0.066938 0.130890 -0.059849 0.064286 -0.038519 0.091210 -0.167931 -0.098495 0.186319 0.103390 -0.027922 -0.111842 -0.208057 0.077456 0.019133 0.094797 -0.048354 0.154040 0.019496 -0.096908 -0.078622 -0.051806 -0.070665 0.104190 0.010267 0.054166 -0.186212 -0.085708 -0.124991 -0.020547 -0.032535 0.027153 0.163423 -0.089298 -0.108396 0.141341 0.031385 -0.155632 -0.048596 -0.006222 0.050040 -0.039667 -0.025454 0.042545 0.088239 -0.040381 0.034963 0.016767 0.151390 0.098747 0.041082 0.017103 -0.109654 -0.168433 0.024449 -0.303987 -0.065919 0.271564 -0.020871 -0.063300 -0.097532 -0.050660 0.126409 0.129598 0.155440 -0.130241 -0.133526 0.232541 -0.154809 0.057287 0.053809 -0.083561 -0.149293 -0.008106 -0.203756 -0.048107 0.051350 0.075405 0.182021 0.061411 -0.076938 -0.058420 0.008416 -0.123114 0.026712 -0.024179 -0.001741 0.024747 -0.073677 0.236926 -0.064381 0.034766 -0.077136 -0.207754 -0.009507 -0.182451 0.040930 0.100661 -0.080267 0.080256
16 -0.034762 -0.194845 -0.014222 0.039165 0.040987 -0.105528 0.175174 -0.066912 -0.109889 0.048417 -0.127697 0.147059 0.070674 -0.213931 -0.077741 -0.138367 -0.101884 -0.058856 -0.116720 0.120581 0.224679 0.037415 0.180986 0.018701 -0.126830 0.013298 -0.050634 0.010349 0.063005 0.157205 -0.074745 0.078537 -0.044495 0.101134 -0.190371 -0.105012 0.232915 0.110531 -0.045129 -0.129179 -0.242407 0.104710 0.018330 0.103018 -0.032450 0.174210 0.020847 -0.114576 -0.114090 -0.065733 -0.053102 0.121152 0.013765 0.040333 -0.186019 -0.086882 -0.153312 -0.033004 -0.035302 0.019806 0.182018 -0.102563 -0.144439 0.158473 0.070851 -0.213455 -0.058405 -0.017778 0.058779 -0.029184 -0.004582 0.045563 0.110640 -0.042438 0.029009 0.010279 0.163891 0.121562 0.044376 0.063605 -0.106883 -0.211322 0.032809 -0.361643 -0.062865 0.347677 -0.047506 -0.061074 -0.134464 -0.060105 0.129970 0.160541 0.165307 -0.139880 -0.132179 0.275476 -0.181625 0.092898 0.051444 -0.130607 -0.171260 -0.010045 -0.218024 -0.058473 0.062651 0.084955 0.206717 0.066451 -0.086403 -0.053309 0.023701 -0.160879 0.024225 -0.033616 0.025640 0.023817 -0.103998 0.274205 -0.064652 0.051235 -0.092087 -0.249653 -0.028311 -0.197821 0.086083 0.137678 -0.100621 0.078465
31 -0.045480 -0.210495 -0.017599 0.008961 0.021481 -0.134441 0.131215 -0.016109 -0.056930 0.034220 -0.108030 0.144504 0.070776 -0.207463 -0.031234 -0.173619 -0.082120 -0.101957 -0.072378 0.074108 0.225341 0.022686 0.145311 0.035303 -0.058277 -0.005234 -0.035089 0.042484 0.081841 0.124204 -0.051359 0.054375 -0.053635 0.095587 -0.164707 -0.103516 0.167787 0.111792 -0.015250 -0.120642 -0.191056 0.060622 0.028056 0.100229 -0.084138 0.142158 0.030212 -0.091284 -0.050068 -0.028687 -0.102369 0.104097 0.008568 0.078160 -0.208650 -0.093233 -0.098799 0.000932 -0.041995 0.025649 0.162540 -0.100956 -0.088027 0.148300 -0.016094 -0.122974 -0.054472 0.011109 0.036932 -0.073873 -0.058497 0.044248 0.068590 -0.039503 0.062591 0.025203 0.164945 0.082962 0.056854 -0.024128 -0.129830 -0.153536 0.013946 -0.281251 -0.069908 0.231929 0.013654 -0.065557 -0.066336 -0.054610 0.128384 0.108325 0.157945 -0.132332 -0.152656 0.211721 -0.154420 0.011430 0.061269 -0.051661 -0.155992 -0.000394 -0.209293 -0.055485 0.036618 0.087293 0.177631 0.062122 -0.072756 -0.065413 -0.012601 -0.093935 0.031000 -0.006277 -0.027593 0.027712 -0.059770 0.228213 -0.069284 0.013265 -0.084682 -0.185488 -0.001063 -0.210809 0.000510 0.077275 -0.073108 0.094766
19 -0.039707 -0.203314 -0.012554 0.017140 0.030285 -0.119861 0.145398 -0.035169 -0.072434 0.039469 -0.117755 0.143282 0.067941 -0.203570 -0.051633 -0.150449 -0.087590 -0.083010 -0.085036 0.094720 0.219381 0.025825 0.156182 0.027547 -0.086121 0.006405 -0.042665 0.027847 0.073261 0.134432 -0.058255 0.063776 -0.045141 0.092475 -0.172889 -0.104034 0.185325 0.111587 -0.024698 -0.115301 -0.207871 0.074293 0.023501 0.098653 -0.058243 0.152619 0.027980 -0.100353 -0.073783 -0.044419 -0.080731 0.105719 0.007343 0.060716 -0.192373 -0.084084 -0.122602 -0.009950 -0.033377 0.024660 0.164549 -0.100213 -0.104847 0.152941 0.020438 -0.157492 -0.048751 -0.002482 0.044019 -0.053637 -0.034642 0.045060 0.085241 -0.038043 0.042186 0.016234 0.160440 0.099188 0.046003 0.007182 -0.118425 -0.171909 0.022784 -0.308573 -0.068923 0.271305 -0.007708 -0.060719 -0.094279 -0.054851 0.128053 0.128644 0.159233 -0.131029 -0.141048 0.234619 -0.161776 0.044948 0.057381 -0.084550 -0.156271 -0.002969 -0.211188 -0.053431 0.047096 0.084857 0.184473 0.061804 -0.079769 -0.061324 0.002616 -0.118106 0.031043 -0.017713 -0.004318 0.026022 -0.069885 0.242134 -0.067926 0.030720 -0.084160 -0.207869 -0.012144 -0.199733 0.030940 0.097700 -0.084382 0.082532
17 -0.091518 -0.326784 -0.045626 -0.077395 -0.043152 -0.236383 0.063567 0.143767 0.117017 0.004868 -0.112984 0.185133 0.071392 -0.219277 0.104502 -0.325805 -0.039139 -0.303756 0.009666 -0.046321 0.303253 -0.015756 0.121987 0.082825 0.140766 -0.075043 -0.012493 0.126952 0.143901 0.054818 0.008610 -0.015373 -0.079358 0.070183 -0.153564 -0.144391 0.048544 0.144468 0.043614 -0.144245 -0.118038 -0.052309 0.071540 0.145826 -0.261041 0.089746 0.099758 -0.018222 0.136651 0.091633 -0.264645 0.092404 -0.005593 0.221048 -0.332354 -0.143712 0.015317 0.128742 -0.050073 0.046427 0.152705 -0.144361 0.071680 0.175862 -0.275780 0.117044 -0.054287 0.121343 -0.011607 -0.252368 -0.240763 0.048999 -0.041087 -0.058662 0.194850 0.076431 0.201670 -0.022570 0.086880 -0.315934 -0.246071 -0.020985 -0.017464 -0.110707 -0.134898 -0.040271 0.217752 -0.076933 0.133882 -0.042776 0.168500 -0.029699 0.176200 -0.118418 -0.247437 0.098119 -0.082026 -0.232063 0.115469 0.151347 -0.118825 0.043007 -0.246408 -0.070112 -0.033945 0.108497 0.149357 0.049736 -0.068204 -0.097840 -0.118988 0.106271 0.063847 0.091825 -0.193304 0.041448 0.063960 0.171642 -0.094211 -0.113016 -0.081059 -0.026735 0.097787 -0.305763 -0.253890 -0.085250 0.005617 0.202804
27 -0.024024 -0.178238 -0.014888 0.045912 0.046890 -0.087074 0.177754 -0.077342 -0.126733 0.053884 -0.126429 0.138703 0.070570 -0.207652 -0.094602 -0.122844 -0.096653 -0.039028 -0.119867 0.130963 0.218164 0.039896 0.181411 0.018205 -0.143184 0.017407 -0.055806 0.001431 0.052516 0.166838 -0.076323 0.076536 -0.037931 0.096836 -0.181352 -0.100270 0.234254 0.106106 -0.050458 -0.122026 -0.243331 0.112705 0.007751 0.095385 -0.011022 0.178761 0.016841 -0.118845 -0.124557 -0.078676 -0.028579 0.118344 0.010971 0.024821 -0.162622 -0.079238 -0.159774 -0.046821 -0.027053 0.019594 0.168228 -0.083491 -0.154926 0.150524 0.097856 -0.231258 -0.061681 -0.029418 0.062025 -0.004777 0.009276 0.050269 0.115536 -0.041616 0.007640 0.001518 0.147413 0.126719 0.035873 0.096761 -0.096260 -0.214359 0.036772 -0.356946 -0.060132 0.358619 -0.063260 -0.060187 -0.157280 -0.057093 0.118274 0.161312 0.160660 -0.133154 -0.116300 0.275617 -0.180911 0.117210 0.047514 -0.150619 -0.174240 -0.013524 -0.204955 -0.054808 0.071859 0.085618 0.206982 0.059608 -0.091978 -0.043951 0.042540 -0.180366 0.022042 -0.045912 0.042845 0.015891 -0.113015 0.267368 -0.060459 0.066974 -0.089633 -0.254935 -0.032156 -0.180096 0.106291 0.151543 -0.102991 0.061284
12 -0.069691 -0.258188 -0.031103 -0.037211 -0.008106 -0.177830 0.087026 0.057821 0.018613 0.017898 -0.101118 0.150324 0.063811 -0.201597 0.033989 -0.228884 -0.058879 -0.182194 -0.025212 0.009191 0.247985 0.010578 0.127786 0.052009 0.029623 -0.040884 -0.021088 0.079164 0.107360 0.085596 -0.016052 0.019260 -0.070382 0.079262 -0.148192 -0.110744 0.098641 0.119470 0.011394 -0.116888 -0.140136 0.004876 0.050076 0.110475 -0.158123 0.110721 0.060760 -0.054203 0.032520 0.025296 -0.164513 0.090103 0.000257 0.137059 -0.258919 -0.109555 -0.034139 0.061029 -0.043551 0.041801 0.144013 -0.109936 -0.011656 0.155601 -0.133729 -0.005950 -0.043551 0.061450 0.016564 -0.145083 -0.129542 0.048544 0.013817 -0.039264 0.115518 0.044148 0.174209 0.034848 0.068996 -0.146251 -0.172217 -0.081037 -0.009377 -0.187190 -0.090606 0.097516 0.102780 -0.063436 0.023736 -0.047238 0.138902 0.039598 0.146434 -0.120642 -0.178426 0.140491 -0.111239 -0.106016 0.080444 0.040424 -0.134304 0.015138 -0.205983 -0.054961 0.003114 0.086427 0.147290 0.051444 -0.056724 -0.081784 -0.063043 0.007690 0.042083 0.042252 -0.101156 0.032996 -0.000306 0.181617 -0.077263 -0.048256 -0.080911 -0.102171 0.042990 -0.238564 -0.112126 -0.000106 -0.032842 0.131727
10 -0.032631 -0.183635 -0.016960 0.034044 0.040395 -0.097401 0.160393 -0.058211 -0.094795 0.041806 -0.113721 0.138876 0.065750 -0.198436 -0.072626 -0.128423 -0.089748 -0.052540 -0.105222 0.113422 0.213179 0.033577 0.164508 0.022457 -0.117009 0.010920 -0.045299 0.009285 0.061263 0.145507 -0.069114 0.067022 -0.038129 0.099851 -0.178479 -0.099983 0.213181 0.103507 -0.041107 -0.118813 -0.223582 0.091652 0.018119 0.098465 -0.032006 0.165930 0.021425 -0.107940 -0.095116 -0.066814 -0.053845 0.110054 0.016054 0.039194 -0.177687 -0.078588 -0.136058 -0.034646 -0.036373 0.022408 0.166689 -0.091051 -0.132286 0.147856 0.059750 -0.189349 -0.056274 -0.020360 0.051218 -0.029448 -0.008481 0.042596 0.102851 -0.038894 0.029974 0.013289 0.148226 0.111424 0.038365 0.052351 -0.107740 -0.193648 0.029789 -0.326536 -0.063366 0.312821 -0.041388 -0.062989 -0.121998 -0.056729 0.126715 0.144087 0.159284 -0.129643 -0.124067 0.252666 -0.170456 0.079744 0.050319 -0.111293 -0.162619 -0.011540 -0.205285 -0.049177 0.056076 0.080421 0.195109 0.065454 -0.086082 -0.051217 0.025307 -0.152049 0.027829 -0.032154 0.019313 0.020467 -0.090929 0.251195 -0.060578 0.044346 -0.083465 -0.231061 -0.022528 -0.182530 0.075582 0.121237 -0.093877 0.072164
21 -0.046067 -0.200366 -0.017763 0.014977 0.025847 -0.122464 0.144827 -0.034389 -0.073785 0.042954 -0.115470 0.142620 0.070382 -0.211708 -0.050683 -0.156747 -0.084342 -0.084739 -0.085462 0.093106 0.226095 0.028439 0.158522 0.028798 -0.083814 -0.000686 -0.039965 0.028305 0.075091 0.137282 -0.053176 0.058566 -0.047431 0.098445 -0.177628 -0.107239 0.188139 0.115294 -0.025012 -0.117570 -0.211354 0.077811 0.020624 0.098491 -0.067154 0.153639 0.027978 -0.097188 -0.067601 -0.045591 -0.077955 0.108697 0.012675 0.061879 -0.200906 -0.086734 -0.117315 -0.013700 -0.040583 0.030233 0.162226 -0.097093 -0.105297 0.154997 0.020815 -0.154560 -0.053209 -0.004000 0.043653 -0.057312 -0.035106 0.042821 0.083842 -0.036266 0.048859 0.020207 0.155398 0.095326 0.052247 0.010615 -0.124015 -0.170815 0.020346 -0.309352 -0.069493 0.268720 -0.010775 -0.065528 -0.088037 -0.057710 0.133211 0.125927 0.155768 -0.130084 -0.140898 0.231169 -0.164963 0.045160 0.059568 -0.081170 -0.161473 -0.006646 -0.212127 -0.048700 0.051387 0.088397 0.186115 0.059868 -0.081083 -0.062655 0.007334 -0.114223 0.030784 -0.013190 -0.011141 0.026689 -0.076043 0.239053 -0.064284 0.030518 -0.084926 -0.208011 -0.009340 -0.204339 0.014495 0.087162 -0.072137 0.091727
