34 128
J1 -0.045285 0.201387 0.172659 0.081575 0.096828 -0.086566 0.088207 0.001402 0.040749 -0.147639 -0.117108 0.077220 -0.201024 -0.091079 -0.020387 -0.055272 0.058809 0.066919 -0.277815 -0.098558 0.129700 0.088930 0.027278 0.123465 0.013675 0.257465 0.057568 -0.215554 0.014478 0.185860 -0.121863 -0.060125 -0.149865 0.211358 0.021562 0.139704 0.215042 0.024565 -0.014162 0.017962 -0.215413 -0.191146 -0.089483 0.071571 -0.125931 -0.138166 -0.186378 -0.170865 -0.039957 -0.124866 -0.082465 0.064782 -0.173817 0.240862 -0.005832 0.063647 -0.000569 -0.018552 0.010891 0.145414 -0.080841 -0.134311 -0.179496 -0.090585 0.081425 0.019829 -0.159444 -0.004754 0.152574 -0.374952 -0.066686 -0.075364 0.039455 0.155989 -0.182915 0.067896 0.143878 -0.108989 -0.223344 0.031696 -0.027038 -0.015896 0.017457 0.015831 0.118364 -0.004588 -0.222638 0.108300 0.242999 0.057616 0.075859 0.221599 0.094561 0.006305 0.161685 -0.045006 -0.074311 0.031910 -0.118717 -0.181049 -0.105449 0.061560 -0.087039 -0.063371 0.002992 0.310107 -0.093112 0.185128 -0.095804 -0.128488 -0.089056 -0.006288 0.018404 0.200444 -0.115946 -0.105060 0.139044 0.085285 0.045965 0.017654 0.061732 -0.052940 -0.071277 -0.164346 -0.159264 0.039080 0.010350 -0.032335
J34 0.034462 -0.015512 0.104974 0.144548 0.100842 -0.059707 0.098231 0.074358 0.014806 -0.145030 -0.194059 -0.034552 -0.200755 -0.038105 -0.037029 -0.194630 0.142627 0.035471 -0.271766 -0.100692 0.013049 -0.058486 -0.093026 0.007872 0.054970 0.254401 0.035234 -0.101322 0.067478 0.122788 -0.138935 -0.017741 -0.078771 0.271250 -0.038489 0.079230 0.247725 -0.067215 0.030237 0.068629 -0.027243 -0.100721 -0.098670 0.133772 -0.050950 0.009311 0.031119 -0.019857 -0.083270 0.020171 0.024977 0.105463 -0.056123 0.333811 -0.043751 0.074436 -0.096294 0.118908 0.101601 0.035787 0.155505 0.066537 -0.191505 -0.127739 -0.003425 0.066064 -0.067084 -0.133285 0.184230 -0.127147 -0.037981 -0.154747 -0.066824 0.155300 -0.067575 -0.077121 -0.061703 0.001980 -0.192759 0.024860 -0.071312 0.022794 0.073387 -0.031269 0.021130 0.010380 -0.215658 0.239738 0.164817 0.018316 0.048413 0.030800 0.146982 0.049744 0.163601 -0.044963 0.005912 0.076163 0.009086 -0.041306 0.041115 0.128436 0.081990 0.039027 -0.027486 0.253341 0.000929 -0.203218 -0.229379 -0.120965 -0.166376 0.101219 -0.113681 0.219545 -0.134112 0.095722 0.040968 -0.052889 0.040178 0.027874 -0.015825 -0.115017 -0.191988 -0.121937 -0.052229 -0.037737 -0.014189 -0.057091
J33 0.025191 0.001252 0.114998 0.136369 0.095109 -0.063430 0.093655 0.068135 0.015093 -0.149126 -0.195086 -0.020032 -0.198191 -0.042900 -0.035859 -0.183887 0.137511 0.040199 -0.272923 -0.100583 0.030309 -0.042881 -0.089744 0.019645 0.048125 0.263437 0.041839 -0.119651 0.057181 0.126913 -0.133002 -0.027086 -0.085646 0.270427 -0.028938 0.086166 0.242436 -0.061918 0.024931 0.065771 -0.042648 -0.112458 -0.095114 0.126053 -0.056506 -0.003255 0.013826 -0.037183 -0.081146 0.005389 0.018542 0.102767 -0.072014 0.338256 -0.041439 0.074548 -0.081262 0.108265 0.096605 0.048169 0.134954 0.045581 -0.195769 -0.127901 0.008123 0.065123 -0.075623 -0.118677 0.174652 -0.154545 -0.032828 -0.142388 -0.055790 0.163999 -0.073746 -0.067364 -0.038421 -0.011227 -0.195503 0.021811 -0.067811 0.018325 0.065337 -0.028276 0.028175 0.015204 -0.216106 0.227316 0.173809 0.016077 0.046340 0.049862 0.145985 0.047535 0.156225 -0.038326 -0.003745 0.076479 -0.002067 -0.054054 0.031555 0.122672 0.063975 0.028670 -0.019361 0.257083 -0.011310 -0.161060 -0.218539 -0.125141 -0.157818 0.091805 -0.100659 0.215220 -0.131399 0.073983 0.051022 -0.036387 0.043832 0.022754 -0.005620 -0.114076 -0.179925 -0.127277 -0.057729 -0.029662 -0.016922 -0.055488
J2 -0.017115 0.115693 0.143481 0.095352 0.090821 -0.072683 0.089918 0.026714 0.029592 -0.138352 -0.142719 0.036512 -0.179287 -0.061653 -0.029007 -0.099809 0.087488 0.057099 -0.265673 -0.092892 0.090522 0.033338 -0.016832 0.086469 0.019121 0.241872 0.053369 -0.169372 0.033304 0.156534 -0.114131 -0.043513 -0.113482 0.210364 0.003019 0.112757 0.208300 -0.008976 -0.002331 0.028675 -0.137011 -0.154365 -0.079342 0.084960 -0.094414 -0.079249 -0.101921 -0.103740 -0.049900 -0.067623 -0.035253 0.076247 -0.124752 0.256822 -0.023947 0.064363 -0.029382 0.019952 0.033638 0.100589 0.000486 -0.059799 -0.168219 -0.089070 0.049439 0.035359 -0.114020 -0.041619 0.145680 -0.268793 -0.051389 -0.095884 0.002704 0.146066 -0.129974 0.020063 0.071449 -0.066075 -0.197836 0.031994 -0.040463 -0.006294 0.029456 -0.000077 0.072459 -0.001306 -0.197314 0.141455 0.193612 0.032686 0.056681 0.137887 0.108907 0.023463 0.148487 -0.034270 -0.038463 0.047887 -0.073101 -0.116013 -0.043350 0.084546 -0.030602 -0.026487 0.000340 0.263222 -0.057459 0.050259 -0.130286 -0.118030 -0.102035 0.030793 -0.031467 0.190204 -0.104647 -0.038359 0.093891 0.038836 0.041482 0.013787 0.036272 -0.068284 -0.105661 -0.133393 -0.105543 0.012198 -0.000437 -0.034926
J32 0.016325 0.014196 0.122163 0.126237 0.100396 -0.057520 0.089988 0.061265 0.022038 -0.152087 -0.187179 -0.013608 -0.206338 -0.056807 -0.037512 -0.166787 0.124859 0.039553 -0.268899 -0.093881 0.033750 -0.028891 -0.084567 0.024968 0.047351 0.261146 0.047989 -0.119037 0.058544 0.131828 -0.133915 -0.031000 -0.092109 0.270340 -0.028584 0.085631 0.242034 -0.053883 0.021022 0.062416 -0.058234 -0.121666 -0.092461 0.122398 -0.059850 -0.014436 0.000448 -0.044548 -0.078776 -0.002016 0.010924 0.103459 -0.076624 0.329016 -0.037748 0.075354 -0.080564 0.101449 0.090150 0.055538 0.118193 0.030401 -0.197018 -0.126955 0.014506 0.063867 -0.080510 -0.117640 0.173870 -0.169607 -0.032466 -0.135620 -0.045230 0.164240 -0.083076 -0.056792 -0.031755 -0.023936 -0.196756 0.022593 -0.056998 0.007983 0.059368 -0.027253 0.035248 0.016656 -0.216424 0.215683 0.172818 0.015475 0.050105 0.065431 0.138956 0.041547 0.155907 -0.037050 -0.008380 0.075242 -0.014632 -0.067748 0.022255 0.112466 0.056043 0.019468 -0.023401 0.261109 -0.009766 -0.141279 -0.209126 -0.125918 -0.148285 0.080591 -0.084842 0.214562 -0.135781 0.063848 0.059736 -0.032877 0.041413 0.028905 -0.005294 -0.114221 -0.171627 -0.134322 -0.061823 -0.027614 -0.013476 -0.053927
J3 -0.003372 0.088490 0.138940 0.110655 0.095313 -0.069829 0.090342 0.037843 0.022459 -0.140177 -0.157992 0.018339 -0.194802 -0.066035 -0.029967 -0.129238 0.102901 0.053829 -0.274098 -0.095718 0.071986 0.013082 -0.042268 0.066837 0.033927 0.259904 0.051771 -0.158310 0.038334 0.153344 -0.120089 -0.041772 -0.116714 0.241204 -0.006120 0.109581 0.227928 -0.025603 0.007122 0.045377 -0.111684 -0.145848 -0.090327 0.102614 -0.090684 -0.063880 -0.069409 -0.094718 -0.058283 -0.053065 -0.025797 0.092453 -0.108763 0.294793 -0.028905 0.072900 -0.045208 0.047304 0.050473 0.092625 0.035461 -0.031085 -0.182176 -0.102060 0.034420 0.043540 -0.106267 -0.068326 0.163012 -0.243038 -0.045147 -0.108232 -0.007616 0.161644 -0.118095 -0.009297 0.035219 -0.051708 -0.205727 0.028180 -0.049027 0.004989 0.043601 -0.013452 0.068281 0.001197 -0.214960 0.168997 0.199473 0.029206 0.059702 0.121213 0.121313 0.026132 0.159023 -0.038800 -0.028724 0.059820 -0.059339 -0.104509 -0.027055 0.098572 -0.001154 -0.016303 -0.008215 0.270768 -0.048652 -0.011190 -0.159189 -0.124628 -0.119723 0.044658 -0.049574 0.202105 -0.117350 -0.006472 0.080693 0.012121 0.041659 0.023149 0.020482 -0.091232 -0.133632 -0.139097 -0.095313 -0.002275 -0.003197 -0.041546
J7 -0.056382 0.210668 0.162095 0.072985 0.090811 -0.087288 0.079710 -0.016049 0.033904 -0.125161 -0.091093 0.074637 -0.180910 -0.080869 -0.014391 -0.038744 0.046529 0.063442 -0.261556 -0.097081 0.125816 0.109246 0.050775 0.127462 0.000995 0.236525 0.050246 -0.214466 0.000940 0.176912 -0.100678 -0.058806 -0.146273 0.172534 0.023516 0.130783 0.192404 0.036394 -0.012941 0.012939 -0.228668 -0.176320 -0.073578 0.053786 -0.135261 -0.142411 -0.206054 -0.176869 -0.040481 -0.134556 -0.085737 0.055107 -0.178297 0.199198 -0.000566 0.060182 0.023202 -0.036332 -0.008562 0.142214 -0.107811 -0.153088 -0.158179 -0.069435 0.076990 0.005143 -0.161667 0.021456 0.135657 -0.376841 -0.065575 -0.049074 0.056117 0.144895 -0.183815 0.075523 0.159122 -0.118997 -0.201596 0.031511 -0.027549 -0.011167 0.010311 0.017879 0.126961 -0.005537 -0.197602 0.078957 0.234174 0.061191 0.074011 0.223959 0.078235 0.000959 0.149647 -0.037259 -0.082406 0.017611 -0.127213 -0.186647 -0.119285 0.046318 -0.107847 -0.078634 0.005408 0.288732 -0.104301 0.228078 -0.066621 -0.112626 -0.069120 -0.025270 0.034857 0.168931 -0.100951 -0.132536 0.138044 0.092284 0.041746 0.012280 0.068007 -0.031698 -0.049286 -0.149544 -0.165639 0.047517 0.014074 -0.032382
J4 -0.043396 0.169593 0.165605 0.077487 0.100147 -0.081629 0.090811 0.010510 0.033602 -0.142486 -0.122695 0.068266 -0.190909 -0.087299 -0.019500 -0.065883 0.068095 0.070570 -0.279579 -0.094913 0.119525 0.078385 0.012525 0.119824 0.009810 0.251199 0.055072 -0.205120 0.018643 0.172360 -0.115924 -0.060532 -0.139392 0.205518 0.013257 0.127329 0.208937 0.020380 -0.011226 0.012402 -0.189009 -0.183432 -0.085155 0.071695 -0.118183 -0.124682 -0.163683 -0.152708 -0.037248 -0.110818 -0.070115 0.067739 -0.151105 0.242467 -0.015131 0.064509 -0.002169 -0.014925 0.008725 0.132925 -0.070441 -0.118340 -0.173312 -0.082842 0.071086 0.029531 -0.142862 -0.013764 0.140070 -0.343582 -0.055068 -0.074499 0.034369 0.157118 -0.167260 0.054194 0.126566 -0.096173 -0.215442 0.033228 -0.026638 -0.015837 0.016247 0.011116 0.105829 -0.002991 -0.207112 0.109418 0.222412 0.042767 0.062628 0.195374 0.099282 0.006189 0.153945 -0.030185 -0.065193 0.034466 -0.108957 -0.162627 -0.089295 0.070729 -0.074159 -0.059687 0.002211 0.285794 -0.088620 0.151846 -0.096582 -0.127304 -0.084661 -0.002611 0.007591 0.190919 -0.104420 -0.097229 0.123724 0.071320 0.043715 0.011232 0.050589 -0.056034 -0.073438 -0.151681 -0.138996 0.030393 0.003707 -0.031274
J30 0.028717 -0.035433 0.102803 0.144048 0.098345 -0.050346 0.093611 0.070984 0.010955 -0.154068 -0.201348 -0.041107 -0.205263 -0.044109 -0.041843 -0.198606 0.146710 0.025892 -0.259450 -0.094795 0.013473 -0.065826 -0.102594 -0.002828 0.060067 0.253112 0.038551 -0.095435 0.072401 0.119973 -0.133875 -0.016855 -0.076451 0.276993 -0.040654 0.073416 0.237159 -0.075450 0.029060 0.076075 -0.015124 -0.093182 -0.099987 0.132934 -0.045095 0.014238 0.050861 -0.010391 -0.083944 0.022244 0.035906 0.115901 -0.052138 0.350274 -0.040217 0.070360 -0.101595 0.132431 0.111019 0.030098 0.163464 0.082360 -0.194102 -0.136241 -0.002465 0.071419 -0.062426 -0.142825 0.179410 -0.106792 -0.032709 -0.151501 -0.068014 0.156103 -0.051657 -0.086291 -0.068469 0.012020 -0.184864 0.026059 -0.075009 0.022053 0.072455 -0.039898 0.015891 0.023667 -0.221603 0.240766 0.151672 0.010265 0.045448 0.022734 0.154898 0.051913 0.159721 -0.042269 0.007920 0.072422 0.014889 -0.035399 0.050474 0.128994 0.093118 0.048278 -0.027207 0.245939 0.007777 -0.226204 -0.240318 -0.118001 -0.168153 0.104639 -0.113205 0.222328 -0.136069 0.107469 0.027252 -0.061965 0.044814 0.027595 -0.027367 -0.120991 -0.198967 -0.120905 -0.041420 -0.039924 -0.019772 -0.057378
J24 0.022973 0.004770 0.115675 0.133790 0.099219 -0.056149 0.093936 0.066913 0.021943 -0.147285 -0.191055 -0.022330 -0.204922 -0.050873 -0.037070 -0.183566 0.130994 0.038945 -0.268269 -0.096940 0.026071 -0.040064 -0.085725 0.016340 0.054560 0.257017 0.042482 -0.114750 0.063235 0.129739 -0.131196 -0.026478 -0.084717 0.269858 -0.033324 0.083701 0.237703 -0.060246 0.027058 0.067998 -0.046325 -0.105016 -0.093818 0.128877 -0.059043 -0.006138 0.011652 -0.035675 -0.077176 0.005342 0.015862 0.107798 -0.072012 0.332472 -0.042004 0.069720 -0.087389 0.111900 0.090983 0.049399 0.133300 0.046806 -0.193405 -0.122373 0.005476 0.056983 -0.071789 -0.119208 0.172778 -0.145875 -0.032194 -0.144985 -0.053820 0.157277 -0.075078 -0.064601 -0.040777 -0.013116 -0.192283 0.026144 -0.063067 0.015621 0.060393 -0.029040 0.031956 0.018168 -0.218231 0.222731 0.171712 0.016120 0.048788 0.048302 0.140992 0.040867 0.155620 -0.043737 -0.001619 0.070375 -0.006629 -0.053650 0.025459 0.114204 0.065177 0.029105 -0.021515 0.255837 -0.004284 -0.159294 -0.216265 -0.118724 -0.151926 0.088726 -0.092478 0.213479 -0.130993 0.075567 0.046232 -0.036951 0.043368 0.029202 -0.011800 -0.111143 -0.172681 -0.122628 -0.063192 -0.029434 -0.011896 -0.054243
J14 -0.026812 0.142587 0.149241 0.087889 0.100702 -0.078176 0.088074 0.021598 0.033995 -0.146716 -0.137472 0.045270 -0.192904 -0.077910 -0.024332 -0.083441 0.078686 0.063953 -0.273721 -0.098061 0.103212 0.054754 0.000185 0.098340 0.023880 0.250146 0.058156 -0.181383 0.022788 0.167262 -0.118141 -0.050658 -0.128324 0.217717 0.004820 0.124231 0.211551 0.008622 -0.008834 0.022679 -0.164206 -0.167797 -0.084722 0.082256 -0.107760 -0.100868 -0.126039 -0.129791 -0.052110 -0.088831 -0.056969 0.074961 -0.139663 0.251759 -0.021271 0.067736 -0.024138 0.006643 0.023486 0.119373 -0.029910 -0.086721 -0.177715 -0.093732 0.057992 0.029121 -0.135683 -0.035883 0.144570 -0.307698 -0.049441 -0.083086 0.014192 0.155067 -0.148364 0.031153 0.091432 -0.082719 -0.202747 0.027259 -0.038913 -0.012588 0.026617 0.006340 0.089336 -0.006584 -0.208696 0.124953 0.209916 0.037772 0.065125 0.166445 0.107932 0.014183 0.158505 -0.036781 -0.058240 0.040862 -0.086340 -0.144251 -0.062993 0.071963 -0.049006 -0.041546 -0.003551 0.282129 -0.066801 0.093097 -0.115137 -0.120937 -0.092669 0.020621 -0.012658 0.187895 -0.110367 -0.065218 0.107863 0.046832 0.041054 0.014009 0.045462 -0.068161 -0.092023 -0.148778 -0.126179 0.023545 0.005630 -0.037914
J20 -0.013032 0.099924 0.134959 0.101359 0.090037 -0.067779 0.085899 0.028767 0.027969 -0.143991 -0.149433 0.028233 -0.188606 -0.068287 -0.025489 -0.103974 0.087237 0.049081 -0.255209 -0.095375 0.080893 0.022954 -0.019422 0.073650 0.027484 0.242521 0.047514 -0.158166 0.036729 0.148134 -0.117204 -0.039425 -0.113718 0.217076 -0.003536 0.107798 0.211844 -0.014239 0.006618 0.040091 -0.124896 -0.148487 -0.085026 0.085577 -0.092821 -0.072270 -0.090630 -0.103512 -0.050195 -0.064253 -0.030303 0.080491 -0.118484 0.266994 -0.017937 0.068840 -0.033980 0.031683 0.041627 0.099689 0.009383 -0.051555 -0.176133 -0.098074 0.045371 0.036929 -0.113608 -0.056367 0.152439 -0.252645 -0.044314 -0.096259 -0.002668 0.149794 -0.124737 0.004435 0.052271 -0.061760 -0.197393 0.027598 -0.038024 0.000823 0.034716 -0.007448 0.074999 0.000008 -0.200255 0.146539 0.196432 0.034654 0.054143 0.134367 0.114528 0.020175 0.148115 -0.036969 -0.042466 0.049510 -0.062266 -0.112552 -0.034590 0.087680 -0.018764 -0.025139 -0.005778 0.266001 -0.055837 0.019409 -0.142386 -0.114862 -0.109452 0.038691 -0.030065 0.194470 -0.112422 -0.024215 0.091177 0.030886 0.041717 0.017038 0.023717 -0.076512 -0.116595 -0.139114 -0.105359 0.011010 -0.002230 -0.038694
J9 0.011369 0.017781 0.114590 0.119002 0.093324 -0.063573 0.089315 0.055330 0.014117 -0.137945 -0.175669 -0.013311 -0.191982 -0.045500 -0.029416 -0.154708 0.120753 0.038345 -0.256277 -0.089235 0.031508 -0.025555 -0.071632 0.027002 0.042787 0.245132 0.044759 -0.114343 0.051217 0.121821 -0.123188 -0.025968 -0.090859 0.242105 -0.026989 0.086419 0.223899 -0.045110 0.018395 0.059703 -0.063322 -0.109734 -0.088457 0.111270 -0.061883 -0.016161 -0.005890 -0.046007 -0.074567 -0.009838 0.010218 0.096475 -0.071843 0.305193 -0.031700 0.066607 -0.072465 0.091757 0.080633 0.055989 0.104371 0.028196 -0.182541 -0.112360 0.015113 0.058516 -0.082002 -0.104761 0.165105 -0.164394 -0.035212 -0.131306 -0.035554 0.153868 -0.080676 -0.049118 -0.021193 -0.022643 -0.185543 0.025334 -0.061210 0.015402 0.053525 -0.020048 0.038726 0.013479 -0.200976 0.199717 0.165355 0.016023 0.047252 0.060086 0.134147 0.040298 0.151286 -0.033673 -0.010345 0.062370 -0.014925 -0.062927 0.017334 0.108170 0.045274 0.015376 -0.015318 0.242437 -0.018940 -0.121953 -0.188735 -0.119470 -0.143363 0.078879 -0.085079 0.200449 -0.119201 0.046538 0.053145 -0.027557 0.040918 0.024779 -0.003294 -0.103163 -0.159973 -0.120340 -0.062228 -0.026270 -0.012884 -0.047469
J28 0.007684 0.060411 0.131487 0.120420 0.100311 -0.068756 0.091808 0.050424 0.024763 -0.152747 -0.180164 0.006355 -0.203335 -0.056615 -0.028964 -0.152237 0.111083 0.045622 -0.279126 -0.097970 0.054979 -0.011495 -0.057111 0.048562 0.043727 0.263692 0.049830 -0.143893 0.050120 0.146202 -0.132037 -0.038255 -0.108539 0.255902 -0.021525 0.099035 0.235648 -0.035183 0.012883 0.055680 -0.093394 -0.131966 -0.093650 0.110159 -0.075138 -0.038579 -0.039897 -0.073669 -0.069893 -0.030822 -0.005281 0.095426 -0.095918 0.311363 -0.035938 0.076649 -0.066009 0.076727 0.071217 0.078362 0.078564 -0.004446 -0.194749 -0.115687 0.023666 0.050545 -0.101357 -0.093116 0.173168 -0.214993 -0.042000 -0.129078 -0.025791 0.159786 -0.102727 -0.031323 0.011729 -0.041681 -0.203204 0.032293 -0.055793 0.004507 0.049384 -0.014485 0.053580 0.010364 -0.220337 0.195225 0.187053 0.025437 0.051932 0.096468 0.132223 0.037466 0.161991 -0.041638 -0.024266 0.064542 -0.040864 -0.089677 -0.002338 0.105006 0.024215 0.005332 -0.015181 0.273815 -0.030703 -0.069446 -0.184190 -0.123885 -0.141699 0.068036 -0.066852 0.216715 -0.130635 0.026553 0.071676 -0.008296 0.041791 0.022553 0.008132 -0.100277 -0.152575 -0.138679 -0.085481 -0.009717 -0.006776 -0.047786
J8 -0.026949 0.142709 0.149584 0.089126 0.095592 -0.074563 0.087159 0.018282 0.027653 -0.137413 -0.128670 0.044833 -0.186052 -0.071939 -0.026363 -0.080303 0.071827 0.056751 -0.263610 -0.089188 0.103808 0.051845 -0.001099 0.096791 0.022173 0.239788 0.050540 -0.182432 0.024217 0.161767 -0.116809 -0.053383 -0.130892 0.211221 0.007187 0.118909 0.202953 0.009935 -0.004037 0.021427 -0.162934 -0.159475 -0.080176 0.079373 -0.108262 -0.097160 -0.130519 -0.127383 -0.043816 -0.086464 -0.054394 0.071991 -0.134856 0.248300 -0.018521 0.059563 -0.018964 0.006410 0.025849 0.117036 -0.035924 -0.089178 -0.168530 -0.087623 0.059437 0.028159 -0.134114 -0.026948 0.137597 -0.300639 -0.051470 -0.080652 0.017540 0.150436 -0.148250 0.035321 0.092599 -0.079522 -0.203641 0.029431 -0.038056 -0.005923 0.027264 0.002124 0.090548 -0.005153 -0.204060 0.124041 0.204189 0.036839 0.058124 0.167296 0.100291 0.016005 0.151590 -0.038231 -0.057230 0.043406 -0.088883 -0.140135 -0.064078 0.072507 -0.046065 -0.036932 -0.002676 0.275488 -0.069393 0.100365 -0.111300 -0.122559 -0.088867 0.016822 -0.007015 0.187155 -0.103869 -0.067415 0.107973 0.051987 0.041343 0.014161 0.045724 -0.064777 -0.087710 -0.144352 -0.119214 0.025386 0.004646 -0.035242
J11 -0.064437 0.218715 0.171043 0.072498 0.098236 -0.085110 0.078754 -0.005283 0.036632 -0.139372 -0.094204 0.082808 -0.186835 -0.094707 -0.018818 -0.035016 0.053381 0.070190 -0.274525 -0.094545 0.133647 0.112813 0.045789 0.126954 0.004526 0.237743 0.054147 -0.215738 0.009869 0.176082 -0.106802 -0.063581 -0.146456 0.194069 0.025378 0.139859 0.203308 0.035983 -0.025156 0.005605 -0.237642 -0.184486 -0.083930 0.056238 -0.136810 -0.144153 -0.203742 -0.177699 -0.040156 -0.142922 -0.095660 0.060707 -0.181313 0.215909 -0.007173 0.052785 0.018442 -0.043184 -0.013794 0.144167 -0.118454 -0.153174 -0.171726 -0.074257 0.087643 0.014969 -0.168658 0.016041 0.134008 -0.383873 -0.061802 -0.049060 0.046755 0.151860 -0.183601 0.079456 0.157532 -0.113434 -0.211902 0.030474 -0.025328 -0.023051 0.006336 0.019556 0.124191 -0.003409 -0.208672 0.081448 0.235760 0.057292 0.074609 0.229687 0.079148 0.001139 0.154035 -0.039607 -0.085345 0.012895 -0.120723 -0.191804 -0.122913 0.045591 -0.101509 -0.078261 0.004413 0.295473 -0.104719 0.231835 -0.069432 -0.120161 -0.062148 -0.023845 0.042063 0.173713 -0.101978 -0.133625 0.133260 0.094149 0.042431 0.008591 0.072981 -0.035538 -0.045283 -0.155125 -0.164016 0.052173 0.011849 -0.030882
J23 0.023452 -0.008493 0.113409 0.140815 0.096388 -0.063046 0.096871 0.069265 0.014079 -0.148941 -0.194682 -0.017846 -0.201850 -0.049063 -0.032379 -0.185291 0.130650 0.035156 -0.274140 -0.098441 0.024581 -0.047905 -0.094957 0.022408 0.050405 0.258409 0.042794 -0.109521 0.067634 0.126845 -0.132632 -0.028504 -0.088935 0.268622 -0.031393 0.082561 0.242710 -0.060239 0.024552 0.067449 -0.037496 -0.112123 -0.094823 0.130043 -0.055007 -0.001660 0.021074 -0.026378 -0.075765 0.006658 0.019549 0.108004 -0.068303 0.335430 -0.039478 0.079573 -0.088370 0.113265 0.103299 0.046802 0.140403 0.057169 -0.190900 -0.128565 0.008755 0.066240 -0.067950 -0.126301 0.173486 -0.150041 -0.032010 -0.145601 -0.050670 0.158755 -0.073555 -0.071019 -0.045060 -0.011940 -0.187304 0.021248 -0.065635 0.018337 0.063665 -0.032207 0.023965 0.010607 -0.216484 0.228397 0.170433 0.017844 0.044785 0.043188 0.145835 0.041257 0.159701 -0.039551 0.002620 0.079814 -0.002984 -0.044458 0.032664 0.119062 0.072431 0.032811 -0.025502 0.257533 -0.003182 -0.175649 -0.223551 -0.123130 -0.157385 0.091126 -0.105400 0.214582 -0.136257 0.076829 0.045722 -0.044240 0.042006 0.028486 -0.014948 -0.110277 -0.189296 -0.130021 -0.054374 -0.035641 -0.010068 -0.051982
J22 -0.021918 0.128887 0.144280 0.093878 0.098922 -0.072871 0.089610 0.029406 0.026808 -0.145551 -0.141416 0.039674 -0.192808 -0.073372 -0.029626 -0.097729 0.083434 0.061475 -0.275569 -0.097387 0.092000 0.041193 -0.008934 0.087738 0.026625 0.246989 0.054193 -0.174683 0.030426 0.160143 -0.119751 -0.045594 -0.126464 0.225308 -0.001627 0.116266 0.219606 -0.001727 -0.002265 0.029933 -0.147987 -0.155289 -0.088322 0.088508 -0.100470 -0.089382 -0.114152 -0.120390 -0.051726 -0.079654 -0.048190 0.081200 -0.132317 0.264828 -0.018193 0.066995 -0.030248 0.018314 0.034600 0.104420 -0.014324 -0.072739 -0.174798 -0.097626 0.052531 0.035713 -0.124245 -0.038206 0.151335 -0.283771 -0.054951 -0.097237 0.007940 0.154117 -0.140200 0.022407 0.074133 -0.071712 -0.202821 0.027712 -0.042526 -0.007264 0.027891 -0.003594 0.081428 0.002581 -0.212369 0.141616 0.208129 0.041395 0.063333 0.154890 0.104755 0.020959 0.156418 -0.039181 -0.046652 0.044571 -0.075921 -0.132447 -0.052760 0.084161 -0.033910 -0.032671 -0.004203 0.275882 -0.061788 0.060404 -0.134712 -0.124175 -0.106556 0.026919 -0.024738 0.196929 -0.116658 -0.047934 0.096867 0.042527 0.043564 0.017938 0.035100 -0.073056 -0.107031 -0.144540 -0.120499 0.014738 -0.002066 -0.038519
J25 0.010522 0.039926 0.120739 0.112736 0.093324 -0.053569 0.083493 0.050515 0.022140 -0.139878 -0.167922 -0.005952 -0.196244 -0.054213 -0.032531 -0.154782 0.115818 0.042611 -0.253104 -0.089895 0.043450 -0.012801 -0.064924 0.036553 0.040988 0.249523 0.041784 -0.121131 0.053004 0.134611 -0.124635 -0.027931 -0.094265 0.249192 -0.024313 0.088490 0.222214 -0.035676 0.017950 0.059529 -0.077244 -0.118415 -0.093925 0.114891 -0.062922 -0.029415 -0.024590 -0.061820 -0.068176 -0.016127 -0.004406 0.092524 -0.078414 0.305137 -0.035375 0.064344 -0.068925 0.078775 0.069469 0.067835 0.085578 0.016728 -0.181770 -0.115988 0.019850 0.053461 -0.082048 -0.101882 0.167840 -0.178249 -0.037134 -0.126388 -0.030487 0.155850 -0.086562 -0.042174 -0.010083 -0.025917 -0.183848 0.021163 -0.049958 0.011329 0.051910 -0.025266 0.047999 0.014194 -0.212771 0.190945 0.171041 0.017237 0.049804 0.080538 0.123022 0.035944 0.153478 -0.041952 -0.016812 0.060620 -0.027971 -0.071521 0.007516 0.103762 0.042156 0.010149 -0.019902 0.248698 -0.014099 -0.098934 -0.183998 -0.114534 -0.136594 0.072159 -0.072695 0.201641 -0.122191 0.039799 0.064735 -0.018573 0.045557 0.028851 0.000210 -0.103359 -0.150820 -0.125560 -0.070383 -0.018782 -0.003990 -0.050417
J6 -0.047140 0.183199 0.160104 0.079888 0.088547 -0.083301 0.076022 -0.002544 0.030857 -0.126184 -0.105993 0.068351 -0.177498 -0.076540 -0.018995 -0.052621 0.056645 0.061037 -0.265201 -0.094286 0.119286 0.087448 0.028517 0.109342 0.010109 0.239405 0.047441 -0.204965 0.012176 0.165884 -0.106194 -0.053660 -0.133303 0.186343 0.018605 0.131495 0.200978 0.025402 -0.013530 0.021201 -0.205344 -0.174589 -0.077810 0.060963 -0.125809 -0.121750 -0.175780 -0.157597 -0.044194 -0.118807 -0.074728 0.059972 -0.160764 0.215998 -0.003954 0.058376 0.007049 -0.021770 0.010132 0.131760 -0.081523 -0.127859 -0.162999 -0.075121 0.070645 0.014213 -0.148299 0.006108 0.141626 -0.350946 -0.057520 -0.057779 0.041305 0.144613 -0.173790 0.058785 0.138969 -0.103791 -0.205393 0.029947 -0.033836 -0.010147 0.017759 0.017665 0.111215 -0.006466 -0.202062 0.097205 0.222997 0.053197 0.074787 0.199530 0.086507 0.004248 0.150135 -0.033359 -0.067667 0.023045 -0.105103 -0.170205 -0.098565 0.056019 -0.087495 -0.067176 0.001445 0.286104 -0.095894 0.177175 -0.090189 -0.119149 -0.078782 -0.008065 0.015424 0.175481 -0.102432 -0.106987 0.126424 0.076585 0.038542 0.015686 0.057557 -0.041612 -0.064014 -0.149656 -0.154440 0.032654 0.011861 -0.032498
J18 -0.027354 0.135704 0.147299 0.092760 0.093944 -0.074181 0.083465 0.023640 0.033650 -0.135820 -0.133756 0.047088 -0.183876 -0.074088 -0.026340 -0.084554 0.073015 0.055624 -0.259644 -0.090474 0.095145 0.049915 -0.003234 0.088895 0.023351 0.242177 0.050456 -0.176296 0.029756 0.154641 -0.114179 -0.045609 -0.123417 0.206921 0.003573 0.118201 0.205256 -0.001185 -0.004793 0.029036 -0.153093 -0.157311 -0.084303 0.077459 -0.101161 -0.090345 -0.123176 -0.125390 -0.048417 -0.083928 -0.052373 0.074014 -0.131676 0.247246 -0.018988 0.065960 -0.019386 0.013086 0.030883 0.112467 -0.021993 -0.080180 -0.171459 -0.091803 0.052546 0.027452 -0.128779 -0.038408 0.141048 -0.290311 -0.051180 -0.089349 0.013486 0.152081 -0.136316 0.024496 0.086451 -0.078610 -0.201923 0.031740 -0.034004 -0.009810 0.029093 -0.001300 0.089169 -0.002940 -0.202246 0.128946 0.201070 0.037176 0.058748 0.152466 0.104687 0.015748 0.148006 -0.032973 -0.053207 0.043262 -0.078725 -0.135912 -0.056732 0.076653 -0.038250 -0.037301 -0.000323 0.271319 -0.069886 0.077556 -0.120794 -0.120721 -0.094687 0.020939 -0.010702 0.182788 -0.110421 -0.052857 0.102242 0.047558 0.042665 0.015122 0.041097 -0.066290 -0.096063 -0.140284 -0.117933 0.018282 0.006186 -0.033252
J26 0.016879 0.012843 0.115856 0.126700 0.090162 -0.052425 0.090214 0.059218 0.016436 -0.145883 -0.186158 -0.017072 -0.199500 -0.051925 -0.031287 -0.173814 0.128295 0.031592 -0.251690 -0.089693 0.025265 -0.039617 -0.082288 0.019165 0.055012 0.247364 0.041328 -0.102235 0.060365 0.117577 -0.126165 -0.028581 -0.090832 0.262302 -0.033241 0.080986 0.232113 -0.051019 0.020312 0.070136 -0.049520 -0.103760 -0.089750 0.121708 -0.055246 -0.011162 0.013707 -0.039825 -0.077371 0.005277 0.015872 0.098044 -0.060778 0.321448 -0.040136 0.072444 -0.081416 0.107995 0.086548 0.046353 0.128800 0.044616 -0.188873 -0.121599 0.009144 0.056093 -0.069705 -0.122381 0.175130 -0.144400 -0.035539 -0.143296 -0.050397 0.153718 -0.070488 -0.063025 -0.043157 -0.014580 -0.185812 0.021710 -0.057648 0.017130 0.058511 -0.030360 0.029864 0.013910 -0.215494 0.217993 0.160325 0.012154 0.046709 0.055633 0.135030 0.043380 0.150628 -0.043501 -0.006425 0.066417 -0.005608 -0.053863 0.028871 0.110857 0.065625 0.028673 -0.026675 0.245358 -0.002522 -0.157376 -0.202566 -0.121156 -0.147971 0.089127 -0.088602 0.206847 -0.133209 0.073537 0.050433 -0.039505 0.045828 0.024726 -0.010969 -0.106803 -0.169501 -0.121232 -0.056820 -0.029811 -0.010871 -0.055347
J13 -0.021796 0.131817 0.142528 0.089605 0.093123 -0.075568 0.083892 0.027878 0.032258 -0.137397 -0.132619 0.047222 -0.187092 -0.068718 -0.020884 -0.087293 0.079954 0.059842 -0.263902 -0.093186 0.094357 0.042117 -0.007069 0.093513 0.020943 0.232576 0.052003 -0.173128 0.027386 0.157331 -0.116148 -0.049008 -0.121057 0.210158 0.005370 0.110604 0.204817 0.006686 -0.002215 0.021567 -0.149509 -0.156536 -0.084878 0.082826 -0.096854 -0.090344 -0.115862 -0.118430 -0.046730 -0.078194 -0.045052 0.068736 -0.125220 0.240417 -0.023220 0.060444 -0.022573 0.012398 0.030412 0.106941 -0.023441 -0.071676 -0.169486 -0.087482 0.051087 0.034943 -0.123698 -0.032030 0.138479 -0.283545 -0.047708 -0.084581 0.013766 0.142193 -0.138773 0.027867 0.081132 -0.071594 -0.195915 0.027517 -0.032321 -0.004803 0.031327 0.004346 0.078646 -0.008731 -0.196748 0.123928 0.195828 0.041168 0.058070 0.154062 0.098793 0.017191 0.149151 -0.037177 -0.052645 0.041429 -0.081296 -0.131925 -0.055729 0.072207 -0.038412 -0.034023 -0.006697 0.263782 -0.064874 0.075412 -0.113473 -0.114083 -0.092233 0.021186 -0.013488 0.184250 -0.104296 -0.057238 0.099039 0.042412 0.041698 0.018101 0.039218 -0.060745 -0.092952 -0.138497 -0.116118 0.018930 0.001172 -0.038637
J29 0.007880 0.036582 0.123098 0.120982 0.088400 -0.064254 0.088284 0.051946 0.020003 -0.139290 -0.169744 -0.006989 -0.195736 -0.049106 -0.032049 -0.150062 0.112174 0.036061 -0.261401 -0.093470 0.040778 -0.018544 -0.062945 0.039572 0.044007 0.250231 0.043531 -0.130720 0.050820 0.132879 -0.120705 -0.031380 -0.099710 0.245911 -0.019544 0.089946 0.226846 -0.045151 0.016918 0.057859 -0.076574 -0.115954 -0.083543 0.112160 -0.069928 -0.024601 -0.025620 -0.054669 -0.070481 -0.016543 0.003600 0.088399 -0.082332 0.303325 -0.036888 0.067718 -0.070033 0.080402 0.074652 0.067677 0.091954 0.017559 -0.181426 -0.115797 0.019602 0.049990 -0.082900 -0.098921 0.162987 -0.187411 -0.035242 -0.125614 -0.031570 0.148180 -0.091528 -0.037150 -0.007868 -0.034648 -0.186177 0.024914 -0.053559 0.010446 0.053572 -0.018512 0.044616 0.007415 -0.205865 0.195964 0.172546 0.018722 0.050347 0.076885 0.130345 0.034165 0.153813 -0.039963 -0.018186 0.065799 -0.027359 -0.072999 0.010422 0.101497 0.035914 0.013772 -0.018524 0.253658 -0.018867 -0.093035 -0.182764 -0.118616 -0.136124 0.071043 -0.075678 0.202269 -0.122540 0.034579 0.066441 -0.016954 0.044891 0.024741 0.006428 -0.095774 -0.153662 -0.127871 -0.071856 -0.020489 -0.005069 -0.043203
J5 -0.052447 0.186094 0.164286 0.079688 0.097797 -0.076522 0.085161 -0.001342 0.037114 -0.133059 -0.106760 0.065545 -0.185275 -0.086852 -0.025059 -0.059906 0.065643 0.066967 -0.271523 -0.090980 0.116988 0.088541 0.030024 0.103773 0.012411 0.242582 0.048068 -0.197644 0.012021 0.168443 -0.107965 -0.054726 -0.138396 0.202302 0.015029 0.132316 0.203791 0.022694 -0.015673 0.015440 -0.206540 -0.168846 -0.087403 0.067767 -0.118316 -0.124620 -0.164520 -0.153063 -0.046167 -0.120463 -0.074228 0.067364 -0.167380 0.227702 -0.007196 0.052040 0.005832 -0.017385 0.003268 0.127490 -0.079708 -0.122511 -0.174623 -0.086504 0.073693 0.016643 -0.150282 -0.002174 0.147574 -0.345619 -0.061542 -0.066866 0.029318 0.149029 -0.164116 0.061815 0.132123 -0.094938 -0.211670 0.022746 -0.036161 -0.014005 0.019587 0.011998 0.109296 0.001355 -0.205410 0.102136 0.229611 0.054098 0.069654 0.198704 0.091777 0.007367 0.148228 -0.033793 -0.072879 0.025125 -0.100701 -0.169404 -0.098257 0.059310 -0.074017 -0.057645 0.000707 0.288791 -0.090477 0.170959 -0.092763 -0.118305 -0.076660 -0.000856 0.017239 0.183214 -0.103216 -0.102204 0.121694 0.070853 0.040066 0.013309 0.059589 -0.050125 -0.061550 -0.146259 -0.152233 0.036454 0.008221 -0.038528
J16 0.012571 0.033023 0.122093 0.125802 0.099097 -0.062583 0.094616 0.051628 0.020066 -0.145953 -0.175788 -0.006997 -0.194867 -0.054485 -0.035479 -0.156438 0.115573 0.039253 -0.269494 -0.096188 0.049769 -0.020236 -0.062882 0.040137 0.038629 0.254240 0.044585 -0.130500 0.047624 0.136673 -0.131820 -0.029441 -0.096509 0.254180 -0.018589 0.091909 0.230831 -0.042464 0.019746 0.051704 -0.073946 -0.123731 -0.088258 0.113863 -0.068795 -0.026850 -0.019218 -0.059710 -0.069497 -0.022412 -0.004107 0.091517 -0.083091 0.307690 -0.031097 0.071706 -0.071348 0.080132 0.080204 0.062402 0.089065 0.017549 -0.185241 -0.119129 0.023779 0.056250 -0.085885 -0.098267 0.167915 -0.187543 -0.041571 -0.129054 -0.038139 0.153868 -0.095361 -0.042962 -0.007444 -0.026229 -0.196309 0.020733 -0.060925 0.010344 0.054192 -0.016706 0.045541 0.012362 -0.212951 0.195524 0.180031 0.026798 0.054066 0.081616 0.129663 0.032685 0.156574 -0.040858 -0.012751 0.069484 -0.023948 -0.072266 0.007720 0.106489 0.034611 0.008659 -0.018173 0.262752 -0.022035 -0.102320 -0.187216 -0.118065 -0.143593 0.071364 -0.072482 0.205060 -0.129888 0.041055 0.064032 -0.016615 0.044010 0.024504 -0.000041 -0.098925 -0.157517 -0.128057 -0.076051 -0.016449 -0.009816 -0.048875
J15 0.025807 -0.012728 0.109954 0.136256 0.094439 -0.061496 0.099319 0.076608 0.013443 -0.154153 -0.198572 -0.027586 -0.205109 -0.040423 -0.034999 -0.186936 0.138938 0.029377 -0.269838 -0.095234 0.020522 -0.056772 -0.102784 0.014653 0.054170 0.259866 0.042268 -0.101376 0.065422 0.125435 -0.134992 -0.025160 -0.079238 0.271845 -0.031126 0.079118 0.239333 -0.067097 0.026210 0.072146 -0.023233 -0.104671 -0.095105 0.133536 -0.048014 0.006420 0.034371 -0.019628 -0.081939 0.015394 0.029218 0.104093 -0.053766 0.337120 -0.044739 0.073091 -0.096189 0.119040 0.105826 0.036091 0.154887 0.061138 -0.189689 -0.133452 -0.002431 0.070215 -0.063984 -0.131405 0.178423 -0.127847 -0.033649 -0.147566 -0.058000 0.159304 -0.062082 -0.074284 -0.057106 0.000775 -0.184886 0.022792 -0.071433 0.016625 0.066703 -0.031998 0.019401 0.015494 -0.218650 0.233978 0.158302 0.012756 0.043831 0.036100 0.150742 0.044124 0.160042 -0.043499 0.002524 0.076474 0.008747 -0.038350 0.041899 0.125757 0.081387 0.041011 -0.024753 0.251683 0.004036 -0.198805 -0.222163 -0.121454 -0.161347 0.098124 -0.113719 0.219420 -0.134090 0.087003 0.039004 -0.047863 0.040513 0.023064 -0.012098 -0.113671 -0.185625 -0.127019 -0.045571 -0.036126 -0.011856 -0.050447
J31 0.010925 0.025456 0.115297 0.120071 0.096927 -0.065630 0.089838 0.059454 0.018934 -0.147490 -0.175638 -0.003132 -0.195343 -0.051538 -0.033206 -0.154575 0.119586 0.035931 -0.263216 -0.093112 0.037058 -0.024368 -0.066837 0.038382 0.044868 0.247715 0.039947 -0.120048 0.058035 0.127780 -0.129676 -0.025575 -0.095738 0.250299 -0.025471 0.089233 0.228852 -0.042398 0.022228 0.055989 -0.062123 -0.117836 -0.087039 0.110576 -0.064639 -0.017627 -0.012415 -0.045350 -0.074393 -0.012242 0.001538 0.097826 -0.077550 0.309297 -0.035373 0.072180 -0.071020 0.087094 0.083937 0.059666 0.100117 0.026622 -0.181509 -0.117094 0.017729 0.052839 -0.084908 -0.098497 0.162729 -0.173857 -0.036593 -0.132208 -0.041763 0.152697 -0.082556 -0.046673 -0.017402 -0.021721 -0.189881 0.024809 -0.060065 0.009510 0.056550 -0.023295 0.035234 0.008880 -0.204156 0.200107 0.170558 0.024851 0.045297 0.064966 0.130464 0.034815 0.157297 -0.037539 -0.014047 0.065634 -0.021800 -0.067284 0.011322 0.105810 0.045847 0.018143 -0.021277 0.253588 -0.020564 -0.118487 -0.194870 -0.120108 -0.141214 0.072085 -0.084066 0.207803 -0.127597 0.045760 0.055555 -0.018620 0.037149 0.018789 -0.003955 -0.096430 -0.161337 -0.129186 -0.070431 -0.017298 -0.006232 -0.051059
J19 0.025983 -0.004817 0.103379 0.133530 0.095376 -0.060585 0.087148 0.066998 0.017984 -0.145457 -0.185228 -0.016767 -0.198854 -0.041584 -0.034411 -0.176861 0.129428 0.032049 -0.263413 -0.098244 0.023510 -0.042819 -0.082478 0.019227 0.046224 0.245853 0.038316 -0.104624 0.065631 0.124410 -0.136030 -0.022644 -0.084986 0.261701 -0.029978 0.083725 0.234690 -0.060123 0.023958 0.061238 -0.040324 -0.102937 -0.093709 0.123052 -0.055074 -0.005935 0.017262 -0.027888 -0.075274 0.007731 0.020666 0.104049 -0.065410 0.322045 -0.038959 0.069499 -0.086395 0.104494 0.091943 0.049708 0.128169 0.049655 -0.189282 -0.123199 0.009085 0.058373 -0.068156 -0.116389 0.170958 -0.142970 -0.035551 -0.140721 -0.051904 0.151232 -0.072780 -0.067001 -0.046794 -0.010028 -0.182395 0.026037 -0.063571 0.015557 0.064053 -0.025533 0.022854 0.014003 -0.209904 0.218768 0.162965 0.020540 0.048364 0.046772 0.138182 0.044765 0.155103 -0.042563 -0.000141 0.074172 0.000636 -0.047405 0.035802 0.116159 0.065758 0.032311 -0.027251 0.246317 -0.005016 -0.167997 -0.213241 -0.116643 -0.154945 0.088235 -0.097071 0.210225 -0.131067 0.069939 0.047426 -0.036403 0.037776 0.021560 -0.015922 -0.108978 -0.177177 -0.122431 -0.051303 -0.029511 -0.011200 -0.052076
J27 0.027871 -0.007672 0.105733 0.142962 0.100969 -0.053742 0.096263 0.066191 0.022190 -0.150751 -0.202853 -0.025919 -0.207429 -0.044466 -0.044330 -0.190915 0.139231 0.033077 -0.274122 -0.095249 0.018426 -0.051845 -0.095748 0.006928 0.054406 0.261524 0.042274 -0.102452 0.068974 0.125482 -0.138752 -0.022975 -0.079984 0.272180 -0.039045 0.083008 0.247521 -0.070781 0.024957 0.072815 -0.038299 -0.103826 -0.099052 0.130618 -0.058005 0.005060 0.027128 -0.024393 -0.088723 0.009390 0.019895 0.111008 -0.065342 0.343078 -0.034422 0.071931 -0.095510 0.123448 0.101928 0.035994 0.149605 0.059506 -0.199126 -0.125387 0.001851 0.061480 -0.068843 -0.131838 0.179044 -0.137078 -0.036173 -0.150667 -0.066175 0.164026 -0.072376 -0.074550 -0.054375 -0.000856 -0.192199 0.023990 -0.071050 0.022314 0.072422 -0.028894 0.029370 0.015596 -0.223577 0.230436 0.169249 0.019498 0.045448 0.035985 0.149214 0.049992 0.163806 -0.045418 0.000420 0.069217 0.004628 -0.050863 0.037431 0.125600 0.073019 0.035920 -0.019638 0.258078 0.002143 -0.187190 -0.230378 -0.124110 -0.168144 0.099132 -0.103961 0.221623 -0.135836 0.091948 0.039427 -0.049193 0.036955 0.025935 -0.014881 -0.114198 -0.182934 -0.124969 -0.057888 -0.038006 -0.012076 -0.053048
J17 -0.054508 0.203379 0.151623 0.071500 0.084923 -0.081406 0.067331 -0.018367 0.029676 -0.119690 -0.084099 0.073551 -0.172314 -0.077404 -0.019551 -0.029297 0.041255 0.058374 -0.249094 -0.089593 0.120322 0.105495 0.048830 0.116804 0.007752 0.221630 0.042692 -0.206401 -0.002101 0.170878 -0.099159 -0.057507 -0.133026 0.166534 0.028090 0.130519 0.188237 0.031779 -0.011952 0.017218 -0.222398 -0.165727 -0.074876 0.051596 -0.125352 -0.132647 -0.196437 -0.170835 -0.037646 -0.134349 -0.080304 0.055227 -0.176277 0.190745 0.003920 0.049765 0.024993 -0.035149 -0.001267 0.140556 -0.106817 -0.149769 -0.151530 -0.064488 0.076078 0.001410 -0.155303 0.027264 0.129251 -0.361786 -0.055439 -0.043775 0.047159 0.133406 -0.177737 0.078567 0.152529 -0.108724 -0.194722 0.024451 -0.026178 -0.007604 0.015067 0.024950 0.118018 -0.008931 -0.184625 0.071717 0.227629 0.064580 0.077022 0.217664 0.074827 0.000168 0.135547 -0.038973 -0.082340 0.014651 -0.116273 -0.174872 -0.116310 0.040412 -0.101565 -0.077134 0.004012 0.278013 -0.105168 0.222911 -0.063498 -0.107196 -0.068543 -0.023020 0.036631 0.162937 -0.095486 -0.127946 0.127519 0.093739 0.034305 0.009616 0.060616 -0.024010 -0.042570 -0.141156 -0.161630 0.044018 0.013680 -0.033154
J12 -0.039499 0.176434 0.161090 0.081410 0.097688 -0.084835 0.088900 0.011141 0.034957 -0.143359 -0.119045 0.060624 -0.187176 -0.084067 -0.020579 -0.070077 0.072974 0.070398 -0.276191 -0.100122 0.111705 0.076478 0.019684 0.114225 0.017194 0.244425 0.058764 -0.196791 0.014296 0.176509 -0.113132 -0.054960 -0.132766 0.202818 0.012835 0.130343 0.205759 0.018159 -0.012230 0.011945 -0.194465 -0.178144 -0.083941 0.073289 -0.114970 -0.123708 -0.155688 -0.152411 -0.041609 -0.107717 -0.067141 0.066286 -0.156968 0.238283 -0.016125 0.061345 -0.004105 -0.014536 0.007722 0.127980 -0.070235 -0.118549 -0.173206 -0.084923 0.067492 0.027402 -0.148166 -0.012268 0.139834 -0.336942 -0.056477 -0.076558 0.026535 0.150843 -0.164288 0.052257 0.118748 -0.098359 -0.209067 0.026618 -0.033774 -0.013151 0.016466 0.008213 0.102738 -0.010222 -0.207623 0.110535 0.221826 0.048708 0.068137 0.190940 0.092721 0.007697 0.155515 -0.036481 -0.068052 0.033985 -0.103483 -0.162332 -0.083920 0.065248 -0.071454 -0.053869 -0.001331 0.282115 -0.088597 0.153262 -0.096229 -0.121772 -0.081660 0.004480 0.007940 0.183926 -0.103749 -0.092846 0.121760 0.064611 0.041152 0.010631 0.056494 -0.052933 -0.075373 -0.145826 -0.139498 0.035035 0.002683 -0.035738
J21 0.014187 0.028239 0.113971 0.127970 0.096312 -0.064676 0.090481 0.055639 0.021223 -0.139033 -0.178764 -0.012496 -0.195893 -0.045923 -0.036761 -0.161171 0.119309 0.035284 -0.263619 -0.090123 0.038149 -0.027793 -0.069657 0.035295 0.040414 0.248697 0.041588 -0.117118 0.052334 0.133728 -0.129223 -0.026671 -0.089978 0.241579 -0.026995 0.087855 0.224758 -0.051397 0.023900 0.053477 -0.058963 -0.112239 -0.087959 0.112489 -0.065362 -0.023834 -0.011992 -0.046987 -0.073283 -0.013443 0.006807 0.097180 -0.075063 0.304723 -0.034478 0.070719 -0.075722 0.091050 0.077578 0.058670 0.105733 0.027379 -0.180257 -0.113226 0.009579 0.056033 -0.078862 -0.102341 0.159600 -0.167740 -0.039049 -0.125261 -0.041103 0.151863 -0.088415 -0.047631 -0.019185 -0.025828 -0.182459 0.030419 -0.059802 0.016527 0.055801 -0.023687 0.043299 0.013512 -0.208848 0.200775 0.171560 0.024586 0.044984 0.066894 0.134093 0.033955 0.153775 -0.035731 -0.008141 0.069116 -0.021422 -0.067206 0.017040 0.104459 0.043256 0.011491 -0.020007 0.249540 -0.018830 -0.115639 -0.193210 -0.114902 -0.142288 0.077577 -0.081305 0.204419 -0.121976 0.046036 0.058221 -0.020926 0.037232 0.024694 -0.002236 -0.102331 -0.163752 -0.128255 -0.071259 -0.019217 -0.010341 -0.049771
J10 0.004415 0.050213 0.127287 0.116633 0.090836 -0.066098 0.084836 0.047284 0.022651 -0.141808 -0.162808 0.002017 -0.190910 -0.053085 -0.029168 -0.144596 0.112259 0.048162 -0.266571 -0.095165 0.053397 -0.005772 -0.054184 0.045746 0.037722 0.249096 0.041887 -0.138051 0.045088 0.132315 -0.121102 -0.035613 -0.096040 0.242323 -0.013632 0.097040 0.225651 -0.037840 0.014041 0.047671 -0.085892 -0.123978 -0.089184 0.108315 -0.076941 -0.040211 -0.039349 -0.066439 -0.066647 -0.030961 -0.009040 0.089674 -0.092194 0.294352 -0.030348 0.065628 -0.056102 0.065854 0.064930 0.069675 0.072480 -0.004302 -0.182893 -0.106519 0.024672 0.046358 -0.093778 -0.087969 0.162642 -0.202160 -0.038210 -0.121737 -0.027242 0.152801 -0.096095 -0.024651 0.004487 -0.039663 -0.193072 0.028824 -0.055480 0.008145 0.048447 -0.014705 0.052554 0.006648 -0.208622 0.186395 0.180882 0.023264 0.051826 0.087980 0.125515 0.029035 0.151773 -0.034162 -0.019621 0.059989 -0.033917 -0.084204 -0.003325 0.096785 0.025770 0.003377 -0.011816 0.252517 -0.028375 -0.067933 -0.176498 -0.119322 -0.128022 0.063558 -0.065752 0.196733 -0.121709 0.020146 0.070576 -0.002327 0.040779 0.024773 0.010730 -0.094589 -0.138171 -0.130764 -0.078050 -0.013536 -0.008698 -0.047051
