11 128
1 -0.122597 -0.217386 0.108914 -0.085414 -0.025344 -0.084788 -0.014953 0.074827 0.089724 0.092674 -0.089700 0.052183 -0.006794 -0.057422 0.055514 -0.123842 0.020582 -0.006660 0.154811 -0.035585 0.043575 0.050922 0.062654 -0.090196 -0.032162 0.132393 0.068024 0.138192 -0.022106 0.012390 -0.076760 0.114824 -0.022588 0.041672 0.004589 -0.091070 0.061869 -0.004605 0.110318 0.053890 -0.104945 -0.071270 0.032111 0.149172 -0.051464 0.063579 -0.068156 0.006691 -0.014676 0.082207 -0.175870 0.053777 0.041027 0.136275 -0.149473 -0.048935 -0.119031 0.053770 -0.137955 -0.044711 0.037185 -0.170013 -0.072586 0.068799 -0.037693 -0.053301 0.083544 -0.017273 -0.020271 -0.063851 -0.056649 -0.056580 0.053013 -0.036234 0.017052 -0.026285 0.021388 -0.029665 -0.016285 -0.065602 0.033998 -0.145770 -0.096978 -0.103199 -0.205366 0.059921 0.074307 -0.007530 0.042662 -0.027287 0.091475 -0.071860 0.029851 -0.008698 -0.032558 -0.150699 0.009253 -0.175916 0.002663 -0.010131 -0.024000 -0.052683 -0.090072 -0.013689 0.110650 -0.024516 0.128047 -0.045882 -0.088331 -0.128578 -0.113212 0.005680 0.066367 0.090138 -0.127260 -0.002986 -0.059495 0.101976 -0.151955 -0.073408 -0.076742 -0.083906 0.046420 0.024803 -0.007871 -0.097450 -0.021058 -0.002238
8 -0.123139 -0.223957 0.111483 -0.084375 -0.030058 -0.082447 -0.013737 0.075419 0.089301 0.096710 -0.091293 0.054963 -0.012493 -0.057065 0.062484 -0.127694 0.020565 -0.004860 0.160329 -0.033726 0.041995 0.053038 0.064230 -0.097873 -0.033642 0.138352 0.067105 0.140717 -0.027179 0.016900 -0.075028 0.116263 -0.022832 0.043099 0.006239 -0.090808 0.071174 -0.003682 0.112559 0.063803 -0.106018 -0.070862 0.029641 0.154470 -0.050878 0.071022 -0.069244 0.006174 -0.020903 0.084114 -0.179646 0.050346 0.046410 0.137693 -0.152636 -0.052316 -0.125386 0.052224 -0.142044 -0.049511 0.033953 -0.174379 -0.070166 0.072639 -0.035320 -0.058045 0.088040 -0.021250 -0.017622 -0.068897 -0.059690 -0.055754 0.048172 -0.036446 0.020698 -0.023764 0.016560 -0.029155 -0.020254 -0.063895 0.039614 -0.149165 -0.103486 -0.101687 -0.213446 0.068184 0.080366 -0.006562 0.042766 -0.031911 0.094697 -0.077031 0.029606 -0.007287 -0.033246 -0.157718 0.009789 -0.182054 -0.002320 -0.013312 -0.019858 -0.060028 -0.098695 -0.013650 0.113885 -0.032162 0.131310 -0.052213 -0.090305 -0.136153 -0.118870 0.010872 0.068837 0.088739 -0.132771 0.001710 -0.066721 0.102927 -0.157082 -0.073723 -0.080308 -0.092110 0.054699 0.024934 -0.005998 -0.102498 -0.018294 -0.005369
12 -0.138850 -0.243421 0.118567 -0.096183 -0.031012 -0.094541 -0.019109 0.077655 0.094742 0.105097 -0.094498 0.062706 -0.009516 -0.059839 0.063468 -0.133094 0.016638 -0.005563 0.171094 -0.043844 0.050835 0.060005 0.070671 -0.102598 -0.041065 0.143574 0.076758 0.153362 -0.024392 0.012488 -0.081375 0.127350 -0.027867 0.046483 0.007668 -0.095019 0.070792 -0.000003 0.120020 0.063496 -0.114656 -0.076516 0.036792 0.162127 -0.058144 0.076729 -0.070510 0.007468 -0.021929 0.087256 -0.194982 0.060458 0.045560 0.144569 -0.168434 -0.059399 -0.130880 0.057958 -0.152355 -0.048243 0.044329 -0.184511 -0.081600 0.079773 -0.045200 -0.058957 0.092848 -0.020080 -0.015734 -0.067375 -0.059213 -0.057912 0.057880 -0.039673 0.021713 -0.027398 0.027434 -0.028533 -0.018759 -0.066750 0.037141 -0.158236 -0.110293 -0.116096 -0.230455 0.072727 0.083116 -0.008781 0.042814 -0.033793 0.100864 -0.076590 0.031575 -0.011717 -0.032784 -0.169438 0.014192 -0.198014 0.001639 -0.011687 -0.028720 -0.063045 -0.101367 -0.013386 0.121503 -0.032544 0.141791 -0.053968 -0.092239 -0.146776 -0.128332 0.007217 0.071981 0.101480 -0.138600 0.000558 -0.069237 0.117072 -0.169865 -0.085315 -0.086464 -0.096804 0.056051 0.029433 -0.009193 -0.108082 -0.029133 -0.002029
9 -0.125201 -0.220314 0.106284 -0.086565 -0.026335 -0.084981 -0.016707 0.076690 0.092854 0.092404 -0.089850 0.057699 -0.008569 -0.060741 0.058130 -0.126093 0.016303 -0.003177 0.154289 -0.035784 0.041454 0.056271 0.068748 -0.096172 -0.036884 0.136467 0.066313 0.134575 -0.025770 0.015489 -0.073217 0.118575 -0.025446 0.038334 0.011052 -0.091859 0.070131 -0.002637 0.105099 0.060856 -0.107979 -0.074505 0.034256 0.154592 -0.054768 0.066019 -0.065872 0.006010 -0.019815 0.078446 -0.180152 0.054141 0.039023 0.136307 -0.146136 -0.053651 -0.122617 0.054359 -0.141104 -0.049154 0.037543 -0.171338 -0.073325 0.073070 -0.036656 -0.055753 0.084818 -0.019097 -0.018217 -0.065648 -0.056055 -0.050728 0.053551 -0.038075 0.024939 -0.026393 0.017390 -0.025417 -0.021957 -0.062492 0.038602 -0.146454 -0.102552 -0.107933 -0.211289 0.063174 0.077879 -0.007774 0.040333 -0.026872 0.094724 -0.075819 0.034169 -0.004464 -0.032504 -0.157465 0.012864 -0.177492 0.000827 -0.007877 -0.026427 -0.058211 -0.096854 -0.010709 0.110906 -0.026777 0.128212 -0.044298 -0.092388 -0.135815 -0.111449 0.008591 0.069408 0.088856 -0.128337 -0.005013 -0.068031 0.107705 -0.155882 -0.071438 -0.078927 -0.090302 0.049476 0.023893 -0.009831 -0.095859 -0.021814 -0.000369
11 -0.136578 -0.238924 0.118729 -0.091026 -0.026701 -0.093239 -0.019365 0.082828 0.098428 0.097656 -0.096506 0.058444 -0.010883 -0.058268 0.065674 -0.136598 0.018402 -0.007556 0.167520 -0.043508 0.050831 0.054789 0.070052 -0.098357 -0.038205 0.139764 0.071868 0.150338 -0.027129 0.009792 -0.079653 0.123501 -0.022140 0.040622 0.007911 -0.092433 0.073540 0.000178 0.118877 0.064211 -0.109770 -0.072618 0.038806 0.160154 -0.057431 0.074104 -0.068220 0.010467 -0.020217 0.089830 -0.188481 0.059326 0.045403 0.145477 -0.163312 -0.058269 -0.128258 0.059592 -0.153183 -0.047235 0.040687 -0.185182 -0.074470 0.078769 -0.044557 -0.057245 0.085674 -0.020283 -0.016296 -0.073217 -0.060403 -0.060271 0.053099 -0.040890 0.023571 -0.026393 0.024686 -0.034225 -0.021766 -0.070486 0.039131 -0.153085 -0.107178 -0.113105 -0.227449 0.067227 0.085846 -0.007629 0.046357 -0.029818 0.097817 -0.080552 0.032834 -0.006906 -0.031900 -0.167209 0.013759 -0.192858 -0.000479 -0.007780 -0.021183 -0.055108 -0.100563 -0.013457 0.117966 -0.029949 0.141221 -0.055351 -0.091783 -0.143892 -0.123396 0.010933 0.066950 0.095576 -0.138146 -0.003851 -0.069220 0.114171 -0.165392 -0.083262 -0.082242 -0.095140 0.057243 0.023490 -0.009892 -0.109757 -0.026674 -0.001766
13 -0.131590 -0.239361 0.119129 -0.095579 -0.030590 -0.092785 -0.015578 0.077917 0.096703 0.104876 -0.100027 0.056876 -0.007715 -0.064810 0.065042 -0.135478 0.016694 -0.007485 0.167420 -0.042456 0.052510 0.057368 0.066160 -0.100034 -0.041606 0.145516 0.077538 0.153408 -0.024917 0.014494 -0.083968 0.127093 -0.025809 0.043178 0.007455 -0.099552 0.076213 0.001105 0.119047 0.061747 -0.112179 -0.076095 0.034311 0.165187 -0.056407 0.077285 -0.070754 0.009228 -0.021435 0.090495 -0.195489 0.060124 0.048081 0.149504 -0.166294 -0.058934 -0.134471 0.054994 -0.149426 -0.053253 0.043443 -0.184639 -0.079827 0.074921 -0.039139 -0.062013 0.088292 -0.022580 -0.015239 -0.074297 -0.065519 -0.060071 0.055034 -0.042395 0.023658 -0.029410 0.021433 -0.032441 -0.022743 -0.072198 0.038675 -0.161139 -0.108143 -0.114816 -0.230858 0.070182 0.086411 -0.008860 0.042434 -0.027542 0.104809 -0.081407 0.030294 -0.013410 -0.033987 -0.168589 0.011451 -0.196976 -0.002430 -0.011763 -0.022154 -0.060549 -0.103319 -0.013223 0.119213 -0.033051 0.143644 -0.055107 -0.096016 -0.147367 -0.121345 0.007540 0.071210 0.101258 -0.142121 -0.004596 -0.072191 0.116341 -0.165147 -0.083140 -0.083794 -0.093258 0.058796 0.027619 -0.008678 -0.105565 -0.022903 0.000510
14 -0.131917 -0.234413 0.118235 -0.092779 -0.025973 -0.087803 -0.018804 0.077106 0.091201 0.100034 -0.098801 0.059199 -0.011007 -0.059943 0.062433 -0.129912 0.021194 -0.006142 0.164432 -0.040974 0.049775 0.059508 0.067727 -0.095423 -0.038389 0.142575 0.073972 0.149471 -0.029339 0.016930 -0.076458 0.122048 -0.025314 0.045894 0.009961 -0.095281 0.069395 -0.002396 0.113041 0.060808 -0.113405 -0.073847 0.035759 0.161030 -0.055059 0.072605 -0.068107 0.010843 -0.019056 0.089397 -0.187949 0.055687 0.042828 0.144473 -0.157410 -0.056601 -0.130269 0.060382 -0.149956 -0.051219 0.038958 -0.182423 -0.071961 0.072110 -0.043564 -0.054737 0.089366 -0.022302 -0.018185 -0.071325 -0.063625 -0.053738 0.049807 -0.035046 0.025505 -0.023544 0.022658 -0.030990 -0.020452 -0.070989 0.035777 -0.152388 -0.101537 -0.105643 -0.223207 0.070789 0.080250 -0.009462 0.046572 -0.031029 0.096505 -0.078804 0.032145 -0.009849 -0.035297 -0.157699 0.008806 -0.183485 0.003328 -0.009955 -0.026852 -0.058137 -0.099523 -0.010498 0.112864 -0.025889 0.140079 -0.047202 -0.096587 -0.140244 -0.123852 0.005626 0.067247 0.096454 -0.131182 -0.003576 -0.070397 0.108910 -0.162751 -0.076847 -0.081479 -0.095151 0.053131 0.021479 -0.005727 -0.106068 -0.025705 -0.001898
18 -0.124730 -0.225750 0.107672 -0.088197 -0.025700 -0.087413 -0.019308 0.078518 0.093220 0.099433 -0.094167 0.059017 -0.006238 -0.059085 0.062105 -0.131533 0.017203 -0.003962 0.155979 -0.032868 0.049584 0.054113 0.070518 -0.094936 -0.032880 0.141800 0.069549 0.141144 -0.023773 0.015919 -0.076184 0.120034 -0.021857 0.044535 0.009638 -0.094190 0.068708 -0.003125 0.111538 0.062875 -0.109012 -0.068732 0.028928 0.153992 -0.054055 0.072840 -0.071202 0.008885 -0.016902 0.081038 -0.182484 0.050285 0.045986 0.142398 -0.153080 -0.049970 -0.123713 0.051358 -0.145541 -0.050350 0.039800 -0.178649 -0.071647 0.072980 -0.035728 -0.055149 0.085672 -0.021416 -0.013955 -0.064386 -0.062846 -0.054442 0.053533 -0.041587 0.025774 -0.021632 0.023160 -0.026884 -0.018124 -0.066462 0.033193 -0.147076 -0.098674 -0.109202 -0.217813 0.067868 0.082983 -0.008301 0.040655 -0.026340 0.096095 -0.079596 0.035021 -0.011885 -0.036932 -0.155641 0.008499 -0.178227 0.001713 -0.012878 -0.023826 -0.054653 -0.097534 -0.010704 0.113621 -0.026510 0.130007 -0.052371 -0.092573 -0.138834 -0.119329 0.005785 0.065296 0.089892 -0.130632 -0.004994 -0.067008 0.103437 -0.154158 -0.076382 -0.080081 -0.095015 0.051793 0.022092 -0.004325 -0.105734 -0.025542 -0.004495
20 -0.131770 -0.235503 0.115417 -0.089800 -0.031094 -0.093502 -0.013280 0.080855 0.091353 0.097748 -0.098105 0.055289 -0.005519 -0.060762 0.061243 -0.133229 0.016415 -0.004783 0.163575 -0.041843 0.049835 0.054360 0.070989 -0.098098 -0.035628 0.144902 0.075748 0.146153 -0.024527 0.010996 -0.082313 0.120926 -0.023107 0.042792 0.009975 -0.093258 0.074712 -0.005371 0.112993 0.057533 -0.114742 -0.076727 0.031525 0.160065 -0.053401 0.072083 -0.066964 0.008749 -0.017950 0.083740 -0.191843 0.056460 0.047095 0.140339 -0.160007 -0.054643 -0.127941 0.053111 -0.151687 -0.047386 0.043623 -0.179617 -0.073960 0.077032 -0.041431 -0.058391 0.088413 -0.017534 -0.020697 -0.066742 -0.063582 -0.055649 0.051768 -0.039602 0.022033 -0.023497 0.023435 -0.031370 -0.018475 -0.065712 0.038651 -0.157726 -0.105161 -0.113800 -0.219725 0.071782 0.079462 -0.006731 0.042240 -0.028482 0.100835 -0.078042 0.032807 -0.010297 -0.032578 -0.163020 0.013312 -0.189093 -0.002342 -0.007711 -0.026359 -0.061701 -0.103153 -0.009547 0.116748 -0.026049 0.136909 -0.050821 -0.090701 -0.137631 -0.123617 0.010615 0.070618 0.097413 -0.138110 -0.004205 -0.065009 0.112512 -0.162341 -0.078132 -0.082896 -0.090041 0.053798 0.022034 -0.006164 -0.103506 -0.026540 -0.001132
22 -0.124024 -0.226821 0.110325 -0.086781 -0.027717 -0.089055 -0.017091 0.074981 0.088134 0.093692 -0.093287 0.056716 -0.007276 -0.059619 0.062507 -0.128469 0.015925 -0.007075 0.162273 -0.034517 0.048136 0.053530 0.068999 -0.094172 -0.038838 0.139427 0.067903 0.137408 -0.023111 0.015824 -0.076137 0.114584 -0.026026 0.041611 0.005996 -0.093518 0.067657 -0.003739 0.108706 0.056146 -0.103196 -0.075407 0.030177 0.156471 -0.050952 0.072942 -0.070274 0.010533 -0.015771 0.081481 -0.182972 0.052195 0.039292 0.136350 -0.149494 -0.052872 -0.120460 0.058081 -0.140802 -0.050376 0.039641 -0.172356 -0.070292 0.076344 -0.040336 -0.054271 0.080790 -0.017122 -0.013726 -0.064217 -0.060327 -0.052978 0.050711 -0.038901 0.025183 -0.022998 0.017959 -0.027897 -0.016358 -0.066133 0.033793 -0.149276 -0.098358 -0.109569 -0.213651 0.062915 0.081906 -0.010944 0.045503 -0.029342 0.096321 -0.076933 0.031155 -0.011764 -0.032635 -0.156057 0.010374 -0.180770 0.003099 -0.012739 -0.023731 -0.055566 -0.094100 -0.009477 0.113688 -0.024775 0.131885 -0.046995 -0.089727 -0.134394 -0.114079 0.008745 0.069709 0.094765 -0.131979 -0.002558 -0.068104 0.106652 -0.159152 -0.077025 -0.077421 -0.091906 0.053390 0.021720 -0.006272 -0.100882 -0.020793 -0.001527
32 -0.113100 -0.201082 0.093864 -0.076376 -0.023622 -0.075885 -0.011464 0.066423 0.077944 0.084553 -0.082331 0.050826 -0.009255 -0.049914 0.053265 -0.109862 0.017554 -0.006404 0.135841 -0.032604 0.040107 0.050168 0.054828 -0.085325 -0.034427 0.119212 0.059182 0.128113 -0.020298 0.009480 -0.068508 0.102915 -0.016439 0.039183 0.004052 -0.080047 0.063298 0.001159 0.096995 0.049271 -0.097111 -0.061897 0.028264 0.134734 -0.049972 0.059485 -0.056344 0.008821 -0.016535 0.069701 -0.159820 0.048978 0.036392 0.123560 -0.137742 -0.049261 -0.110060 0.047805 -0.126009 -0.042823 0.034698 -0.152941 -0.066811 0.067783 -0.038022 -0.049860 0.072067 -0.013974 -0.014859 -0.062530 -0.055329 -0.045421 0.046452 -0.034751 0.016447 -0.019138 0.019305 -0.025358 -0.017077 -0.057962 0.031103 -0.132509 -0.085654 -0.093182 -0.187887 0.061075 0.071225 -0.005943 0.039035 -0.028178 0.084504 -0.063793 0.029511 -0.010216 -0.027014 -0.138062 0.010043 -0.160482 -0.003462 -0.012838 -0.018624 -0.052404 -0.087807 -0.013106 0.101842 -0.019913 0.119576 -0.045791 -0.082882 -0.116914 -0.102247 0.004900 0.061695 0.084004 -0.112199 0.000101 -0.057881 0.096869 -0.134363 -0.068225 -0.071142 -0.082897 0.045237 0.022970 -0.003306 -0.092872 -0.023958 0.000986
