34 50
34 0.041187 -0.160859 0.197983 -0.071632 0.191335 -0.158307 -0.310875 -0.060911 0.042825 0.194050 -0.183005 -0.107991 -0.160733 0.291734 -0.200515 0.155208 -0.188952 -0.106638 0.073398 0.201137 -0.184373 -0.136617 0.138995 -0.007307 -0.370633 0.014886 -0.172833 -0.521746 -0.094588 -0.273702 -0.190901 -0.183474 -0.140198 0.228950 -0.006981 -0.156701 0.210556 -0.045839 0.076752 -0.038700 0.095093 0.103613 0.143890 -0.079017 -0.119018 -0.037181 0.013130 0.153164 0.190131 0.020148
1 -0.205483 -0.342368 0.048672 0.081621 0.163013 -0.117288 -0.143824 0.275348 0.030115 0.000960 -0.082585 -0.118666 -0.357406 0.103491 -0.076600 0.086503 -0.229174 -0.242203 0.127487 0.133438 -0.020587 -0.015313 0.040355 -0.209772 -0.395193 -0.207690 -0.120905 -0.413381 -0.190710 0.099619 0.057176 -0.090642 0.359776 0.257339 0.205124 -0.023217 -0.102585 0.106366 -0.106891 0.065071 -0.012009 0.086194 -0.189612 0.086539 -0.022604 -0.076791 0.099832 0.293708 0.184678 -0.014319
33 0.056936 -0.207634 0.313919 0.159777 0.404228 -0.175339 -0.436551 0.043081 0.168944 0.166739 -0.264989 -0.061052 -0.120212 0.343205 -0.129092 0.089882 -0.283426 -0.044510 0.087240 0.077420 -0.082067 -0.135988 0.109506 0.141789 -0.305384 0.165343 -0.016165 -0.345199 -0.102625 -0.349090 -0.386857 -0.152587 -0.394465 0.241089 -0.031554 -0.248985 0.136087 0.043051 0.034519 0.060562 0.115905 0.044479 0.135515 -0.053024 -0.028803 0.007714 -0.138162 0.209554 0.019014 -0.084545
3 -0.076533 0.008128 -0.101820 -0.072616 0.140423 -0.170632 -0.257047 0.013788 0.081596 0.234775 -0.000346 -0.011381 -0.205610 0.147192 -0.155829 0.021875 -0.272648 -0.155174 0.106830 0.113701 -0.030263 0.010270 0.250284 -0.024254 -0.343512 -0.029028 -0.183203 -0.389773 -0.108666 -0.072419 -0.074031 -0.180998 0.135708 0.402325 0.225518 -0.014127 0.029408 0.229649 0.001519 0.073696 0.111341 -0.125707 -0.089406 0.069741 -0.029319 -0.063787 -0.111486 0.344915 0.211589 -0.055438
2 -0.211276 -0.227365 0.063136 -0.025931 0.255153 -0.208867 -0.080024 0.157420 0.107349 0.025625 -0.082325 -0.089504 -0.314950 0.034050 -0.085348 -0.006415 -0.262732 -0.166398 0.109969 0.239667 0.005117 -0.075847 0.064663 -0.181664 -0.363188 -0.168421 -0.130416 -0.385305 -0.165634 -0.038660 -0.027229 -0.100538 0.291104 0.294083 0.188689 -0.013396 -0.018446 0.178914 -0.136713 0.142888 -0.040348 0.164671 -0.089771 0.105448 -0.051808 -0.122192 -0.007124 0.331644 0.189673 -0.022047
32 0.007563 -0.167624 0.000932 -0.023558 0.384736 -0.287801 -0.206122 -0.007594 0.224920 0.086132 -0.027564 -0.082279 -0.407192 0.247921 -0.277530 0.166326 -0.400025 -0.015909 -0.104936 0.015880 -0.058146 -0.205790 0.174941 -0.002159 -0.294378 -0.138231 -0.364478 -0.296305 -0.088984 -0.160527 -0.151543 -0.057643 -0.204282 0.174353 0.042606 0.112991 -0.090553 0.138959 0.167309 -0.131520 0.227426 -0.122363 0.011466 0.007118 0.077325 0.086773 -0.055549 0.263097 0.040394 -0.088902
4 -0.212392 -0.236722 0.170870 -0.024048 0.237861 -0.152324 -0.276970 0.227131 0.058104 0.122750 -0.096408 0.008449 -0.215848 0.043138 -0.043548 0.122457 -0.068215 -0.271286 0.126206 0.151286 0.057792 0.125648 0.050268 -0.157462 -0.383707 -0.067811 -0.174364 -0.428747 0.004547 0.028712 -0.016772 -0.050959 0.243731 0.413743 0.146624 -0.049862 -0.096169 0.281623 -0.122422 0.151193 -0.085165 -0.018765 -0.205121 0.155710 -0.084061 0.008104 0.060712 0.343413 0.060751 -0.089423
24 0.031747 -0.123964 -0.007002 -0.017265 0.458063 -0.162292 -0.298701 -0.015103 0.066226 0.207614 -0.096721 -0.085920 -0.267821 0.368558 -0.183140 -0.003962 -0.315442 0.022246 0.014777 0.058580 -0.092026 -0.148084 0.002102 0.073243 -0.171269 -0.033683 -0.182417 -0.162809 -0.142232 -0.254020 -0.263407 -0.234589 -0.252071 0.490003 -0.003046 0.016252 0.044051 0.136605 0.200092 -0.033193 0.359612 -0.184895 0.172222 0.013187 0.103897 0.104012 -0.177411 0.226778 0.114529 -0.329137
14 -0.104254 -0.174310 0.049579 0.027963 0.275578 -0.238168 -0.190889 0.127238 0.105572 0.020412 -0.059195 -0.106577 -0.257931 0.070433 -0.035180 0.046948 -0.259276 -0.137914 0.090897 0.213452 0.025511 -0.023591 0.112032 -0.058637 -0.245375 -0.096138 -0.127826 -0.341881 -0.129776 -0.089216 -0.138384 -0.188524 0.073614 0.357831 0.130134 -0.040009 0.037508 0.175007 -0.129223 0.177648 -0.004682 0.072004 0.024514 0.064558 -0.001659 -0.052330 -0.074729 0.297424 0.139031 -0.116924
30 0.094474 -0.380377 -0.017965 0.055963 0.397725 0.092596 -0.740868 0.064723 -0.041236 0.405672 -0.088455 -0.084884 -0.237970 0.487561 -0.034804 0.119079 -0.169737 -0.061867 0.190908 -0.079235 -0.194650 -0.248289 0.002297 0.044302 -0.148361 0.149985 -0.068730 -0.292373 -0.097075 -0.199370 -0.133309 -0.340880 -0.219521 0.205708 -0.008941 -0.115345 0.284010 -0.066010 -0.052282 -0.075783 0.214682 0.096705 0.222761 0.014010 0.085794 0.120521 -0.050980 0.136409 0.257174 -0.191413
6 0.015257 -0.207790 -0.044794 0.115308 0.099185 -0.278149 0.100318 0.088051 0.079371 -0.046562 -0.182250 0.047727 -0.369133 0.441745 -0.384580 0.125244 -0.512825 -0.358216 0.164174 0.099569 -0.247575 0.361572 -0.084481 -0.069917 -0.321863 -0.029155 0.061852 -0.565740 -0.132964 0.253453 0.122500 -0.138633 0.544005 0.189562 0.239218 0.091598 -0.287319 0.073014 0.177566 0.089564 0.280932 -0.374340 -0.398888 -0.083541 -0.012811 0.130524 0.253714 0.173042 0.192780 -0.302922
28 -0.038264 -0.066897 0.116917 0.087138 0.547439 -0.141724 -0.376620 0.121136 0.145476 0.148363 -0.008085 -0.025212 -0.366520 0.231926 -0.150976 0.117742 -0.208087 -0.151274 0.019187 -0.044508 -0.050999 -0.123247 0.108439 0.054400 -0.251237 0.016459 -0.363885 -0.228351 -0.050072 -0.250012 -0.200123 -0.057645 -0.215872 0.311698 0.038801 0.038939 0.051903 0.208172 0.062544 -0.086491 0.139910 0.005475 0.027662 0.073497 0.013972 0.321223 -0.034588 0.359702 -0.014022 -0.094970
7 -0.190724 -0.331993 0.054203 0.159740 0.294552 -0.068435 0.014753 0.230564 0.096841 0.043941 -0.266413 0.006669 -0.175546 0.157432 -0.121333 0.009673 -0.418332 -0.227198 0.027817 0.098922 -0.087679 0.246150 -0.003157 -0.186751 -0.455350 -0.160114 0.017036 -0.510191 -0.221185 0.167735 0.213351 0.021464 0.579831 0.174676 0.214302 0.152924 -0.295163 0.066956 0.138499 0.188585 0.202004 -0.199127 -0.333800 -0.048191 -0.054714 0.075750 0.206703 0.315927 0.260640 -0.327339
8 -0.151913 -0.186811 0.041545 0.034139 0.327964 -0.352882 -0.064268 0.112301 0.062728 -0.077399 -0.055008 -0.085321 -0.245269 -0.032138 0.013817 0.074269 -0.310810 -0.183381 0.066436 0.249487 0.044363 0.133193 0.165013 -0.060049 -0.200387 -0.090721 -0.117525 -0.421303 -0.124619 0.027872 -0.028096 -0.178750 0.290233 0.341186 0.174894 0.026424 0.025875 0.267253 -0.153651 0.371687 -0.065880 0.033316 -0.017125 0.012684 -0.013350 0.012901 -0.032805 0.364107 0.113267 -0.201113
9 -0.115785 -0.279991 0.065561 0.051393 0.327146 -0.202978 -0.316336 0.087949 0.071498 0.162536 -0.148897 -0.067142 -0.090616 0.057615 -0.001667 0.059560 -0.290327 -0.094376 0.086802 0.093306 -0.000557 0.026103 0.195392 -0.055486 -0.333347 -0.017389 -0.061625 -0.427654 -0.079605 -0.049893 -0.019731 -0.117725 0.140295 0.167075 0.093289 -0.037445 0.029620 0.163802 -0.075683 0.188804 0.055276 -0.056214 0.002755 0.019218 -0.014822 -0.068663 -0.017221 0.292274 0.129797 -0.105558
25 0.092512 -0.103421 -0.193431 -0.010473 0.442649 -0.289453 -0.336527 0.013980 0.194678 0.029207 0.097969 0.021307 -0.509116 0.375297 -0.238370 0.059349 -0.359714 -0.038036 -0.103439 0.078380 -0.016085 -0.153931 0.050761 0.054205 -0.116955 -0.075914 -0.241271 -0.155773 -0.119010 -0.121903 -0.203781 -0.210272 -0.312259 0.360653 0.225570 0.066713 -0.132958 0.068420 0.108879 -0.111859 0.199277 -0.149267 0.020944 0.109805 0.138452 0.016640 -0.194274 0.286059 0.118970 -0.310351
26 0.224040 0.032189 -0.099060 0.134781 0.616833 -0.339726 -0.448795 -0.022639 0.148606 0.091169 0.165349 0.048086 -0.493657 0.483357 -0.254862 0.126750 -0.358547 -0.141083 0.000783 -0.054419 -0.154395 -0.226054 0.163249 0.268920 -0.090499 0.135230 -0.274382 -0.169614 -0.148643 -0.254648 -0.341925 -0.248547 -0.511642 0.259666 0.242373 0.005567 0.045853 0.089292 0.109752 -0.131237 0.175492 0.012742 0.093647 -0.025600 0.178203 0.348969 -0.208675 0.347082 0.022942 -0.163363
5 -0.164075 -0.384658 0.071052 0.071124 0.109048 -0.095526 0.070402 0.120839 -0.032377 0.016934 -0.214498 -0.149980 -0.295734 0.285190 -0.241204 0.119345 -0.376369 -0.179444 0.082272 0.087494 -0.166325 0.058052 -0.026288 -0.198694 -0.330548 -0.186925 -0.006509 -0.518121 -0.306248 0.180006 0.139660 -0.096670 0.543151 0.172799 0.121110 -0.012589 -0.044271 0.000137 0.080585 0.189800 0.174660 -0.054659 -0.175342 -0.088677 -0.097903 -0.018437 0.168703 0.194854 0.240223 -0.170169
20 -0.142203 -0.327217 0.228324 -0.042880 0.174670 -0.072197 -0.240390 0.102427 0.130893 0.117843 -0.222169 -0.086714 -0.266153 0.145419 -0.079022 0.119547 -0.135465 -0.066230 0.053545 0.101165 0.008080 0.028004 0.032340 -0.170449 -0.263461 -0.088574 -0.106865 -0.500868 -0.100081 -0.092164 -0.123459 -0.190688 0.164071 0.329111 0.024693 -0.021750 0.115523 0.103322 -0.128444 0.284250 -0.054998 0.094102 0.050198 0.047274 -0.114274 -0.042643 -0.010497 0.217333 0.149020 -0.193424
11 -0.170783 -0.471592 0.089923 0.098898 0.372550 -0.113817 -0.021813 0.189461 0.007300 0.063164 -0.253106 -0.072513 -0.262658 0.192538 -0.182161 0.099910 -0.361336 -0.224547 0.012081 0.042981 -0.187546 0.136330 -0.054374 -0.261414 -0.400686 -0.248751 -0.096674 -0.485727 -0.213100 0.162534 0.272251 0.041945 0.506968 0.062995 0.064801 0.162317 -0.172454 0.007813 0.169601 0.089088 0.231034 -0.157072 -0.210495 -0.091579 -0.005931 0.143606 0.316923 0.163912 0.198806 -0.227073
31 -0.069409 -0.278638 0.078322 0.087595 0.142204 -0.059092 -0.370824 0.090787 0.118068 0.200013 -0.159281 -0.107182 -0.159605 0.201995 -0.041635 0.107037 -0.243448 -0.045123 0.088311 -0.019320 0.008348 -0.031745 0.160358 -0.051370 -0.296852 -0.019415 -0.042627 -0.451601 -0.141397 -0.065310 -0.131865 -0.221431 0.058626 0.224240 0.101658 -0.064585 0.084816 0.078687 -0.128800 0.200777 0.031377 0.000556 0.058171 0.027751 -0.048275 -0.068135 -0.087778 0.254569 0.167002 -0.129880
29 -0.028553 -0.305306 0.061677 0.057794 0.424149 -0.286089 -0.274673 0.081088 0.106033 -0.019178 -0.043798 -0.081799 -0.360410 0.156421 -0.055050 0.091893 -0.322254 -0.095069 -0.004859 0.165171 -0.021321 -0.067329 0.075202 -0.052345 -0.178499 -0.108050 -0.096496 -0.305406 -0.134728 -0.039262 -0.113707 -0.204568 -0.017124 0.189326 0.150287 0.015539 -0.008178 0.114139 -0.115131 0.182981 -0.029541 0.069856 0.064175 0.014626 0.074807 -0.006882 -0.069385 0.201002 0.070678 -0.216978
17 -0.251900 -0.334235 0.097823 0.307422 0.263190 -0.057124 0.322574 0.274917 0.132270 -0.020801 -0.299892 -0.025803 -0.339371 0.355868 -0.262964 0.080557 -0.571835 -0.292381 0.030145 0.035460 -0.108645 0.206966 -0.057268 -0.161263 -0.524284 -0.185137 0.041344 -0.470816 -0.351155 0.318536 0.179733 0.080685 0.686521 0.207786 0.319389 0.162357 -0.468074 0.141487 0.229007 0.176169 0.308020 -0.282905 -0.555237 -0.098110 0.005483 0.247143 0.210369 0.358618 0.146976 -0.308232
23 -0.052184 -0.285187 0.083584 0.114525 0.232330 -0.020250 -0.383450 0.012936 0.094888 0.291080 -0.213199 -0.192909 -0.090133 0.251372 -0.020291 0.054938 -0.336807 0.086463 0.075681 -0.026033 -0.033017 -0.232550 0.230592 0.021444 -0.360000 -0.005597 -0.028472 -0.368229 -0.197747 -0.193335 -0.193653 -0.220276 -0.107703 0.173355 0.020189 -0.110075 0.170121 0.036506 -0.031518 0.101575 0.172590 0.032422 0.165780 -0.036150 0.031862 -0.076822 -0.164863 0.221359 0.177128 -0.052143
22 -0.153606 -0.357666 0.078540 -0.130849 0.180856 -0.236745 -0.132991 0.086970 0.035549 0.015182 -0.092471 -0.132619 -0.329567 0.045268 -0.075718 0.111554 -0.206750 -0.130115 0.096580 0.220712 -0.036189 -0.003738 0.042514 -0.214108 -0.199494 -0.208248 -0.142552 -0.460810 -0.122473 0.031922 -0.005902 -0.228511 0.339338 0.304662 0.084108 0.028989 0.068784 0.169473 -0.165075 0.282225 -0.082744 0.138414 0.022403 0.035247 -0.042841 -0.108426 0.025708 0.238200 0.188564 -0.152586
18 -0.105523 -0.227374 0.114177 -0.141736 0.195766 -0.369465 -0.166457 0.048095 0.155344 -0.027881 -0.069664 -0.008314 -0.357657 0.072022 -0.219254 0.126799 -0.213473 -0.184424 0.017159 0.200626 -0.000873 0.120106 0.076646 -0.190450 -0.237436 -0.161577 -0.158987 -0.505075 -0.054318 0.013317 -0.051653 -0.129759 0.236794 0.281592 0.146527 0.025654 -0.037626 0.172084 -0.102220 0.246427 -0.147092 0.020645 -0.105060 0.081305 -0.055968 -0.098713 0.012344 0.198819 0.091642 -0.102816
10 -0.039154 -0.217967 0.100887 0.047026 0.413908 -0.272816 -0.445866 0.094530 0.129585 0.097217 -0.095257 -0.065870 -0.264074 0.160803 -0.032986 0.047144 -0.257513 -0.073695 0.069642 0.157180 0.005063 -0.078195 0.126195 0.001357 -0.254337 0.020219 -0.166292 -0.306061 -0.007415 -0.213936 -0.208730 -0.173889 -0.193915 0.251556 0.033582 -0.114275 0.083784 0.167174 -0.083347 0.033817 0.051433 -0.007931 0.092777 0.093083 0.027416 -0.047788 -0.102874 0.255629 0.040841 -0.105372
16 0.037834 -0.246914 0.096342 0.089962 0.220210 -0.133654 -0.505057 -0.026964 0.192573 0.273607 -0.179036 -0.102377 -0.127562 0.308660 -0.116292 0.105833 -0.336287 0.042408 0.078074 -0.028350 -0.041681 -0.239259 0.258698 0.064072 -0.386128 0.086739 -0.053247 -0.417952 -0.110032 -0.252598 -0.287115 -0.195456 -0.291630 0.105996 0.058700 -0.186420 0.110795 0.017638 -0.034083 -0.013268 0.117606 0.003310 0.107490 0.010756 -0.001920 -0.167461 -0.162699 0.215165 0.115814 0.038040
27 -0.042674 -0.394289 0.139189 -0.078552 0.296965 0.013198 -0.423928 0.019975 -0.109848 0.376086 -0.179504 -0.312335 -0.175337 0.279151 -0.048695 0.136753 -0.200288 0.005250 0.210603 0.036866 -0.209875 -0.385125 0.044096 -0.049634 -0.275706 -0.103650 -0.224036 -0.333967 -0.171369 -0.290250 -0.174397 -0.277156 -0.117591 0.312026 -0.199246 -0.073677 0.319423 0.100374 0.022350 -0.044660 0.275251 0.171024 0.322218 -0.092771 0.074812 0.077380 -0.025129 0.082439 0.189596 -0.031305
21 -0.014202 -0.196579 0.046687 0.136125 0.270234 -0.096762 -0.408915 -0.006810 0.126867 0.329254 -0.183104 -0.138417 -0.048389 0.259398 -0.038021 0.047329 -0.401154 0.102665 0.052810 -0.088282 -0.027913 -0.202000 0.319821 0.125991 -0.332406 0.081390 -0.049543 -0.368922 -0.198411 -0.223096 -0.229588 -0.203401 -0.170480 0.185631 0.054597 -0.074219 0.110524 0.076492 0.067764 0.092594 0.230720 -0.049679 0.127237 -0.084469 0.068918 -0.021769 -0.220269 0.289540 0.163114 -0.082646
19 0.005730 -0.312137 0.064118 0.022873 0.211889 -0.218608 -0.489748 -0.019967 0.147151 0.231856 -0.173798 -0.123040 -0.098495 0.214922 -0.053997 0.087452 -0.339304 0.077161 0.100279 0.039272 -0.018581 -0.195013 0.277177 0.030334 -0.286063 0.036693 -0.030353 -0.427186 -0.117740 -0.220566 -0.249439 -0.246453 -0.213987 0.139052 0.008776 -0.183832 0.146873 0.065632 -0.093628 0.132466 0.064255 0.025034 0.181951 -0.030788 0.038931 -0.232552 -0.200803 0.179484 0.125726 -0.018903
13 -0.149289 -0.234327 0.121176 -0.057578 0.224684 -0.311076 -0.109439 0.082907 -0.092970 0.078866 -0.074582 -0.128616 -0.023552 -0.081639 -0.008279 0.148612 -0.206346 -0.273981 0.193604 0.318596 -0.071102 0.043647 0.213437 -0.089538 -0.348970 -0.114030 -0.143216 -0.579943 -0.138240 -0.022277 0.036471 -0.111696 0.315097 0.247246 0.103520 -0.095032 0.115871 0.188675 -0.139286 0.270187 -0.056256 0.148851 -0.023823 -0.065450 -0.063145 -0.012408 0.092219 0.344480 0.217073 0.021337
15 -0.035880 -0.239026 0.030853 0.138956 0.203573 -0.050923 -0.493087 0.041819 0.142501 0.322145 -0.196372 -0.141064 -0.048744 0.246640 0.028209 0.020679 -0.352763 0.138522 0.053269 -0.067164 0.050358 -0.182189 0.290320 0.079053 -0.363354 0.072542 0.003215 -0.353277 -0.151663 -0.182305 -0.234813 -0.235586 -0.206747 0.220029 0.094658 -0.127942 0.057960 0.087102 -0.012008 0.087868 0.176194 -0.095840 0.126013 0.006926 0.079303 -0.168628 -0.275312 0.281142 0.155575 -0.115535
12 -0.107650 -0.378891 0.143303 -0.021195 0.211079 -0.383237 -0.115487 0.056738 0.123149 -0.053225 -0.159147 -0.069813 -0.204603 0.059066 -0.148474 0.159907 -0.314704 -0.143339 0.042206 0.231075 -0.031063 0.041786 0.150807 -0.186927 -0.340714 -0.202939 -0.070083 -0.554198 -0.117408 0.035124 -0.014396 -0.077769 0.200535 0.051188 0.109680 -0.061658 -0.100585 0.089321 -0.106122 0.225960 -0.088163 0.036669 -0.099727 -0.029259 -0.067337 -0.185197 0.083085 0.222810 0.104714 -0.054364
