34 50
34 0.056763 -0.222444 0.163587 0.047239 0.256777 0.071486 -0.254819 0.082330 -0.058627 0.058324 -0.063242 -0.121847 -0.049081 0.370085 -0.054036 0.042903 -0.208980 -0.073261 0.034346 0.075026 -0.128915 -0.287624 0.151178 0.275023 -0.225791 0.055079 -0.097533 -0.188824 -0.259302 -0.089261 -0.189261 -0.166297 -0.207901 0.248605 0.014128 -0.260979 0.263554 -0.193523 -0.017744 -0.066801 0.062582 0.211822 0.145997 -0.176380 0.000047 0.069233 -0.229039 0.116767 -0.013122 0.108084
1 -0.007515 -0.264251 0.050503 0.167759 0.208104 -0.089726 -0.176056 0.046490 -0.082944 0.234638 -0.239433 -0.145235 -0.270750 0.347904 -0.165081 0.091156 -0.134801 0.130933 0.310210 0.005653 -0.132839 -0.224611 0.067421 0.104331 -0.382950 -0.020180 0.121806 -0.420744 -0.076629 -0.049371 -0.226666 -0.289531 0.042521 0.381220 0.104035 -0.088258 0.101631 -0.172221 0.027857 -0.118079 0.353558 -0.017894 0.057151 0.055831 0.259330 0.166777 -0.127453 0.245185 0.273674 -0.178042
2 -0.129509 -0.264575 0.066271 -0.018486 0.118217 -0.166743 -0.413195 0.273854 0.109360 0.132339 -0.155764 -0.206972 -0.234138 0.515040 -0.237054 0.078214 -0.267184 0.198918 0.289280 -0.044113 -0.120756 -0.182588 0.079114 0.120374 -0.319726 0.077231 0.090294 -0.363501 -0.134003 -0.002326 -0.035190 -0.121789 0.164341 0.211136 0.079705 -0.118084 0.062232 -0.116996 -0.034615 -0.041201 0.233947 0.008918 0.140636 0.041249 0.051356 -0.093144 -0.248555 0.259194 0.353226 -0.014627
3 -0.048091 -0.035880 0.051758 -0.039574 0.203148 -0.081443 -0.293169 0.091948 0.082073 0.175869 -0.175731 -0.272843 -0.188839 0.339252 -0.191126 0.117406 -0.110613 0.090145 0.365653 -0.055236 -0.065818 -0.192377 0.357518 0.013446 -0.457250 0.030892 -0.127689 -0.416930 -0.213156 -0.119146 -0.068879 -0.108072 -0.031848 0.317019 -0.003689 -0.235815 0.202354 0.064513 0.023250 0.011222 0.182074 0.002185 0.001455 -0.099975 -0.094252 0.037274 -0.202318 0.247547 0.178036 -0.082263
33 0.190633 -0.269482 0.134290 0.193121 0.289935 0.322141 -0.240792 0.027300 -0.155569 0.044254 -0.051490 0.013993 -0.085734 0.543506 -0.120756 0.103042 -0.102823 -0.175116 -0.077610 -0.104890 -0.250427 -0.217803 -0.087392 0.313282 -0.028643 -0.029248 -0.204744 -0.147494 -0.239215 -0.156885 -0.197972 -0.096095 -0.312530 0.280496 -0.104734 -0.237501 0.383532 -0.361654 0.055579 -0.095737 0.148185 0.271703 0.200819 -0.012095 0.064279 0.082071 -0.181714 0.173640 0.201184 0.242805
24 0.039843 -0.161535 0.063994 0.090398 0.172902 0.082799 -0.420884 0.010201 0.002928 0.165500 0.131744 -0.196707 0.083008 0.330192 0.005611 0.226176 -0.073735 0.026862 -0.184725 -0.085145 0.060260 -0.332826 0.048995 0.213604 -0.083860 -0.035406 -0.361952 -0.023288 -0.089373 -0.167997 -0.209842 -0.114144 -0.412531 0.201794 -0.193717 -0.270353 0.445748 -0.280087 -0.080288 -0.320196 0.206995 0.128767 0.269937 0.091477 0.000106 0.077841 -0.183090 0.136370 0.083251 0.141641
14 -0.080042 -0.332340 0.022280 0.134207 0.211239 -0.104498 -0.304880 -0.027501 0.099273 0.072834 -0.102712 -0.191143 -0.039220 0.305042 -0.187849 -0.013884 0.005271 0.165286 0.393335 -0.249701 -0.056734 -0.201677 0.231469 -0.123216 -0.544028 -0.079396 -0.075248 -0.417492 -0.275450 -0.100512 -0.081640 -0.089784 0.011783 0.255665 -0.061018 -0.357313 0.225565 0.064373 0.117927 -0.005567 0.119943 0.056253 0.044693 0.054365 0.053978 0.091415 -0.254531 0.188970 0.177822 -0.127070
28 0.087567 0.017478 0.136917 -0.109705 0.266375 0.070685 -0.400877 0.028845 -0.090063 0.136235 -0.030046 -0.237452 -0.092494 0.518763 -0.123291 0.238288 0.007356 -0.047720 0.199122 -0.160714 0.083303 -0.186963 0.064381 0.163721 -0.127170 0.114493 -0.226374 -0.175498 -0.102699 -0.105811 -0.116590 -0.015870 -0.162175 0.359166 -0.187335 -0.169056 0.262370 -0.211456 -0.006202 0.061547 0.050346 0.213110 0.321636 0.070764 0.051324 0.078182 -0.125750 0.042289 0.003297 0.040955
32 -0.188238 -0.201212 0.231592 0.245288 0.089803 -0.146293 -0.370511 0.267242 0.163754 0.012845 -0.003209 -0.151313 -0.126393 0.329429 0.045293 0.099464 -0.329169 0.169968 -0.002726 0.062401 0.022705 -0.148823 0.161396 0.132156 -0.198183 0.311845 -0.377914 -0.230559 -0.140268 0.030410 -0.042740 -0.066464 -0.290189 0.252825 -0.120291 -0.267110 0.116288 -0.064231 0.085810 -0.008299 0.271332 0.082424 0.155526 -0.184852 0.128813 0.352535 -0.174003 0.050013 -0.086000 -0.031046
30 0.074031 -0.295810 0.164010 0.141456 0.120636 0.325150 -0.307473 -0.021130 -0.062714 0.354015 0.130892 -0.217334 -0.052553 0.446178 0.074252 0.349325 0.049711 -0.109628 -0.058105 -0.257530 -0.089557 -0.338816 0.139468 0.325549 -0.084005 0.359460 -0.443572 -0.117900 0.011480 -0.300938 -0.281157 -0.181281 -0.695889 0.020800 -0.319965 -0.218232 0.363467 -0.222136 -0.119949 -0.125709 -0.167938 0.203000 0.321306 0.126027 0.085363 0.232450 -0.022450 0.168218 -0.059696 0.203362
7 0.045344 -0.573724 0.081503 0.249497 0.213939 0.426352 -0.132911 0.126104 -0.032733 0.206983 -0.305631 -0.038938 -0.171145 0.394998 -0.132740 -0.105036 -0.145358 -0.146103 0.106972 -0.345551 -0.371279 -0.066373 -0.087674 0.098122 -0.411048 0.010412 -0.010453 -0.399318 -0.330980 -0.173972 -0.074370 -0.218960 0.092578 0.333100 0.013336 -0.114026 0.183876 -0.223523 0.216049 -0.056617 0.299298 -0.180620 0.200208 0.062712 0.240647 0.033858 -0.140253 0.352875 0.454645 -0.114383
4 -0.146898 -0.144051 0.087319 -0.142800 0.134645 -0.007312 -0.281817 0.111667 -0.025457 0.310185 -0.183249 -0.129970 -0.199392 0.418677 -0.097326 0.176521 -0.114426 0.023049 0.334776 0.016777 0.071411 -0.169057 0.078196 0.086048 -0.534872 0.220406 0.113564 -0.563638 -0.050368 0.012969 -0.115922 -0.125367 0.099202 0.420005 0.073974 -0.189439 0.092125 -0.279928 -0.081991 -0.007532 0.201116 -0.026586 0.180103 0.170183 0.068435 -0.052579 -0.163939 0.354799 0.248392 -0.111565
6 -0.276168 -0.453033 0.176687 0.037965 0.453924 -0.354911 -0.234716 0.275435 -0.069833 0.244341 -0.126460 -0.120252 -0.251460 0.343635 -0.273949 0.049732 -0.268671 0.069677 0.267998 0.102973 -0.267967 -0.113565 -0.095145 0.206056 -0.352466 0.223859 -0.021062 -0.185426 -0.189248 0.084533 -0.015120 -0.258046 0.299881 0.572560 -0.054446 -0.099739 0.065630 -0.071673 0.223435 0.145352 0.563472 -0.126733 0.041331 -0.119181 0.328740 0.260830 -0.097419 0.133415 0.366873 -0.120079
8 -0.092105 -0.113148 -0.050183 0.049688 0.362302 -0.015555 -0.278219 0.268260 -0.010600 -0.020422 -0.255929 -0.108567 -0.124690 0.317123 -0.128134 -0.089267 -0.156752 0.129292 0.342213 -0.250846 -0.133021 -0.185503 0.011276 0.227569 -0.303771 0.221665 0.101251 -0.356529 -0.228935 -0.156818 -0.066798 -0.209084 0.171630 0.381694 0.057799 -0.027540 0.147888 -0.080619 0.136239 0.113783 0.314113 -0.150791 0.295315 0.053938 0.252348 0.025039 -0.338119 0.215333 0.397687 -0.364177
15 0.082171 -0.536463 0.093321 0.075376 0.200261 0.299794 -0.333992 0.021399 -0.090584 0.143571 -0.079085 -0.221352 -0.026124 0.410116 -0.074359 -0.056248 -0.020047 0.114111 -0.153090 -0.045760 -0.275676 -0.134979 0.079507 0.069984 -0.145225 0.019662 -0.129439 -0.030090 -0.101760 -0.121933 -0.100725 -0.180442 -0.407444 0.090809 -0.194491 -0.277724 0.429868 -0.236752 0.123469 -0.311796 0.134485 -0.012209 0.240572 -0.076829 0.067355 0.005660 -0.218166 0.097590 0.085504 -0.030238
11 -0.314744 -0.573135 0.293558 0.206066 0.413718 -0.122165 -0.390164 0.493402 -0.094961 0.074033 -0.367452 -0.163427 -0.069748 0.369846 -0.074866 -0.038351 -0.303505 0.002606 0.177400 0.025629 -0.148157 0.044998 0.088814 0.236239 -0.369719 0.114930 -0.192359 -0.343533 -0.314155 0.099280 0.181706 0.041099 0.365046 0.762724 -0.009307 -0.084247 0.089117 -0.042269 0.190374 0.328523 0.470622 -0.182090 -0.198153 -0.126106 0.113533 0.070907 0.020085 0.067938 0.369213 -0.169502
26 -0.035566 -0.221434 0.141855 0.289765 0.495280 -0.069624 -0.870795 0.110832 0.128365 0.236849 0.092260 0.045632 -0.081651 0.171801 0.075485 0.031732 -0.200902 -0.052644 0.150827 0.026286 -0.072950 -0.250286 0.062336 0.112077 -0.029124 0.144441 -0.182416 0.015529 -0.182011 -0.035915 -0.186497 -0.207605 -0.322917 0.071620 -0.028496 -0.329438 -0.038892 0.108142 0.064652 0.053842 0.074909 0.353881 0.112482 -0.257545 0.242718 0.226204 -0.186559 -0.152564 -0.201888 0.100535
9 0.004558 -0.113999 -0.023346 -0.043138 0.405998 0.040752 -0.137072 0.042234 -0.021722 0.195863 0.003852 -0.246986 0.070188 0.484572 -0.067768 0.269992 -0.022863 0.065637 0.014696 -0.087573 -0.131480 -0.395714 0.077546 0.412009 -0.123242 0.306360 -0.118813 -0.006676 -0.038687 -0.286699 -0.174620 -0.168471 -0.427354 0.100375 -0.130362 -0.111058 0.334197 -0.181136 0.054229 -0.228780 0.125208 -0.068687 0.236100 0.035053 0.124989 0.194759 -0.202438 0.072226 0.202536 -0.079652
31 -0.038781 -0.269076 0.132702 0.298343 0.412596 0.239574 -0.722729 0.226220 0.049081 -0.046404 0.133230 -0.131458 -0.018968 0.276610 0.042867 0.219418 -0.177706 -0.170420 -0.183105 -0.348977 0.018585 -0.145240 -0.070869 0.151365 -0.049089 -0.096593 -0.244644 -0.089208 -0.450302 -0.045647 -0.120474 -0.086055 -0.234557 0.192899 -0.001975 -0.104937 0.182382 -0.134609 0.136902 0.012535 0.076884 -0.039494 0.229812 -0.005509 0.056164 0.274232 -0.272055 -0.130054 -0.009979 0.017607
25 -0.140147 -0.289125 -0.001744 0.075021 0.735519 -0.114576 -0.803107 0.128013 0.151617 0.153885 0.265570 -0.004780 -0.051610 0.039977 0.166917 0.187026 -0.157453 -0.011323 0.056813 0.280541 0.305965 -0.270290 0.130619 0.064194 0.041228 0.048847 -0.398140 0.103421 -0.020115 -0.151320 -0.169039 -0.204491 -0.511268 0.279225 -0.152393 -0.279680 0.103507 0.093913 -0.126026 0.074642 0.012282 0.395310 0.213526 -0.009916 0.056348 0.030037 -0.208242 -0.096466 -0.110491 -0.032572
29 -0.101488 -0.296633 0.223097 0.201015 0.276225 0.220962 -0.572284 0.291434 -0.141844 0.132173 -0.114905 -0.203827 0.054872 0.199306 0.110290 0.068493 -0.040830 -0.070430 -0.024071 -0.101487 0.015813 -0.239350 -0.002417 0.294688 -0.212150 0.240775 0.003861 -0.038550 -0.199796 -0.151474 -0.233407 -0.170917 -0.140378 0.300299 0.094816 -0.001822 0.251891 -0.350249 -0.015190 -0.093724 0.026657 -0.130909 0.163247 0.081395 0.098004 0.127952 0.001842 -0.013583 0.101058 -0.147335
21 0.006478 -0.397090 0.148245 0.267054 0.184710 0.156765 -0.639042 0.080134 -0.137366 0.306222 0.083731 -0.124513 0.091181 0.147150 -0.017458 -0.021206 0.030910 0.050896 -0.059113 -0.362405 -0.177658 -0.169184 -0.047507 0.235332 0.159307 0.077156 -0.393808 0.135094 -0.107031 -0.246909 -0.191699 -0.165125 -0.306923 0.129594 -0.430967 -0.287672 0.467168 -0.082876 0.003748 -0.025042 0.117762 0.217914 0.282477 -0.009398 0.152218 0.064932 -0.150266 0.147104 0.102414 0.270437
20 0.102091 -0.083408 -0.244833 -0.012688 0.246920 0.180430 0.048188 0.002669 0.007729 0.266614 -0.285542 -0.099519 -0.105383 0.285466 -0.084630 0.087884 0.032741 0.007843 0.413770 -0.307615 -0.096080 -0.197115 0.003497 0.202501 -0.366147 0.071787 -0.057671 -0.553698 -0.127956 -0.344937 -0.253918 -0.253153 -0.092210 0.378904 -0.090236 -0.110728 0.226894 -0.164294 0.031551 -0.011361 0.291826 0.009065 0.306054 0.189702 0.187757 -0.062430 -0.160475 0.383327 0.500674 -0.186093
5 -0.095365 -0.299318 0.122495 0.053350 0.287258 0.152403 -0.329210 0.130331 -0.198457 0.036425 -0.090473 -0.104163 0.020889 0.446861 -0.285646 -0.108629 0.105081 0.052159 0.139691 -0.322501 -0.284303 -0.103915 -0.097535 0.120089 -0.235575 0.212683 0.022253 -0.142361 -0.355976 -0.021142 -0.039195 -0.079074 0.122703 0.342215 -0.000648 -0.262378 0.459362 -0.272994 0.188671 0.163396 0.214903 -0.166321 0.207589 0.039928 0.021355 0.094348 -0.280455 0.156902 0.302289 -0.154584
17 -0.306571 -0.782687 0.271269 0.101696 0.347229 -0.154448 -0.093415 0.144107 -0.114018 0.180938 -0.258219 -0.190192 -0.237819 0.389435 -0.269495 0.044190 -0.012349 0.142915 0.224125 -0.027447 -0.102105 -0.070660 -0.095108 -0.022513 -0.519749 0.017935 0.326148 -0.298878 -0.235504 0.060480 -0.148108 -0.202775 0.276390 0.511275 0.058203 -0.089764 0.134709 -0.240854 0.211234 0.010600 0.324909 -0.194569 0.159108 0.109280 0.210080 0.224477 -0.159639 0.135991 0.297346 -0.189840
12 -0.283289 -0.601116 -0.060535 -0.002059 0.549609 -0.397370 -0.329205 -0.009000 0.140002 0.336216 -0.167897 -0.012766 -0.132616 0.401481 -0.159103 0.010709 -0.224540 0.152212 0.300528 0.224988 -0.067392 -0.166268 0.097730 -0.030222 -0.511378 -0.046740 0.149027 -0.510710 0.000589 0.101658 0.010943 -0.254734 0.253128 0.333947 0.136146 -0.305621 -0.065202 0.078282 -0.016776 0.010285 0.455399 -0.000986 0.000363 0.080619 0.093565 -0.103011 -0.252667 0.330586 0.319503 -0.338891
18 -0.167158 -0.372627 0.145765 0.088933 0.248375 -0.202216 -0.469062 0.020444 -0.044587 0.136682 -0.188133 -0.215641 -0.159666 0.159355 -0.028268 -0.142944 -0.240350 0.205141 0.181922 0.045163 0.122359 0.060273 0.239412 -0.140204 -0.531759 -0.081309 0.043666 -0.459971 -0.052566 0.241140 -0.028814 -0.285350 0.160878 0.526902 -0.026181 -0.243170 0.083701 -0.056648 0.024442 0.173391 0.280738 -0.032302 0.176839 0.079731 0.160280 0.009630 -0.307503 0.309630 -0.003480 -0.344576
27 0.040471 -0.181417 -0.048687 -0.038389 0.308121 -0.071385 -0.391971 0.023085 -0.003365 0.035873 0.317676 -0.129215 0.132513 0.121580 0.071505 0.241225 -0.006352 0.170748 0.144928 -0.187049 0.138790 -0.580872 -0.004810 0.370014 0.214524 0.080083 -0.500875 0.120733 0.005658 -0.529144 -0.330640 -0.178554 -0.586477 0.115419 -0.623189 -0.328580 0.468107 0.040704 -0.088734 -0.211013 0.083439 0.590303 0.640474 -0.022818 0.341969 0.108587 -0.370824 -0.080569 -0.022805 0.272361
22 -0.024405 -0.539631 0.175891 -0.152189 0.339777 -0.184347 -0.300926 0.347557 -0.023277 0.184183 -0.517803 -0.467717 -0.319650 0.410087 -0.185519 -0.055084 -0.133513 0.099463 0.572584 -0.036033 -0.214081 -0.077162 0.218604 0.161323 -0.382003 -0.034608 -0.029433 -0.452211 -0.100126 -0.136298 -0.058284 -0.257218 0.331783 0.488425 -0.130904 0.039294 -0.052163 0.126238 0.029412 0.153327 0.215633 -0.003177 0.161822 -0.131032 0.189937 -0.218091 0.054539 0.041854 0.211784 -0.262631
19 0.179014 0.044915 -0.031654 0.143645 0.508179 0.705367 -0.668497 0.009229 -0.036434 0.203088 -0.007146 0.104267 0.019837 0.441921 0.100002 0.071048 0.033095 -0.174057 -0.101076 -0.099456 -0.218881 -0.294793 -0.085489 0.122613 0.032879 0.115447 -0.193942 0.049290 -0.110879 -0.200178 -0.045472 -0.137948 -0.598991 0.127997 -0.104874 -0.329414 0.399049 -0.295538 0.216119 -0.284569 0.094862 0.112870 0.343574 -0.008722 0.269642 0.084813 -0.257036 -0.097457 0.147011 -0.062513
10 -0.012523 -0.075118 0.183995 0.298494 0.341947 -0.058411 -0.883441 0.007724 -0.071222 0.030441 -0.056058 -0.046675 -0.039140 0.374717 0.083717 -0.137354 -0.142677 0.340280 -0.059777 0.201661 -0.012215 -0.205117 0.129341 0.070813 0.154705 -0.041630 0.010615 0.019136 0.180008 0.064731 -0.097243 -0.219135 -0.399615 0.033472 -0.118123 -0.408865 0.280524 -0.081595 -0.031066 -0.213883 0.133751 0.287229 0.188564 -0.059241 0.162449 0.063770 -0.436479 0.009129 -0.182527 -0.087770
13 0.077860 -0.336168 0.002402 0.067721 0.165927 -0.006959 -0.111119 0.188334 -0.071984 -0.115159 -0.388920 -0.304686 -0.257953 0.276667 -0.037385 -0.072235 -0.226490 0.264844 0.382453 0.000522 -0.043671 -0.218246 0.250262 0.200149 -0.369698 -0.180321 0.180131 -0.519161 0.006679 -0.253183 -0.222564 -0.345883 0.000702 0.302778 -0.040145 0.027697 0.081209 -0.042515 -0.032565 -0.165638 0.122345 0.094025 0.277567 0.039647 0.298831 -0.083897 -0.317197 0.229497 0.242088 -0.304603
23 0.151193 -0.158524 0.148241 0.231807 0.321598 0.586804 -0.340196 -0.185346 -0.166935 0.584641 -0.131027 -0.247607 -0.125845 0.603391 -0.009002 0.195958 0.114027 -0.212703 -0.372992 -0.291636 -0.324834 0.056820 0.051083 0.261840 -0.154218 0.185891 -0.051644 0.029788 0.156841 0.003755 -0.136681 -0.401375 -0.622873 0.057507 -0.163102 -0.180542 0.302240 -0.451462 0.037423 -0.075758 -0.059960 -0.072807 0.460036 0.299925 0.136699 0.168447 -0.138220 0.467980 0.130625 0.046524
16 0.131564 -0.190953 -0.037227 0.178945 0.428067 0.062880 -0.534745 -0.136321 0.096365 0.374898 0.075246 -0.192008 0.011113 0.542325 -0.137645 0.282192 -0.066370 -0.055706 -0.179884 -0.161618 -0.042657 -0.081425 -0.058340 0.037023 0.049201 -0.155326 -0.421590 -0.052238 -0.136245 0.029504 -0.116322 -0.075624 -0.383717 0.249591 -0.108091 -0.230081 0.281539 -0.196463 0.069637 -0.101563 0.268680 0.012580 0.047082 0.142976 -0.078484 0.101663 -0.074827 0.117665 0.159024 0.032262
